{"learner":{"attributes":{"best_iteration":"43","best_score":"18.395359748787534","scikit_learn":"{\"_estimator_type\": \"regressor\"}"},"feature_names":["aux_GPRS046_M029_CALC_t0","aux_GPRS046_M029_CALC_t1","aux_GPRS046_M029_CALC_t3","aux_GPRS046_M029_CALC_t6","aux_GPRS051_M021_CALC_t0","aux_GPRS051_M021_CALC_t1","aux_GPRS051_M021_CALC_t3","aux_GPRS051_M021_CALC_t6","aux_GPRS051_M022_CALC_t0","aux_GPRS051_M022_CALC_t1","aux_GPRS051_M022_CALC_t3","aux_GPRS051_M022_CALC_t6","aux_GPRS053_M024_CALC_t0","aux_GPRS053_M024_CALC_t1","aux_GPRS053_M024_CALC_t3","aux_GPRS053_M024_CALC_t6","aux_GPRS054_M025_CALC_t0","aux_GPRS054_M025_CALC_t1","aux_GPRS054_M025_CALC_t3","aux_GPRS054_M025_CALC_t6","aux_GPRS058_M052_MED_t0","aux_GPRS058_M052_MED_t1","aux_GPRS058_M052_MED_t3","aux_GPRS058_M052_MED_t6","aux_GPRS059_M053_MED_t0","aux_GPRS059_M053_MED_t1","aux_GPRS059_M053_MED_t3","aux_GPRS059_M053_MED_t6","aux_GPRS065_M034_MED_t0","aux_GPRS065_M034_MED_t1","aux_GPRS065_M034_MED_t3","aux_GPRS065_M034_MED_t6","aux_GUA-RAT-013-M-C-CA-01_t0","aux_GUA-RAT-013-M-C-CA-01_t1","aux_GUA-RAT-013-M-C-CA-01_t3","aux_GUA-RAT-013-M-C-CA-01_t6","aux_GUA-RAT-014-M-C-CA-01_t0","aux_GUA-RAT-014-M-C-CA-01_t1","aux_GUA-RAT-014-M-C-CA-01_t3","aux_GUA-RAT-014-M-C-CA-01_t6","hora_sin","hora_cos","dia_sem_sin","dia_sem_cos"],"feature_types":["float","float","float","float","float","float","float","float","float","float","float","float","float","float","float","float","float","float","float","float","float","float","float","float","float","float","float","float","float","float","float","float","float","float","float","float","float","float","float","float","float","float","float","float"],"gradient_booster":{"model":{"gbtree_model_param":{"num_parallel_tree":"1","num_trees":"74"},"iteration_indptr":[0,1,2,3,4,5,6,7,8,9,10,11,12,13,14,15,16,17,18,19,20,21,22,23,24,25,26,27,28,29,30,31,32,33,34,35,36,37,38,39,40,41,42,43,44,45,46,47,48,49,50,51,52,53,54,55,56,57,58,59,60,61,62,63,64,65,66,67,68,69,70,71,72,73,74],"tree_info":[0,0,0,0,0,0,0,0,0,0,0,0,0,0,0,0,0,0,0,0,0,0,0,0,0,0,0,0,0,0,0,0,0,0,0,0,0,0,0,0,0,0,0,0,0,0,0,0,0,0,0,0,0,0,0,0,0,0,0,0,0,0,0,0,0,0,0,0,0,0,0,0,0,0],"trees":[{"base_weights":[6.697234E-1,3.4567432E1,-3.989943E1,5.4372494E1,1.5542708E1,-1.8887754E1,-6.513477E1,6.595266E1,4.459719E1,2.2693766E1,6.3206825E0,-1.1057454E1,-2.9298754E1,-5.3247227E1,-8.016344E1,-3.469039E1,6.89403E1,4.9267963E1,3.9142654E1,3.1600304E1,2.0290802E1,1.4644257E1,3.6077967E0,-6.9540257E0,-1.5953414E1,-2.2132925E1,-3.3981083E1,-5.6039803E1,-3.8555378E1,-8.574809E1,-6.618696E1,2.5609636E0,-8.908097E1,7.980654E1,6.343246E1,5.3990852E1,4.358418E1,3.963754E1,7.850899E-1,2.5798994E1,3.4715748E1,2.2705935E1,1.6127523E1,2.0357944E1,1.0860098E1,1.4487364E1,1.4334853E0,4.74783E0,-8.611162E0,-1.6414673E1,2.5564337E-1,-2.5732807E1,-1.11958475E1,-3.6192863E1,-2.4762873E1,-4.9686897E1,-6.1608463E1,-4.6448875E1,-1.762479E1,-3.7740319E0,-4.507572E0,-5.3042747E1,-4.005961E0,-5.5100026E0,-2.4789274E0,4.0701785E0,6.760499E-1,2.7218888E0,3.3560712E0,2.844187E0,2.3937E0,1.418628E0,2.2864704E0,2.0009208E0,5.652402E-1,1.4136503E0,9.223089E-1,9.956892E-1,1.776768E0,1.1871225E0,3.9122254E-1,8.5675937E-1,-7.139091E-2,5.495211E-1,1.2328485E0,6.2064683E-1,4.355621E-2,2.6754603E-1,1.152259E0,1.1045634E-1,-1.1975311E0,4.8499694E-1,1.650141E-2,-4.8044196E-1,1.9489482E-1,-1.0881002E0,-7.052309E-1,-1.0599778E0,-1.5440263E0,4.328172E-1,-8.3421755E-1,-1.9825165E0,-1.5959762E0,1.4255158E0,-1.5189899E0,-2.5237002E0,-1.0171165E0,-3.5117118E0,-2.9115114E0,-1.5422585E0,-2.6133583E0,1.9028841E0,-1.690484E0,-3.0052986E0,-1.4528044E0],"categories":[],"categories_nodes":[],"categories_segments":[],"categories_sizes":[],"default_left":[0,0,0,0,0,0,0,0,0,0,0,0,0,0,0,0,0,0,0,0,0,0,0,0,0,0,0,0,0,0,0,0,0,0,0,0,0,0,0,0,0,0,0,0,0,0,0,0,0,0,0,0,0,0,0,0,0,0,0,0,0,0,0,0,0,0,0,0,0,0,0,0,0,0,0,0,0,0,0,0,0,0,0,0,0,0,0,0,0,0,0,0,0,0,0,0,0,0,0,0,0,0,0,0,0,0,0,0,0,0,0,0,0,0,0],"id":0,"left_children":[1,3,5,7,9,11,13,15,17,19,21,23,25,27,29,31,33,35,37,39,41,43,45,47,49,51,53,55,57,59,61,-1,63,65,67,69,71,73,-1,75,77,79,81,83,85,87,89,91,93,95,-1,97,99,101,103,105,107,109,111,-1,-1,113,-1,-1,-1,-1,-1,-1,-1,-1,-1,-1,-1,-1,-1,-1,-1,-1,-1,-1,-1,-1,-1,-1,-1,-1,-1,-1,-1,-1,-1,-1,-1,-1,-1,-1,-1,-1,-1,-1,-1,-1,-1,-1,-1,-1,-1,-1,-1,-1,-1,-1,-1,-1,-1],"loss_changes":[7.1840555E6,1.0714805E6,1.2596642E6,1.5484775E5,9.5675E4,1.0556806E5,1.886645E5,1.9363125E5,1.73995E4,1.6860531E4,1.4306797E4,1.4813805E4,1.7931188E4,2.2693125E4,3.1385E4,9.33473E4,3.191025E4,8.508875E3,3.490375E3,2.2069844E3,6.1354375E3,3.1487422E3,1.1355971E4,7.91425E3,3.3694062E3,8.488211E3,5.927875E3,1.4863875E4,1.5696484E4,8.36975E3,2.1374938E4,0E0,4.5315234E3,2.0485125E4,1.0104125E4,1.106125E3,4.8626562E3,3.287E3,0E0,6.3801953E2,6.091875E2,6.0890156E3,4.289289E3,2.1819883E3,1.4769395E3,6.128885E3,7.965699E3,1.1115452E3,4.4809062E3,3.7781797E3,0E0,3.2372344E3,6.355881E3,2.6869062E3,2.121407E4,4.5556875E3,3.6486875E3,4.9161562E3,2.742152E4,0E0,0E0,1.0951375E4,0E0,0E0,0E0,0E0,0E0,0E0,0E0,0E0,0E0,0E0,0E0,0E0,0E0,0E0,0E0,0E0,0E0,0E0,0E0,0E0,0E0,0E0,0E0,0E0,0E0,0E0,0E0,0E0,0E0,0E0,0E0,0E0,0E0,0E0,0E0,0E0,0E0,0E0,0E0,0E0,0E0,0E0,0E0,0E0,0E0,0E0,0E0,0E0,0E0,0E0,0E0,0E0,0E0],"parents":[2147483647,0,0,1,1,2,2,3,3,4,4,5,5,6,6,7,7,8,8,9,9,10,10,11,11,12,12,13,13,14,14,15,15,16,16,17,17,18,18,19,19,20,20,21,21,22,22,23,23,24,24,25,25,26,26,27,27,28,28,29,29,30,30,32,32,33,33,34,34,35,35,36,36,37,37,39,39,40,40,41,41,42,42,43,43,44,44,45,45,46,46,47,47,48,48,49,49,51,51,52,52,53,53,54,54,55,55,56,56,57,57,58,58,61,61],"right_children":[2,4,6,8,10,12,14,16,18,20,22,24,26,28,30,32,34,36,38,40,42,44,46,48,50,52,54,56,58,60,62,-1,64,66,68,70,72,74,-1,76,78,80,82,84,86,88,90,92,94,96,-1,98,100,102,104,106,108,110,112,-1,-1,114,-1,-1,-1,-1,-1,-1,-1,-1,-1,-1,-1,-1,-1,-1,-1,-1,-1,-1,-1,-1,-1,-1,-1,-1,-1,-1,-1,-1,-1,-1,-1,-1,-1,-1,-1,-1,-1,-1,-1,-1,-1,-1,-1,-1,-1,-1,-1,-1,-1,-1,-1,-1,-1],"split_conditions":[4.91158E1,4.448434E1,5.3825554E1,4.1390884E1,4.6925495E1,5.169559E1,5.6300117E1,3.0563536E1,4.311191E1,5.108595E1,5.251913E1,5.048374E1,5.24606E1,7.820969E1,7.373004E1,8.034804E1,3.8562737E1,6.437935E1,8.965593E1,7.184804E1,4.608518E1,4.7877518E1,6.708228E1,4.6608753E1,8.316625E1,7.938475E1,8.9264435E1,5.504588E1,7.895167E1,5.7027725E1,4.067643E1,2.5609636E0,5.327607E1,9.081863E1,7.112745E1,4.2649612E1,5.622059E1,3.820496E1,7.850899E-1,6.827313E1,4.4075603E1,9.584926E1,9.058709E1,5.495313E1,8.362692E1,7.815686E1,6.320723E1,7.0416504E1,8.551655E1,6.444118E1,2.5564337E-1,7.40353E1,6.0063725E1,7.587185E1,5.7E1,8.384448E1,6.788725E1,7.043854E1,7.230769E1,-3.7740319E0,-4.507572E0,8.251464E1,-4.005961E0,-5.5100026E0,-2.4789274E0,4.0701785E0,6.760499E-1,2.7218888E0,3.3560712E0,2.844187E0,2.3937E0,1.418628E0,2.2864704E0,2.0009208E0,5.652402E-1,1.4136503E0,9.223089E-1,9.956892E-1,1.776768E0,1.1871225E0,3.9122254E-1,8.5675937E-1,-7.139091E-2,5.495211E-1,1.2328485E0,6.2064683E-1,4.355621E-2,2.6754603E-1,1.152259E0,1.1045634E-1,-1.1975311E0,4.8499694E-1,1.650141E-2,-4.8044196E-1,1.9489482E-1,-1.0881002E0,-7.052309E-1,-1.0599778E0,-1.5440263E0,4.328172E-1,-8.3421755E-1,-1.9825165E0,-1.5959762E0,1.4255158E0,-1.5189899E0,-2.5237002E0,-1.0171165E0,-3.5117118E0,-2.9115114E0,-1.5422585E0,-2.6133583E0,1.9028841E0,-1.690484E0,-3.0052986E0,-1.4528044E0],"split_indices":[24,24,24,24,24,24,24,24,24,5,5,24,24,10,7,0,24,5,37,1,24,24,37,5,5,13,16,24,11,24,28,0,11,0,2,24,2,29,0,9,14,18,38,21,38,1,21,37,13,1,0,38,3,1,0,9,0,11,12,0,0,11,0,0,0,0,0,0,0,0,0,0,0,0,0,0,0,0,0,0,0,0,0,0,0,0,0,0,0,0,0,0,0,0,0,0,0,0,0,0,0,0,0,0,0,0,0,0,0,0,0,0,0,0,0],"split_type":[0,0,0,0,0,0,0,0,0,0,0,0,0,0,0,0,0,0,0,0,0,0,0,0,0,0,0,0,0,0,0,0,0,0,0,0,0,0,0,0,0,0,0,0,0,0,0,0,0,0,0,0,0,0,0,0,0,0,0,0,0,0,0,0,0,0,0,0,0,0,0,0,0,0,0,0,0,0,0,0,0,0,0,0,0,0,0,0,0,0,0,0,0,0,0,0,0,0,0,0,0,0,0,0,0,0,0,0,0,0,0,0,0,0,0],"sum_hessian":[5.222E3,2.845E3,2.377E3,1.393E3,1.452E3,1.298E3,1.079E3,6.35E2,7.58E2,8.17E2,6.35E2,7.42E2,5.56E2,6.05E2,4.74E2,1.8E1,6.17E2,4.04E2,3.54E2,1.71E2,6.46E2,1.55E2,4.8E2,4.05E2,3.37E2,2.22E2,3.34E2,5.06E2,9.9E1,3.35E2,1.39E2,7E0,1.1E1,2.03E2,4.14E2,2.16E2,1.88E2,3.46E2,8E0,6.3E1,1.08E2,4.06E2,2.4E2,6E1,9.5E1,7.9E1,4.01E2,5E1,3.55E2,3.3E2,7E0,1.66E2,5.6E1,2.67E2,6.7E1,2.41E2,2.65E2,7.1E1,2.8E1,1.06E2,2.29E2,7.4E1,6.5E1,6E0,5E0,1.98E2,5E0,1.25E2,2.89E2,1.41E2,7.5E1,2.5E1,1.63E2,3.41E2,5E0,4.5E1,1.8E1,7E0,1.01E2,3.79E2,2.7E1,2.27E2,1.3E1,2E1,4E1,8.2E1,1.3E1,3.9E1,4E1,3.9E2,1.1E1,2.3E1,2.7E1,3.29E2,2.6E1,9.7E1,2.33E2,9.1E1,7.5E1,1.2E1,4.4E1,1.43E2,1.24E2,6E0,6.1E1,2.34E2,7E0,6.9E1,1.96E2,2.1E1,5E1,6E0,2.2E1,5.6E1,1.8E1],"tree_param":{"num_deleted":"0","num_feature":"44","num_nodes":"115","size_leaf_vector":"1"}},{"base_weights":[1.537548E-1,3.216712E1,-3.847564E1,5.1498905E1,1.5125822E1,-1.9835768E1,-6.3144787E1,-7.3887825E1,5.35513E1,2.27287E1,5.827228E0,-1.2202648E1,-3.257355E1,-5.1685833E1,-7.687273E1,1.7762381E0,-5.408179E0,6.786618E1,4.332046E1,2.330243E1,-1.8682697E0,1.8861914E0,9.474857E0,-7.5191154E0,-1.8021324E1,-2.6355967E1,-3.592542E1,-6.108554E1,-4.7594112E1,-8.074418E1,-5.7080193E1,7.496268E1,6.1293907E1,4.8836536E1,3.934899E1,2.5961388E1,1.7928215E1,-1.7679901E0,1.5003802E1,6.3030553E0,-1.304121E0,1.1467361E1,-3.547197E0,-1.1322245E1,-4.1401887E0,-2.025342E1,-1.1275776E1,-2.723177E1,-3.4073193E-2,-3.6615093E1,-5.230078E-1,-6.423328E1,-4.2497795E1,-4.3552536E1,-5.6789536E1,-7.542467E1,-4.4590545E0,-6.1729786E1,-9.4075197E-1,3.8095372E0,5.231943E-1,3.1203525E0,1.987065E0,2.589709E0,1.9348525E0,2.047059E0,1.3885282E0,1.0839698E0,1.4705762E0,7.217639E-1,1.0338597E0,1.2362089E0,-1.03036426E-1,4.1515312E-1,-1.3736225E0,-9.987955E-2,5.171081E-1,8.8623935E-1,4.324325E-1,-9.2137414E-1,3.8680658E-1,3.5730883E-1,-6.024957E-1,-1.615494E-1,-6.726366E-1,-1.440119E0,-9.120435E-1,-5.4813463E-2,-8.2944554E-1,-1.5899853E0,-1.1229694E0,-2.0559971E0,-1.6631478E0,-2.8133302E0,-3.4150167E0,-2.4581857E0,-5.4782313E-1,-2.2384953E0,-4.962317E-1,-2.9384754E0,-5.174277E-1,-4.042182E0,-3.3975823E0,-2.5489852E0,-3.6803176E0],"categories":[],"categories_nodes":[],"categories_segments":[],"categories_sizes":[],"default_left":[0,0,0,0,0,0,0,0,0,0,0,0,0,0,0,0,0,0,0,0,0,0,0,0,0,0,0,0,0,0,0,0,0,0,0,0,0,0,0,0,0,0,0,0,0,0,0,0,0,0,0,0,0,0,0,0,0,0,0,0,0,0,0,0,0,0,0,0,0,0,0,0,0,0,0,0,0,0,0,0,0,0,0,0,0,0,0,0,0,0,0,0,0,0,0,0,0,0,0,0,0,0,0,0,0],"id":1,"left_children":[1,3,5,7,9,11,13,15,17,19,21,23,25,27,29,-1,-1,31,33,35,37,39,41,43,45,47,49,51,53,55,57,59,61,63,65,67,69,-1,71,73,75,77,79,81,83,85,87,89,-1,91,-1,93,95,97,99,101,-1,103,-1,-1,-1,-1,-1,-1,-1,-1,-1,-1,-1,-1,-1,-1,-1,-1,-1,-1,-1,-1,-1,-1,-1,-1,-1,-1,-1,-1,-1,-1,-1,-1,-1,-1,-1,-1,-1,-1,-1,-1,-1,-1,-1,-1,-1,-1,-1],"loss_changes":[6.4701895E6,9.4173875E5,1.0889955E6,3.487945E5,1.07464125E5,1.3105169E5,1.5646775E5,8.635411E4,1.9022025E5,1.18574375E4,9.842543E3,2.2944344E4,9.59225E3,1.85815E4,3.077875E4,0E0,0E0,2.09505E4,1.498175E4,1.1219219E4,1.1833998E4,4.6728994E3,9.27842E3,6.00416E3,5.4448594E3,4.048586E3,5.33775E3,6.972125E3,1.215925E4,1.049075E4,1.2885969E4,1.9709375E4,4.467E3,7.5531875E3,7.225625E3,7.4087812E3,2.328961E3,0E0,2.3754468E3,9.615813E3,1.5785598E3,5.294168E3,8.202786E3,3.0565996E3,2.0800757E3,4.321789E3,5.172214E3,3.0953594E3,0E0,3.4117812E3,0E0,6.80625E2,5.132133E3,1.0930875E4,1.0143281E4,4.29175E3,0E0,5.1723125E3,0E0,0E0,0E0,0E0,0E0,0E0,0E0,0E0,0E0,0E0,0E0,0E0,0E0,0E0,0E0,0E0,0E0,0E0,0E0,0E0,0E0,0E0,0E0,0E0,0E0,0E0,0E0,0E0,0E0,0E0,0E0,0E0,0E0,0E0,0E0,0E0,0E0,0E0,0E0,0E0,0E0,0E0,0E0,0E0,0E0,0E0,0E0],"parents":[2147483647,0,0,1,1,2,2,3,3,4,4,5,5,6,6,7,7,8,8,9,9,10,10,11,11,12,12,13,13,14,14,17,17,18,18,19,19,20,20,21,21,22,22,23,23,24,24,25,25,26,26,27,27,28,28,29,29,30,30,31,31,32,32,33,33,34,34,35,35,36,36,38,38,39,39,40,40,41,41,42,42,43,43,44,44,45,45,46,46,47,47,49,49,51,51,52,52,53,53,54,54,55,55,57,57],"right_children":[2,4,6,8,10,12,14,16,18,20,22,24,26,28,30,-1,-1,32,34,36,38,40,42,44,46,48,50,52,54,56,58,60,62,64,66,68,70,-1,72,74,76,78,80,82,84,86,88,90,-1,92,-1,94,96,98,100,102,-1,104,-1,-1,-1,-1,-1,-1,-1,-1,-1,-1,-1,-1,-1,-1,-1,-1,-1,-1,-1,-1,-1,-1,-1,-1,-1,-1,-1,-1,-1,-1,-1,-1,-1,-1,-1,-1,-1,-1,-1,-1,-1,-1,-1,-1,-1,-1,-1],"split_conditions":[5.634416E1,5.1352528E1,6.0997658E1,3.688874E1,5.4040287E1,5.909106E1,5.6300117E1,5.1792362E1,4.7913177E1,8.383014E1,7.484804E1,5.78864E1,5.9726593E1,6.630882E1,7.82061E1,1.7762381E0,-5.408179E0,4.5983707E1,4.9493916E1,5.3202766E1,2.7688171E1,5.506305E1,9.5346085E1,7.555882E1,7.6514046E1,8.109877E1,8.316625E1,8.0161896E1,6.243053E1,5.7739876E1,8.386599E1,9.335294E1,8.21039E1,7.5950134E1,7.733784E1,7.0680504E1,7.279902E1,-1.7679901E0,7.8844475E1,9.271783E1,8.343227E1,5.4816425E1,7.796568E1,4.820766E1,8.0675804E1,5.8294117E1,3.3375576E1,7.630882E1,-3.4073193E-2,7.109804E1,-5.230078E-1,6.173418E1,4.9637444E1,8.316954E1,8.572173E1,7.555882E1,-4.4590545E0,4.067643E1,-9.4075197E-1,3.8095372E0,5.231943E-1,3.1203525E0,1.987065E0,2.589709E0,1.9348525E0,2.047059E0,1.3885282E0,1.0839698E0,1.4705762E0,7.217639E-1,1.0338597E0,1.2362089E0,-1.03036426E-1,4.1515312E-1,-1.3736225E0,-9.987955E-2,5.171081E-1,8.8623935E-1,4.324325E-1,-9.2137414E-1,3.8680658E-1,3.5730883E-1,-6.024957E-1,-1.615494E-1,-6.726366E-1,-1.440119E0,-9.120435E-1,-5.4813463E-2,-8.2944554E-1,-1.5899853E0,-1.1229694E0,-2.0559971E0,-1.6631478E0,-2.8133302E0,-3.4150167E0,-2.4581857E0,-5.4782313E-1,-2.2384953E0,-4.962317E-1,-2.9384754E0,-5.174277E-1,-4.042182E0,-3.3975823E0,-2.5489852E0,-3.6803176E0],"split_indices":[20,20,20,20,20,20,24,18,20,8,1,20,20,1,8,0,0,20,20,20,28,20,17,1,15,10,5,15,20,24,11,1,5,7,8,1,1,0,7,16,8,20,3,24,9,1,28,1,0,1,0,20,27,6,14,1,0,28,0,0,0,0,0,0,0,0,0,0,0,0,0,0,0,0,0,0,0,0,0,0,0,0,0,0,0,0,0,0,0,0,0,0,0,0,0,0,0,0,0,0,0,0,0,0,0],"split_type":[0,0,0,0,0,0,0,0,0,0,0,0,0,0,0,0,0,0,0,0,0,0,0,0,0,0,0,0,0,0,0,0,0,0,0,0,0,0,0,0,0,0,0,0,0,0,0,0,0,0,0,0,0,0,0,0,0,0,0,0,0,0,0,0,0,0,0,0,0,0,0,0,0,0,0,0,0,0,0,0,0,0,0,0,0,0,0,0,0,0,0,0,0,0,0,0,0,0,0,0,0,0,0,0,0],"sum_hessian":[5.23E3,2.86E3,2.37E3,1.339E3,1.521E3,1.351E3,1.019E3,2.1E1,1.318E3,8.36E2,6.85E2,8.46E2,5.05E2,5.58E2,4.61E2,5E0,1.6E1,5.47E2,7.71E2,8.17E2,1.9E1,3.3E2,3.55E2,4.7E2,3.76E2,1.8E2,3.25E2,1.65E2,3.93E2,3.83E2,7.8E1,2.58E2,2.89E2,3.18E2,4.53E2,5.44E2,2.73E2,6E0,1.3E1,1.38E2,1.92E2,3.08E2,4.7E1,2.2E2,2.5E2,2.81E2,9.5E1,1.74E2,6E0,3.16E2,9E0,1.39E2,2.6E1,2.77E2,1.16E2,2.41E2,1.42E2,6.9E1,9E0,2.53E2,5E0,2.73E2,1.6E1,2.43E2,7.5E1,3.96E2,5.7E1,2.46E2,2.98E2,1.23E2,1.5E2,8E0,5E0,1.31E2,7E0,1.82E2,1E1,9.4E1,2.14E2,2E1,2.7E1,8E0,2.12E2,2.29E2,2.1E1,5.1E1,2.3E2,3.3E1,6.2E1,8.6E1,8.8E1,1.3E2,1.86E2,5.2E1,8.7E1,2.1E1,5E0,2.67E2,1E1,1.11E2,5E0,1.34E2,1.07E2,3.9E1,3E1],"tree_param":{"num_deleted":"0","num_feature":"44","num_nodes":"105","size_leaf_vector":"1"}},{"base_weights":[-6.3912416E-1,3.1013672E1,-3.7045464E1,4.958744E1,1.4305139E1,-1.8726295E1,-6.039295E1,-6.0156082E1,5.1398212E1,2.0501917E1,3.9437182E0,-9.882808E0,-2.863912E1,-4.9119972E1,-7.370921E1,1.8891878E0,-9.925126E1,6.660116E1,4.274278E1,2.3582754E1,1.612723E1,1.0621716E-2,7.6825404E0,-5.2919626E0,-1.3485493E1,-2.2821604E1,-3.3521484E1,-5.8043774E1,-4.455475E1,-7.7139755E1,-5.9936073E1,-2.861986E0,-5.6567354E0,7.1296036E1,6.0351646E1,4.8067966E1,3.710528E1,2.6886757E1,1.6537338E1,1.2070419E1,1.9780376E1,8.282088E0,-1.415108E0,1.30076685E1,4.532979E0,-6.937459E0,3.7304676E0,-1.5380611E1,-3.1461794E0,-2.5865732E1,-1.6375206E1,-3.4155727E1,-1.0976514E1,-6.0518444E1,-3.972213E1,-4.7308357E1,-3.426979E1,-6.637121E1,-4.0828214E0,-6.3183056E1,-1.1867765E0,3.6219857E0,5.0139457E-1,1.9009411E0,3.0525434E0,1.6940323E0,2.4786038E0,3.9960513E-1,1.883226E0,1.1357859E0,1.5253674E0,9.202838E-1,-8.0604047E-1,6.35422E-1,-4.532629E-1,1.2614075E0,8.829175E-1,3.0660762E-2,5.407303E-1,8.059976E-3,-5.301232E-1,7.383713E-1,3.5444447E-1,2.963005E-1,-3.7888762E-1,1.1566837E-1,-4.2052552E-1,1.0829234E0,-3.6538165E-2,-9.9162257E-1,-6.278345E-1,-4.1636094E-1,1.2827078E0,-1.1020188E0,-1.4366722E0,-8.920132E-1,-8.443416E-2,-1.9041121E0,-1.5227311E0,4.262448E-1,-1.4332585E0,-2.6614168E0,-3.2227025E0,-2.3087518E0,-5.2499723E-1,-2.799645E-1,-2.3992257E0,5.338375E-1,-1.9194405E0,-3.7413719E0,-3.0428624E0,-3.2533033E0,-1.2509208E0],"categories":[],"categories_nodes":[],"categories_segments":[],"categories_sizes":[],"default_left":[0,0,0,0,0,0,0,0,0,0,0,0,0,0,0,0,0,0,0,0,0,0,0,0,0,0,0,0,0,0,0,0,0,0,0,0,0,0,0,0,0,0,0,0,0,0,0,0,0,0,0,0,0,0,0,0,0,0,0,0,0,0,0,0,0,0,0,0,0,0,0,0,0,0,0,0,0,0,0,0,0,0,0,0,0,0,0,0,0,0,0,0,0,0,0,0,0,0,0,0,0,0,0,0,0,0,0,0,0,0,0,0,0],"id":2,"left_children":[1,3,5,7,9,11,13,15,17,19,21,23,25,27,29,-1,31,33,35,37,39,41,43,45,47,49,51,53,55,57,59,-1,-1,61,63,65,67,69,71,73,75,77,79,81,83,85,87,89,91,93,95,97,99,101,103,105,107,109,-1,111,-1,-1,-1,-1,-1,-1,-1,-1,-1,-1,-1,-1,-1,-1,-1,-1,-1,-1,-1,-1,-1,-1,-1,-1,-1,-1,-1,-1,-1,-1,-1,-1,-1,-1,-1,-1,-1,-1,-1,-1,-1,-1,-1,-1,-1,-1,-1,-1,-1,-1,-1,-1,-1],"loss_changes":[6.038376E6,8.691685E5,1.04118225E6,2.6679325E5,9.475103E4,1.1954975E5,1.5713925E5,8.799367E4,1.689965E5,1.2069094E4,8.145801E3,1.1901258E4,1.7521062E4,2.11545E4,1.84675E4,0E0,2.8394062E3,9.532875E3,2.3275125E4,1.21211875E4,5.4638047E3,3.2082764E3,4.7024805E3,4.777042E3,7.885414E3,5.4004375E3,4.5965938E3,6.3820625E3,9.4158125E3,1.343725E4,1.04809375E4,0E0,0E0,1.7764125E4,9.326875E2,7.4026875E3,6.36975E3,4.828875E3,1.0974824E4,2.610293E3,1.8738516E3,7.690879E2,3.3626E3,9.867676E2,3.081451E3,3.7129668E3,4.0169673E3,4.0472422E3,9.761698E3,1.555625E3,2.0765469E3,3.7453438E3,4.040873E3,1.4061875E3,4.4122617E3,8.3274375E3,1.6334305E4,1.027875E3,0E0,5.0465625E3,0E0,0E0,0E0,0E0,0E0,0E0,0E0,0E0,0E0,0E0,0E0,0E0,0E0,0E0,0E0,0E0,0E0,0E0,0E0,0E0,0E0,0E0,0E0,0E0,0E0,0E0,0E0,0E0,0E0,0E0,0E0,0E0,0E0,0E0,0E0,0E0,0E0,0E0,0E0,0E0,0E0,0E0,0E0,0E0,0E0,0E0,0E0,0E0,0E0,0E0,0E0,0E0,0E0],"parents":[2147483647,0,0,1,1,2,2,3,3,4,4,5,5,6,6,7,7,8,8,9,9,10,10,11,11,12,12,13,13,14,14,16,16,17,17,18,18,19,19,20,20,21,21,22,22,23,23,24,24,25,25,26,26,27,27,28,28,29,29,30,30,33,33,34,34,35,35,36,36,37,37,38,38,39,39,40,40,41,41,42,42,43,43,44,44,45,45,46,46,47,47,48,48,49,49,50,50,51,51,52,52,53,53,54,54,55,55,56,56,57,57,59,59],"right_children":[2,4,6,8,10,12,14,16,18,20,22,24,26,28,30,-1,32,34,36,38,40,42,44,46,48,50,52,54,56,58,60,-1,-1,62,64,66,68,70,72,74,76,78,80,82,84,86,88,90,92,94,96,98,100,102,104,106,108,110,-1,112,-1,-1,-1,-1,-1,-1,-1,-1,-1,-1,-1,-1,-1,-1,-1,-1,-1,-1,-1,-1,-1,-1,-1,-1,-1,-1,-1,-1,-1,-1,-1,-1,-1,-1,-1,-1,-1,-1,-1,-1,-1,-1,-1,-1,-1,-1,-1,-1,-1,-1,-1,-1,-1],"split_conditions":[5.634416E1,5.1352528E1,6.0997658E1,3.688874E1,5.4410778E1,5.8710663E1,6.2992413E1,8.722059E1,4.7383102E1,5.3202766E1,7.406863E1,5.7343727E1,5.9645126E1,6.69902E1,7.938475E1,1.8891878E0,5.637642E1,4.5983707E1,4.9638992E1,7.392081E1,7.3132355E1,5.4704273E1,7.1315414E1,8.951471E1,7.9933105E1,8.304412E1,8.316625E1,8.1402054E1,9.3263504E1,5.7027725E1,8.398851E1,-2.861986E0,-5.6567354E0,9.335294E1,4.1901962E1,5.655392E1,3.912745E1,7.165196E1,9.479902E1,8.298206E1,2.6780228E1,5.101216E1,7.90155E1,4.889288E1,8.4296364E1,4.7022385E1,2.406737E1,6.777941E1,8.055035E1,5.909106E1,9.673184E1,7.371568E1,7.747458E1,6.173418E1,4.9637444E1,5.1463696E1,2.4422865E1,6.2333332E1,-4.0828214E0,6.1195736E1,-1.1867765E0,3.6219857E0,5.0139457E-1,1.9009411E0,3.0525434E0,1.6940323E0,2.4786038E0,3.9960513E-1,1.883226E0,1.1357859E0,1.5253674E0,9.202838E-1,-8.0604047E-1,6.35422E-1,-4.532629E-1,1.2614075E0,8.829175E-1,3.0660762E-2,5.407303E-1,8.059976E-3,-5.301232E-1,7.383713E-1,3.5444447E-1,2.963005E-1,-3.7888762E-1,1.1566837E-1,-4.2052552E-1,1.0829234E0,-3.6538165E-2,-9.9162257E-1,-6.278345E-1,-4.1636094E-1,1.2827078E0,-1.1020188E0,-1.4366722E0,-8.920132E-1,-8.443416E-2,-1.9041121E0,-1.5227311E0,4.262448E-1,-1.4332585E0,-2.6614168E0,-3.2227025E0,-2.3087518E0,-5.2499723E-1,-2.799645E-1,-2.3992257E0,5.338375E-1,-1.9194405E0,-3.7413719E0,-3.0428624E0,-3.2533033E0,-1.2509208E0],"split_indices":[20,20,20,20,20,20,20,1,20,20,1,20,20,1,13,0,19,20,20,5,1,20,37,2,13,1,5,15,16,24,4,0,0,1,3,2,3,1,2,4,28,21,5,24,14,5,29,2,11,20,16,1,15,20,27,24,31,2,0,23,0,0,0,0,0,0,0,0,0,0,0,0,0,0,0,0,0,0,0,0,0,0,0,0,0,0,0,0,0,0,0,0,0,0,0,0,0,0,0,0,0,0,0,0,0,0,0,0,0,0,0,0,0],"split_type":[0,0,0,0,0,0,0,0,0,0,0,0,0,0,0,0,0,0,0,0,0,0,0,0,0,0,0,0,0,0,0,0,0,0,0,0,0,0,0,0,0,0,0,0,0,0,0,0,0,0,0,0,0,0,0,0,0,0,0,0,0,0,0,0,0,0,0,0,0,0,0,0,0,0,0,0,0,0,0,0,0,0,0,0,0,0,0,0,0,0,0,0,0,0,0,0,0,0,0,0,0,0,0,0,0,0,0,0,0,0,0,0,0],"sum_hessian":[5.238E3,2.802E3,2.436E3,1.326E3,1.476E3,1.366E3,1.07E3,2.1E1,1.305E3,9.23E2,5.53E2,7.23E2,6.43E2,5.82E2,4.88E2,6E0,1.5E1,4.71E2,8.34E2,5.39E2,3.84E2,2.7E2,2.83E2,3.19E2,4.04E2,2.96E2,3.47E2,1.93E2,3.89E2,3.87E2,1.01E2,5E0,1E1,2.63E2,2.08E2,4.25E2,4.09E2,3.65E2,1.74E2,1.84E2,2E2,3.9E1,2.31E2,1.04E2,1.79E2,2.7E2,4.9E1,3.41E2,6.3E1,1.99E2,9.7E1,3.37E2,1E1,1.68E2,2.5E1,3.04E2,8.5E1,1.19E2,2.68E2,9.2E1,9E0,2.58E2,5E0,8E0,2E2,4.3E1,3.82E2,8E0,4.01E2,1.73E2,1.92E2,1.65E2,9E0,1.79E2,5E0,5.3E1,1.47E2,1E1,2.9E1,1.98E2,3.3E1,7.9E1,2.5E1,1.61E2,1.8E1,3.7E1,2.33E2,9E0,4E1,1.3E2,2.11E2,5.4E1,9E0,8.9E1,1.1E2,8.8E1,9E0,1.59E2,1.78E2,5E0,5E0,6.4E1,1.04E2,2E1,5E0,5E0,2.99E2,7E0,7.8E1,4.2E1,7.7E1,8.7E1,5E0],"tree_param":{"num_deleted":"0","num_feature":"44","num_nodes":"113","size_leaf_vector":"1"}},{"base_weights":[9.8420344E-2,2.905808E1,-3.4767406E1,4.713749E1,1.3577655E1,-1.673676E1,-5.564092E1,-6.463851E1,4.8902847E1,2.0831776E1,6.3619466E0,-1.0907857E1,-2.8113373E1,-4.4737892E1,-6.82058E1,2.4285672E0,-5.1529274E0,6.33391E1,4.095016E1,2.1372963E1,-1.23599615E1,1.2016935E1,3.4780922E0,-6.76444E0,-1.5234858E1,-3.1748363E1,-2.4348368E1,-5.2375282E1,-4.0844913E1,-7.197033E1,-5.811102E1,7.285449E1,5.896181E1,4.6661903E1,3.6760147E1,2.6362995E1,1.8810722E1,-2.0856533E0,9.372282E-1,6.8562183E0,1.600691E1,4.379381E0,-9.843178E0,2.1109765E0,-8.081681E0,-1.783579E1,-8.713103E0,-3.2564644E1,-1.2967965E-1,-1.9244053E1,-2.713023E1,-5.4569897E1,-3.4277855E1,-4.3217426E1,-3.3535297E1,-6.3053165E1,-3.8678498E0,-1.0679293E0,-5.955345E1,3.7169743E0,1.9430789E0,2.0138175E0,2.9936953E0,1.7020636E0,2.4513757E0,1.5152179E0,1.9282954E0,1.5602627E0,1.123683E0,9.996365E-1,5.9898305E-1,4.2677328E-1,-1.0248561E0,8.423137E-1,-3.254596E-1,4.4754174E-2,4.0642905E-1,-2.2196431E-1,-1.670207E0,1.467985E0,-5.3588975E-2,-6.0653466E-1,-2.8157535E-1,-1.1030263E0,-7.0161575E-1,-6.341591E-1,1.0673876E-1,-1.4775628E0,-1.8871396E0,-1.0939773E0,-6.782289E-1,-1.3854938E0,-4.871523E-1,-2.4138763E0,-3.008476E0,-2.3014133E0,-2.5054988E-1,-1.8298362E0,-2.3220944E0,-1.7875534E0,3.9294547E-1,-3.3506525E0,-2.6726358E0,-1.5782374E0,-3.018379E0],"categories":[],"categories_nodes":[],"categories_segments":[],"categories_sizes":[],"default_left":[0,0,0,0,0,0,0,0,0,0,0,0,0,0,0,0,0,0,0,0,0,0,0,0,0,0,0,0,0,0,0,0,0,0,0,0,0,0,0,0,0,0,0,0,0,0,0,0,0,0,0,0,0,0,0,0,0,0,0,0,0,0,0,0,0,0,0,0,0,0,0,0,0,0,0,0,0,0,0,0,0,0,0,0,0,0,0,0,0,0,0,0,0,0,0,0,0,0,0,0,0,0,0,0,0],"id":3,"left_children":[1,3,5,7,9,11,13,15,17,19,21,23,25,27,29,-1,-1,31,33,35,37,39,41,43,45,47,49,51,53,55,57,59,61,63,65,67,69,-1,-1,71,73,75,77,79,81,83,85,87,-1,89,91,93,95,97,99,101,-1,-1,103,-1,-1,-1,-1,-1,-1,-1,-1,-1,-1,-1,-1,-1,-1,-1,-1,-1,-1,-1,-1,-1,-1,-1,-1,-1,-1,-1,-1,-1,-1,-1,-1,-1,-1,-1,-1,-1,-1,-1,-1,-1,-1,-1,-1,-1,-1],"loss_changes":[5.302957E6,8.0232075E5,8.95934E5,2.6421975E5,8.084034E4,8.457031E4,1.481805E5,9.6351195E4,1.469895E5,1.41145E4,1.2628102E4,1.5098164E4,5.1473125E3,1.551225E4,1.522375E4,0E0,0E0,1.48925E4,1.845125E4,9.203875E3,1.2653377E4,5.28284E3,6.2378174E3,5.1032695E3,6.8644844E3,5.076297E3,2.5545625E3,5.9448125E3,5.4451875E3,1.278475E4,6.3537812E3,4.21725E3,3.04925E3,8.8616875E3,4.5483125E3,4.0957969E3,3.8348594E3,0E0,0E0,5.5019854E3,2.888871E3,6.3144736E3,4.0495142E3,4.9776797E3,3.6898867E3,4.427086E3,5.196162E3,2.1703281E3,0E0,8.971289E2,1.1170938E3,3.2151562E3,8.017789E3,4.6325E3,9.639219E3,1.8803125E3,0E0,0E0,1.2298438E3,0E0,0E0,0E0,0E0,0E0,0E0,0E0,0E0,0E0,0E0,0E0,0E0,0E0,0E0,0E0,0E0,0E0,0E0,0E0,0E0,0E0,0E0,0E0,0E0,0E0,0E0,0E0,0E0,0E0,0E0,0E0,0E0,0E0,0E0,0E0,0E0,0E0,0E0,0E0,0E0,0E0,0E0,0E0,0E0,0E0,0E0],"parents":[2147483647,0,0,1,1,2,2,3,3,4,4,5,5,6,6,7,7,8,8,9,9,10,10,11,11,12,12,13,13,14,14,17,17,18,18,19,19,20,20,21,21,22,22,23,23,24,24,25,25,26,26,27,27,28,28,29,29,30,30,31,31,32,32,33,33,34,34,35,35,36,36,39,39,40,40,41,41,42,42,43,43,44,44,45,45,46,46,47,47,49,49,50,50,51,51,52,52,53,53,54,54,55,55,58,58],"right_children":[2,4,6,8,10,12,14,16,18,20,22,24,26,28,30,-1,-1,32,34,36,38,40,42,44,46,48,50,52,54,56,58,60,62,64,66,68,70,-1,-1,72,74,76,78,80,82,84,86,88,-1,90,92,94,96,98,100,102,-1,-1,104,-1,-1,-1,-1,-1,-1,-1,-1,-1,-1,-1,-1,-1,-1,-1,-1,-1,-1,-1,-1,-1,-1,-1,-1,-1,-1,-1,-1,-1,-1,-1,-1,-1,-1,-1,-1,-1,-1,-1,-1,-1,-1,-1,-1,-1,-1],"split_conditions":[5.634416E1,5.1352528E1,6.069356E1,3.688874E1,5.3716663E1,5.909106E1,6.2779823E1,7.9053925E1,4.7383102E1,8.4034454E1,5.463397E1,5.7770336E1,7.630882E1,7.0539215E1,7.319064E1,2.4285672E0,-5.1529274E0,4.471041E1,4.9329315E1,5.7602077E1,7.538283E1,7.279902E1,8.235334E1,4.7022385E1,7.516734E1,8.297549E1,5.9645126E1,8.0161896E1,7.5272064E1,5.7027725E1,7.358533E1,7.0710677E-1,4.1901962E1,6.012745E1,6.2009804E1,5.2459545E1,7.981194E1,-2.0856533E0,9.372282E-1,9.271783E1,9.420098E1,7.604902E1,8.660254E-1,4.7943844E1,6.980882E1,7.295098E1,7.997324E1,6.0083138E1,-1.2967965E-1,6.57222E1,8.197891E1,6.173418E1,7.634934E1,6.151322E1,8.2978775E1,8.860294E1,-3.8678498E0,-1.0679293E0,4.4551353E1,3.7169743E0,1.9430789E0,2.0138175E0,2.9936953E0,1.7020636E0,2.4513757E0,1.5152179E0,1.9282954E0,1.5602627E0,1.123683E0,9.996365E-1,5.9898305E-1,4.2677328E-1,-1.0248561E0,8.423137E-1,-3.254596E-1,4.4754174E-2,4.0642905E-1,-2.2196431E-1,-1.670207E0,1.467985E0,-5.3588975E-2,-6.0653466E-1,-2.8157535E-1,-1.1030263E0,-7.0161575E-1,-6.341591E-1,1.0673876E-1,-1.4775628E0,-1.8871396E0,-1.0939773E0,-6.782289E-1,-1.3854938E0,-4.871523E-1,-2.4138763E0,-3.008476E0,-2.3014133E0,-2.5054988E-1,-1.8298362E0,-2.3220944E0,-1.7875534E0,3.9294547E-1,-3.3506525E0,-2.6726358E0,-1.5782374E0,-3.018379E0],"split_indices":[20,20,20,20,20,20,20,0,20,8,20,20,1,0,6,0,0,20,20,5,15,1,9,5,7,5,20,15,12,24,6,40,3,2,1,20,11,0,0,16,0,1,40,24,0,0,9,20,0,32,6,20,9,20,6,0,0,0,35,0,0,0,0,0,0,0,0,0,0,0,0,0,0,0,0,0,0,0,0,0,0,0,0,0,0,0,0,0,0,0,0,0,0,0,0,0,0,0,0,0,0,0,0,0,0],"split_type":[0,0,0,0,0,0,0,0,0,0,0,0,0,0,0,0,0,0,0,0,0,0,0,0,0,0,0,0,0,0,0,0,0,0,0,0,0,0,0,0,0,0,0,0,0,0,0,0,0,0,0,0,0,0,0,0,0,0,0,0,0,0,0,0,0,0,0,0,0,0,0,0,0,0,0,0,0,0,0,0,0,0,0,0,0,0,0,0,0,0,0,0,0,0,0,0,0,0,0,0,0,0,0,0,0],"sum_hessian":[5.25E3,2.868E3,2.382E3,1.322E3,1.546E3,1.279E3,1.103E3,2E1,1.302E3,7.7E2,7.76E2,8.47E2,4.32E2,5.93E2,5.1E2,5E0,1.5E1,4.6E2,8.42E2,7.58E2,1.2E1,2.61E2,5.15E2,4.34E2,4.13E2,2.16E2,2.16E2,1.96E2,3.97E2,3.67E2,1.43E2,1.4E2,3.2E2,3.52E2,4.9E2,2.54E2,5.04E2,6E0,6E0,1.15E2,1.46E2,4.83E2,3.2E1,5.6E1,3.78E2,2.94E2,1.19E2,2.1E2,6E0,7.9E1,1.37E2,1.73E2,2.3E1,2.96E2,1.01E2,1.43E2,2.24E2,6E0,1.37E2,1.33E2,7E0,1.7E1,3.03E2,5.8E1,2.94E2,1.11E2,3.79E2,1.1E2,1.44E2,4.28E2,7.6E1,1.09E2,6E0,1.41E2,5E0,2.51E2,2.32E2,2.7E1,5E0,5E0,5.1E1,1.41E2,2.37E2,1.37E2,1.57E2,8.7E1,3.2E1,1.37E2,7.3E1,5.2E1,2.7E1,1.32E2,5E0,8.6E1,8.7E1,1.6E1,7E0,1.01E2,1.95E2,9.6E1,5E0,9.7E1,4.6E1,5E0,1.32E2],"tree_param":{"num_deleted":"0","num_feature":"44","num_nodes":"105","size_leaf_vector":"1"}},{"base_weights":[-7.795571E-1,2.7855003E1,-3.2500755E1,4.5641457E1,1.4272531E1,-1.444244E1,-5.22189E1,-4.568232E1,4.7397785E1,2.120254E1,6.170814E0,-8.633411E0,-2.4015444E1,-4.3070274E1,-6.576502E1,3.327173E0,-8.921162E1,6.053637E1,3.9220375E1,2.16859E1,-1.7275494E1,9.151304E0,2.179803E0,-4.8991933E0,-1.2193196E1,-1.8525282E1,-2.7866379E1,-5.102649E1,-3.921667E1,-7.050134E1,-5.4208843E1,-5.033832E0,-2.5698152E0,6.710318E1,5.499605E1,4.3577026E1,3.4934074E1,2.7627659E1,1.8859983E1,-2.1154423E0,5.3102213E-1,1.0663239E1,-5.2115617E0,7.57554E0,2.696528E-1,-9.192833E0,-2.1974542E0,-1.4122258E1,-1.8062937E0,-1.9427326E1,7.306851E-1,-3.103153E1,-2.4528994E1,-4.5844563E1,-3.073541E0,-4.1256927E1,-2.8396412E1,-2.985316E0,-3.6666431E0,-4.3612736E1,-6.697037E1,3.398077E0,1.8997424E0,2.7866137E0,1.5945373E0,1.4061674E0,2.2752492E0,1.8194245E0,1.0213376E0,1.4439157E0,3.1375012E-1,7.6587474E-1,1.061598E0,3.5831589E-1,7.0238525E-1,4.1834068E-1,-6.8486303E-1,2.924405E-1,1.4084098E0,-9.0000525E-2,2.954209E-1,-2.95838E-1,-6.259863E-1,-7.236203E-2,-1.2114567E0,-1.0455827E0,-5.995919E-1,-3.4599775E-1,9.78316E-1,-1.147068E0,-7.4825025E-1,-1.5778589E0,-6.8765384E-1,-1.1699837E0,-2.1637154E0,-2.3350935E0,-8.2343286E-1,-1.8662949E0,-2.3879867E0,-1.7245022E0,-3.5060605E-1,-2.6449294E0,-2.7683455E-1,-3.4500806E0,-1.8078312E0],"categories":[],"categories_nodes":[],"categories_segments":[],"categories_sizes":[],"default_left":[0,0,0,0,0,0,0,0,0,0,0,0,0,0,0,0,0,0,0,0,0,0,0,0,0,0,0,0,0,0,0,0,0,0,0,0,0,0,0,0,0,0,0,0,0,0,0,0,0,0,0,0,0,0,0,0,0,0,0,0,0,0,0,0,0,0,0,0,0,0,0,0,0,0,0,0,0,0,0,0,0,0,0,0,0,0,0,0,0,0,0,0,0,0,0,0,0,0,0,0,0,0,0,0,0],"id":4,"left_children":[1,3,5,7,9,11,13,15,17,19,21,23,25,27,29,-1,31,33,35,37,39,41,43,45,47,49,51,53,55,57,59,-1,-1,61,63,65,67,69,71,-1,-1,73,75,77,79,81,83,85,87,89,-1,91,93,95,-1,97,99,-1,-1,101,103,-1,-1,-1,-1,-1,-1,-1,-1,-1,-1,-1,-1,-1,-1,-1,-1,-1,-1,-1,-1,-1,-1,-1,-1,-1,-1,-1,-1,-1,-1,-1,-1,-1,-1,-1,-1,-1,-1,-1,-1,-1,-1,-1,-1],"loss_changes":[4.759608E6,6.64665E5,8.8444525E5,1.9335575E5,8.762097E4,7.2026625E4,1.443835E5,1.18296234E5,1.2332E5,1.6035281E4,8.567229E3,1.0705895E4,9.8388125E3,1.9819875E4,2.227375E4,0E0,2.1807969E3,1.2560125E4,1.1989875E4,1.34443125E4,8.134125E3,9.024703E3,3.1922402E3,4.5839766E3,8.268203E3,6.4124062E3,2.2543906E3,9.5650625E3,9.5063125E3,5.847875E3,1.6405E4,0E0,0E0,2.4043125E3,2.4325625E3,9.2896875E3,7.0579062E3,6.9187656E3,4.4354375E3,0E0,0E0,4.323578E3,4.724015E3,2.7120425E3,2.6952256E3,1.5916484E3,4.0118418E3,4.7939688E3,7.347426E3,2.7890469E3,0E0,8.602344E2,2.029125E3,3.1785E3,0E0,8.5616875E3,1.0178641E4,0E0,0E0,2.8340312E4,1.4378125E3,0E0,0E0,0E0,0E0,0E0,0E0,0E0,0E0,0E0,0E0,0E0,0E0,0E0,0E0,0E0,0E0,0E0,0E0,0E0,0E0,0E0,0E0,0E0,0E0,0E0,0E0,0E0,0E0,0E0,0E0,0E0,0E0,0E0,0E0,0E0,0E0,0E0,0E0,0E0,0E0,0E0,0E0,0E0,0E0],"parents":[2147483647,0,0,1,1,2,2,3,3,4,4,5,5,6,6,7,7,8,8,9,9,10,10,11,11,12,12,13,13,14,14,16,16,17,17,18,18,19,19,20,20,21,21,22,22,23,23,24,24,25,25,26,26,27,27,28,28,29,29,30,30,33,33,34,34,35,35,36,36,37,37,38,38,41,41,42,42,43,43,44,44,45,45,46,46,47,47,48,48,49,49,51,51,52,52,53,53,55,55,56,56,59,59,60,60],"right_children":[2,4,6,8,10,12,14,16,18,20,22,24,26,28,30,-1,32,34,36,38,40,42,44,46,48,50,52,54,56,58,60,-1,-1,62,64,66,68,70,72,-1,-1,74,76,78,80,82,84,86,88,90,-1,92,94,96,-1,98,100,-1,-1,102,104,-1,-1,-1,-1,-1,-1,-1,-1,-1,-1,-1,-1,-1,-1,-1,-1,-1,-1,-1,-1,-1,-1,-1,-1,-1,-1,-1,-1,-1,-1,-1,-1,-1,-1,-1,-1,-1,-1,-1,-1,-1,-1,-1,-1],"split_conditions":[5.6240376E1,5.0915634E1,6.044303E1,3.688874E1,5.37719E1,5.8710663E1,6.2992413E1,8.034804E1,4.7383102E1,8.4034454E1,5.5244392E1,5.7427185E1,5.940855E1,7.035784E1,7.2384834E1,3.327173E0,6.234898E-1,3.8562737E1,4.9410778E1,5.1952908E1,2.7688171E1,8.2558685E1,6.94469E1,6.934804E1,7.965348E1,8.347528E1,7.630882E1,6.214541E1,7.6718544E1,5.6769398E1,4.067643E1,-5.033832E0,-2.5698152E0,8.660254E-1,8.269921E1,5.655392E1,8.0502144E1,8.188024E1,6.770098E1,-2.1154423E0,5.3102213E-1,7.409804E1,4.685169E1,7.490705E1,8.52402E1,7.3762314E1,8.326021E1,6.2240196E1,8.0693726E1,5.8102333E1,7.306851E-1,8.330681E1,8.2159775E1,8.330681E1,-3.073541E0,6.208236E1,5.6133553E1,-2.985316E0,-3.6666431E0,9.0331985E1,9.586592E1,3.398077E0,1.8997424E0,2.7866137E0,1.5945373E0,1.4061674E0,2.2752492E0,1.8194245E0,1.0213376E0,1.4439157E0,3.1375012E-1,7.6587474E-1,1.061598E0,3.5831589E-1,7.0238525E-1,4.1834068E-1,-6.8486303E-1,2.924405E-1,1.4084098E0,-9.0000525E-2,2.954209E-1,-2.95838E-1,-6.259863E-1,-7.236203E-2,-1.2114567E0,-1.0455827E0,-5.995919E-1,-3.4599775E-1,9.78316E-1,-1.147068E0,-7.4825025E-1,-1.5778589E0,-6.8765384E-1,-1.1699837E0,-2.1637154E0,-2.3350935E0,-8.2343286E-1,-1.8662949E0,-2.3879867E0,-1.7245022E0,-3.5060605E-1,-2.6449294E0,-2.7683455E-1,-3.4500806E0,-1.8078312E0],"split_indices":[20,20,20,20,20,20,20,0,20,8,20,20,20,0,4,0,43,24,20,20,28,14,37,0,13,10,1,20,11,24,28,0,0,40,5,2,6,4,0,0,0,0,24,35,1,37,8,0,11,21,0,10,9,11,0,20,25,0,0,38,19,0,0,0,0,0,0,0,0,0,0,0,0,0,0,0,0,0,0,0,0,0,0,0,0,0,0,0,0,0,0,0,0,0,0,0,0,0,0,0,0,0,0,0,0],"split_type":[0,0,0,0,0,0,0,0,0,0,0,0,0,0,0,0,0,0,0,0,0,0,0,0,0,0,0,0,0,0,0,0,0,0,0,0,0,0,0,0,0,0,0,0,0,0,0,0,0,0,0,0,0,0,0,0,0,0,0,0,0,0,0,0,0,0,0,0,0,0,0,0,0,0,0,0,0,0,0,0,0,0,0,0,0,0,0,0,0,0,0,0,0,0,0,0,0,0,0,0,0,0,0,0,0],"sum_hessian":[5.238E3,2.753E3,2.485E3,1.191E3,1.562E3,1.298E3,1.187E3,2.2E1,1.169E3,8.41E2,7.21E2,8.09E2,4.89E2,7.11E2,4.76E2,6E0,1.6E1,4.46E2,7.23E2,8.31E2,1E1,4.12E2,3.09E2,3.96E2,4.13E2,2.04E2,2.85E2,2.28E2,4.83E2,3.34E2,1.42E2,1.1E1,5E0,1.99E2,2.47E2,3.54E2,3.69E2,2.65E2,5.66E2,5E0,5E0,3.73E2,3.9E1,8E1,2.29E2,1.52E2,2.44E2,3.48E2,6.5E1,1.99E2,5E0,1.42E2,1.43E2,1.56E2,7.2E1,4.04E2,7.9E1,7.4E1,2.6E2,8E1,6.2E1,1.92E2,7E0,2.38E2,9E0,4.1E1,3.13E2,3.34E2,3.5E1,2.5E2,1.5E1,2.3E2,3.36E2,1.85E2,1.88E2,1.5E1,2.4E1,7.5E1,5E0,1.68E2,6.1E1,7.8E1,7.4E1,2.37E2,7E0,8.1E1,2.67E2,5.3E1,1.2E1,1.09E2,9E1,1.37E2,5E0,1.37E2,6E0,1.51E2,5E0,2.56E2,1.48E2,6.1E1,1.8E1,6.4E1,1.6E1,5.7E1,5E0],"tree_param":{"num_deleted":"0","num_feature":"44","num_nodes":"105","size_leaf_vector":"1"}},{"base_weights":[-9.6691236E-2,2.637108E1,-3.1356802E1,4.245112E1,1.2096889E1,-1.442955E1,-4.9799595E1,-5.1911278E1,4.406936E1,1.9008549E1,4.5660973E0,-8.061468E0,-2.2340965E1,-4.071031E1,-6.2714626E1,3.1698244E0,-8.7468796E1,5.5163124E1,3.479655E1,1.9572037E1,-9.326288E0,1.0087807E1,2.1465695E0,4.5674124E0,-8.836275E0,-1.7811073E1,-2.604254E1,-4.800729E1,-3.729475E1,-6.581137E1,-4.6875954E1,-4.974772E0,-2.340814E0,6.1409916E1,4.833804E1,3.721306E1,2.8761713E1,1.5737859E1,2.1914988E1,-1.4126885E0,6.560207E-1,1.0761382E1,-7.8566504E-1,3.3352745E0,-7.6164103E0,9.306354E0,-7.6522255E0,-1.3661216E1,-6.9484315E0,-1.8531132E1,5.16632E-1,-2.957355E1,-2.2221478E1,-4.3724995E1,-5.5954624E1,-3.208145E1,-4.1887283E1,-5.8489105E1,-6.931816E1,-3.340969E1,-5.858249E1,3.1161113E0,2.5433E-1,2.1085906E0,2.5935724E0,2.084124E0,1.6589979E0,1.5109283E0,7.46707E-1,8.544685E-1,2.9063508E-1,1.1561546E0,4.2654428E-1,3.3963683E-1,7.31473E-1,-2.7451277E-1,2.289149E-1,-8.443002E-1,2.0892707E-1,8.578169E-1,1.52973635E-2,-7.652123E-1,-0E0,-4.4876456E-1,-8.262579E-1,-4.054012E-1,-3.272508E-2,-1.2060142E0,-7.7694786E-1,-1.5306811E0,-8.8746357E-1,-8.380045E-1,-1.2051907E0,-2.2293315E0,-1.0300473E0,-2.898911E0,-1.2176335E0,-1.6881325E0,-4.85869E-1,-2.155195E0,-7.332191E-1,-3.4076157E0,-2.7049756E0,-3.5291634E0,-2.758248E0,-2.2323256E0,8.552947E-1,-3.144677E0,-1.4014083E0],"categories":[],"categories_nodes":[],"categories_segments":[],"categories_sizes":[],"default_left":[0,0,0,0,0,0,0,0,0,0,0,0,0,0,0,0,0,0,0,0,0,0,0,0,0,0,0,0,0,0,0,0,0,0,0,0,0,0,0,0,0,0,0,0,0,0,0,0,0,0,0,0,0,0,0,0,0,0,0,0,0,0,0,0,0,0,0,0,0,0,0,0,0,0,0,0,0,0,0,0,0,0,0,0,0,0,0,0,0,0,0,0,0,0,0,0,0,0,0,0,0,0,0,0,0,0,0,0,0],"id":5,"left_children":[1,3,5,7,9,11,13,15,17,19,21,23,25,27,29,-1,31,33,35,37,39,41,43,45,47,49,51,53,55,57,59,-1,-1,61,63,65,67,69,71,-1,-1,73,-1,75,77,79,81,83,85,87,-1,89,91,93,95,97,99,101,103,105,107,-1,-1,-1,-1,-1,-1,-1,-1,-1,-1,-1,-1,-1,-1,-1,-1,-1,-1,-1,-1,-1,-1,-1,-1,-1,-1,-1,-1,-1,-1,-1,-1,-1,-1,-1,-1,-1,-1,-1,-1,-1,-1,-1,-1,-1,-1,-1,-1],"loss_changes":[4.345429E6,6.52263E5,7.5101825E5,2.06448E5,7.840267E4,6.314522E4,1.3266825E5,9.9848945E4,1.33346E5,1.2733094E4,9.63635E3,6.870672E3,8.921656E3,1.5123875E4,2.0152625E4,0E0,4.1278125E3,2.2473875E4,9.408375E3,6.5774375E3,7.169967E3,3.9919863E3,5.874048E3,2.4456138E3,5.8965625E3,5.359922E3,3.4662656E3,4.7924375E3,9.8298125E3,6.049875E3,1.08026875E4,0E0,0E0,1.5502625E4,4.1215625E3,7.8025625E3,3.7745781E3,3.868914E3,7.4962188E3,0E0,0E0,3.1989531E3,0E0,4.9616997E3,6.085221E3,2.1125967E3,7.0264105E2,2.3184531E3,3.4605547E3,3.7854297E3,0E0,1.3702969E3,1.1442344E3,1.924125E3,3.1202344E3,8.052E3,7.4764688E3,1.9847188E3,7.67E2,2.3471848E4,3.7604062E3,0E0,0E0,0E0,0E0,0E0,0E0,0E0,0E0,0E0,0E0,0E0,0E0,0E0,0E0,0E0,0E0,0E0,0E0,0E0,0E0,0E0,0E0,0E0,0E0,0E0,0E0,0E0,0E0,0E0,0E0,0E0,0E0,0E0,0E0,0E0,0E0,0E0,0E0,0E0,0E0,0E0,0E0,0E0,0E0,0E0,0E0,0E0,0E0],"parents":[2147483647,0,0,1,1,2,2,3,3,4,4,5,5,6,6,7,7,8,8,9,9,10,10,11,11,12,12,13,13,14,14,16,16,17,17,18,18,19,19,20,20,21,21,22,22,23,23,24,24,25,25,26,26,27,27,28,28,29,29,30,30,33,33,34,34,35,35,36,36,37,37,38,38,41,41,43,43,44,44,45,45,46,46,47,47,48,48,49,49,51,51,52,52,53,53,54,54,55,55,56,56,57,57,58,58,59,59,60,60],"right_children":[2,4,6,8,10,12,14,16,18,20,22,24,26,28,30,-1,32,34,36,38,40,42,44,46,48,50,52,54,56,58,60,-1,-1,62,64,66,68,70,72,-1,-1,74,-1,76,78,80,82,84,86,88,-1,90,92,94,96,98,100,102,104,106,108,-1,-1,-1,-1,-1,-1,-1,-1,-1,-1,-1,-1,-1,-1,-1,-1,-1,-1,-1,-1,-1,-1,-1,-1,-1,-1,-1,-1,-1,-1,-1,-1,-1,-1,-1,-1,-1,-1,-1,-1,-1,-1,-1,-1,-1,-1,-1,-1],"split_conditions":[5.634416E1,5.1352528E1,6.0536213E1,3.688874E1,5.3867313E1,5.8580517E1,5.6300117E1,4.6937008E1,4.8128002E1,8.383014E1,5.463397E1,4.8455517E1,5.940855E1,7.0539215E1,7.857149E1,3.1698244E0,5.7590805E1,4.629338E1,7.4595055E1,6.722059E1,7.260461E1,5.638839E1,9.3952515E1,6.981281E1,6.4411766E1,8.347528E1,7.630882E1,6.1988617E1,6.1793327E1,6.367593E1,7.434785E1,-4.974772E0,-2.340814E0,9.184314E1,6.4411766E1,4.981643E1,6.29076E1,8.2021225E1,8.052187E1,-1.4126885E0,6.560207E-1,7.4303925E1,-7.8566504E-1,5.4735294E1,7.796568E1,4.7877518E1,7.364452E1,5.7136482E1,8.5527054E1,6.997059E1,5.16632E-1,8.115693E1,7.074173E1,8.747299E1,8.233183E1,8.245729E1,8.451607E1,6.590196E1,7.651064E1,7.286983E1,8.330681E1,3.1161113E0,2.5433E-1,2.1085906E0,2.5935724E0,2.084124E0,1.6589979E0,1.5109283E0,7.46707E-1,8.544685E-1,2.9063508E-1,1.1561546E0,4.2654428E-1,3.3963683E-1,7.31473E-1,-2.7451277E-1,2.289149E-1,-8.443002E-1,2.0892707E-1,8.578169E-1,1.52973635E-2,-7.652123E-1,-0E0,-4.4876456E-1,-8.262579E-1,-4.054012E-1,-3.272508E-2,-1.2060142E0,-7.7694786E-1,-1.5306811E0,-8.8746357E-1,-8.380045E-1,-1.2051907E0,-2.2293315E0,-1.0300473E0,-2.898911E0,-1.2176335E0,-1.6881325E0,-4.85869E-1,-2.155195E0,-7.332191E-1,-3.4076157E0,-2.7049756E0,-3.5291634E0,-2.758248E0,-2.2323256E0,8.552947E-1,-3.144677E0,-1.4014083E0],"split_indices":[20,20,20,20,20,20,24,16,20,8,20,24,20,0,7,0,6,20,6,0,37,25,16,6,0,10,1,20,20,20,14,0,0,0,0,20,23,14,4,0,0,1,0,1,3,24,6,20,39,0,0,15,37,39,8,8,12,0,10,14,10,0,0,0,0,0,0,0,0,0,0,0,0,0,0,0,0,0,0,0,0,0,0,0,0,0,0,0,0,0,0,0,0,0,0,0,0,0,0,0,0,0,0,0,0,0,0,0,0],"split_type":[0,0,0,0,0,0,0,0,0,0,0,0,0,0,0,0,0,0,0,0,0,0,0,0,0,0,0,0,0,0,0,0,0,0,0,0,0,0,0,0,0,0,0,0,0,0,0,0,0,0,0,0,0,0,0,0,0,0,0,0,0,0,0,0,0,0,0,0,0,0,0,0,0,0,0,0,0,0,0,0,0,0,0,0,0,0,0,0,0,0,0,0,0,0,0,0,0,0,0,0,0,0,0,0,0,0,0,0,0],"sum_hessian":[5.25E3,2.843E3,2.407E3,1.336E3,1.507E3,1.256E3,1.151E3,2.2E1,1.314E3,7.85E2,7.22E2,6.97E2,5.59E2,6.78E2,4.73E2,5E0,1.7E1,5.96E2,7.18E2,7.7E2,1.5E1,2.19E2,5.03E2,4E1,6.57E2,2.54E2,3.05E2,2.12E2,4.66E2,3.93E2,8E1,1.2E1,5E0,3.07E2,2.89E2,5.09E2,2.09E2,2.95E2,4.75E2,8E0,7E0,2.14E2,5E0,4.49E2,5.4E1,2.9E1,1.1E1,1.83E2,4.74E2,2.48E2,6E0,1.55E2,1.5E2,1.42E2,7E1,2.22E2,2.44E2,1.33E2,2.6E2,3.9E1,4.1E1,3.02E2,5E0,1.1E2,1.79E2,2.37E2,2.72E2,1.88E2,2.1E1,2.59E2,3.6E1,4.35E2,4E1,1.07E2,1.07E2,5.5E1,3.94E2,3E1,2.4E1,1.5E1,1.4E1,5E0,6E0,7.1E1,1.12E2,4E2,7.4E1,8.4E1,1.64E2,1.41E2,1.4E1,4.1E1,1.09E2,1.36E2,6E0,6.5E1,5E0,2.06E2,1.6E1,2.33E2,1.1E1,3.7E1,9.6E1,2.35E2,2.5E1,3.2E1,7E0,3.5E1,6E0],"tree_param":{"num_deleted":"0","num_feature":"44","num_nodes":"109","size_leaf_vector":"1"}},{"base_weights":[1.7283793E-1,2.5646414E1,-2.9227858E1,4.090218E1,1.1992682E1,-1.3029055E1,-4.758065E1,-3.214397E1,4.193521E1,1.8243212E1,5.519481E0,-6.1898317E0,-1.9649843E1,-3.8181606E1,-5.88984E1,3.687164E0,-4.334763E0,5.482797E1,3.4795807E1,1.8664686E1,-5.300593E0,6.8340464E0,-2.8033292E0,-6.50341E0,1.3901563E0,-1.5614272E1,-2.4402182E1,-3.51618E1,-4.400916E1,-5.579487E1,-3.551783E0,6.244529E1,5.1367E1,3.968583E1,3.028043E1,2.3044844E1,1.6726856E1,1.1201864E0,-1.44459E0,9.861659E0,2.3249261E0,-6.344676E-1,-1.8329874E0,-9.367224E0,-4.321297E0,-1.602814E1,5.625834E-1,-2.8717777E1,-2.2638603E1,-3.5715168E1,-4.5567513E-1,-4.488074E1,-3.5119635E-1,-5.871775E1,-4.265584E1,3.1852896E0,1.1829886E0,2.2444062E0,2.6777751E0,1.4182719E0,2.0855815E0,1.636157E0,1.2330769E0,1.3527708E0,9.3959075E-1,8.8787335E-1,5.2143836E-1,5.331597E-1,-2.0955418E-1,1.5054695E-1,-9.5669186E-1,6.545635E-2,-1.2634766E0,-3.1191638E-1,-6.6984916E-1,-1.4649485E-1,-5.236722E-1,-9.509145E-1,-6.3197064E-1,-1.5322391E0,-1.0304334E0,-5.5803555E-1,-1.1748122E0,-1.8475813E0,-1.1722187E0,-2.2805762E0,-1.0631303E0,-3.272239E0,-2.7363346E0,-2.2843037E0,-7.000018E-1],"categories":[],"categories_nodes":[],"categories_segments":[],"categories_sizes":[],"default_left":[0,0,0,0,0,0,0,0,0,0,0,0,0,0,0,0,0,0,0,0,0,0,0,0,0,0,0,0,0,0,0,0,0,0,0,0,0,0,0,0,0,0,0,0,0,0,0,0,0,0,0,0,0,0,0,0,0,0,0,0,0,0,0,0,0,0,0,0,0,0,0,0,0,0,0,0,0,0,0,0,0,0,0,0,0,0,0,0,0,0,0],"id":6,"left_children":[1,3,5,7,9,11,13,15,17,19,21,23,25,27,29,-1,-1,31,33,35,37,39,41,43,-1,45,47,49,51,53,-1,55,57,59,61,63,65,-1,-1,67,69,71,-1,73,75,77,-1,79,81,83,-1,85,-1,87,89,-1,-1,-1,-1,-1,-1,-1,-1,-1,-1,-1,-1,-1,-1,-1,-1,-1,-1,-1,-1,-1,-1,-1,-1,-1,-1,-1,-1,-1,-1,-1,-1,-1,-1,-1,-1],"loss_changes":[3.913965E6,5.8273875E5,7.206076E5,1.01106E5,5.9738656E4,5.828833E4,1.1869075E5,1.16143914E5,1.18112E5,7.562453E3,7.9845215E3,6.9580996E3,1.2176828E4,9.425875E3,1.53855E4,0E0,0E0,8.987125E3,1.7382938E4,5.883203E3,9.798031E3,8.562877E3,7.316E3,3.901375E3,0E0,4.1502812E3,1.620375E3,5.6664062E3,6.4167812E3,1.3384375E4,0E0,5.3285E3,2.1801875E3,8.005875E3,5.2538438E3,3.3077812E3,3.1612812E3,0E0,0E0,4.280504E3,3.79513E3,4.584132E3,0E0,3.3440273E3,3.049609E3,3.3231953E3,0E0,6.603125E2,1.8704375E3,5.3027812E3,0E0,2.5444688E3,0E0,5.42725E3,6.214297E3,0E0,0E0,0E0,0E0,0E0,0E0,0E0,0E0,0E0,0E0,0E0,0E0,0E0,0E0,0E0,0E0,0E0,0E0,0E0,0E0,0E0,0E0,0E0,0E0,0E0,0E0,0E0,0E0,0E0,0E0,0E0,0E0,0E0,0E0,0E0,0E0],"parents":[2147483647,0,0,1,1,2,2,3,3,4,4,5,5,6,6,7,7,8,8,9,9,10,10,11,11,12,12,13,13,14,14,17,17,18,18,19,19,20,20,21,21,22,22,23,23,25,25,26,26,27,27,28,28,29,29,31,31,32,32,33,33,34,34,35,35,36,36,39,39,40,40,41,41,43,43,44,44,45,45,47,47,48,48,49,49,51,51,53,53,54,54],"right_children":[2,4,6,8,10,12,14,16,18,20,22,24,26,28,30,-1,-1,32,34,36,38,40,42,44,-1,46,48,50,52,54,-1,56,58,60,62,64,66,-1,-1,68,70,72,-1,74,76,78,-1,80,82,84,-1,86,-1,88,90,-1,-1,-1,-1,-1,-1,-1,-1,-1,-1,-1,-1,-1,-1,-1,-1,-1,-1,-1,-1,-1,-1,-1,-1,-1,-1,-1,-1,-1,-1,-1,-1,-1,-1,-1,-1],"split_conditions":[5.6240376E1,5.1352528E1,6.0536213E1,3.688874E1,5.3716663E1,5.8255314E1,6.2779823E1,4.618089E1,4.7383102E1,8.383014E1,7.90155E1,8.386599E1,5.940855E1,6.1988617E1,6.455307E1,3.687164E0,-4.334763E0,4.471041E1,4.9493916E1,5.4972057E1,5.3779087E1,5.5295166E1,3.928736E1,7.038725E1,1.3901563E0,8.3179405E1,5.2806747E1,8.371185E1,8.361027E1,9.3952515E1,-3.551783E0,3.7775455E1,6.9411766E1,6.0343136E1,7.189742E1,5.2748577E1,7.981194E1,1.1201864E0,-1.44459E0,8.156117E1,9.6480446E1,7.388308E1,-1.8329874E0,7.28356E1,8.6146614E1,7.57598E1,5.625834E-1,8.326961E1,4.8593136E1,8.130667E1,-4.5567513E-1,8.366525E1,-3.5119635E-1,5.8367645E1,9.108652E1,3.1852896E0,1.1829886E0,2.2444062E0,2.6777751E0,1.4182719E0,2.0855815E0,1.636157E0,1.2330769E0,1.3527708E0,9.3959075E-1,8.8787335E-1,5.2143836E-1,5.331597E-1,-2.0955418E-1,1.5054695E-1,-9.5669186E-1,6.545635E-2,-1.2634766E0,-3.1191638E-1,-6.6984916E-1,-1.4649485E-1,-5.236722E-1,-9.509145E-1,-6.3197064E-1,-1.5322391E0,-1.0304334E0,-5.5803555E-1,-1.1748122E0,-1.8475813E0,-1.1722187E0,-2.2805762E0,-1.0631303E0,-3.272239E0,-2.7363346E0,-2.2843037E0,-7.000018E-1],"split_indices":[20,20,20,20,20,20,20,16,20,8,5,11,20,20,20,0,0,20,20,5,34,20,29,2,0,4,32,11,6,18,0,31,2,2,8,20,11,0,0,9,17,32,0,37,38,2,0,3,2,8,0,8,0,2,37,0,0,0,0,0,0,0,0,0,0,0,0,0,0,0,0,0,0,0,0,0,0,0,0,0,0,0,0,0,0,0,0,0,0,0,0],"split_type":[0,0,0,0,0,0,0,0,0,0,0,0,0,0,0,0,0,0,0,0,0,0,0,0,0,0,0,0,0,0,0,0,0,0,0,0,0,0,0,0,0,0,0,0,0,0,0,0,0,0,0,0,0,0,0,0,0,0,0,0,0,0,0,0,0,0,0,0,0,0,0,0,0,0,0,0,0,0,0,0,0,0,0,0,0,0,0,0,0,0,0],"sum_hessian":[5.224E3,2.799E3,2.425E3,1.321E3,1.478E3,1.289E3,1.136E3,1.8E1,1.303E3,7.51E2,7.27E2,6.35E2,6.54E2,6.23E2,5.13E2,6E0,1.2E1,4.62E2,8.41E2,7.38E2,1.3E1,6.28E2,9.9E1,6.3E2,5E0,3.56E2,2.98E2,4.15E2,2.08E2,4.13E2,1E2,1.39E2,3.23E2,4E2,4.41E2,2.23E2,5.15E2,6E0,7E0,3.75E2,2.53E2,9.4E1,5E0,2.71E2,3.59E2,3.51E2,5E0,8.2E1,2.16E2,4.06E2,9E0,2.03E2,5E0,3.35E2,7.8E1,1.34E2,5E0,8.7E1,2.36E2,6.3E1,3.37E2,3.04E2,1.37E2,1.12E2,1.11E2,4.41E2,7.4E1,3.55E2,2E1,2.46E2,7E0,8.8E1,6E0,1.54E2,1.17E2,2.94E2,6.5E1,1.84E2,1.67E2,6.4E1,1.8E1,1.6E1,2E2,3.67E2,3.9E1,1.96E2,7E0,1.19E2,2.16E2,7E1,8E0],"tree_param":{"num_deleted":"0","num_feature":"44","num_nodes":"91","size_leaf_vector":"1"}},{"base_weights":[-1.2659511E-1,2.438994E1,-2.7780447E1,3.971523E1,1.2758115E1,-1.3857402E1,-4.648458E1,-3.4027157E1,4.098434E1,1.8641045E1,5.7967615E0,-8.385253E0,-2.3851124E1,-3.8777203E1,-5.7863926E1,3.2183201E0,-7.768234E1,5.1590992E1,3.3929905E1,2.4134924E1,1.6209764E1,9.200024E0,2.6883361E0,-4.299378E0,-1.1515592E1,-2.7202103E1,-2.008096E1,-4.652215E1,-3.5658558E1,-6.0994415E1,-4.4963566E1,-4.3951573E0,-2.384197E0,5.2192192E1,2.0489529E-1,3.817062E1,3.0642836E1,2.5909998E1,1.808691E1,2.1777283E1,1.4584269E1,9.805262E0,-8.9056855E-1,-5.64784E0,4.0698557E0,1.0558081E1,-5.312891E0,-1.3176564E1,-3.9102058E0,-2.7856472E1,-1.3838695E-1,-1.9052332E1,-3.334901E1,-4.947123E1,-3.4275E1,-3.238744E1,-4.2072296E1,-5.8215E1,-3.42034E0,-3.1763351E1,-2.8864877E0,3.2277753E0,2.477348E0,2.0024104E0,1.1861969E0,1.3085E0,1.646163E0,9.270507E-1,1.3401934E0,4.9089724E-1,1.0345429E0,7.419512E-1,1.1817529E0,7.488916E-1,-4.9772736E-1,2.889881E-1,6.784316E-1,-3.7565705E-1,2.3548011E-1,3.8808998E-1,8.606944E-2,1.3543829E0,8.505887E-2,-4.546431E-1,-1.4553925E-1,-1.0771887E0,-6.01884E-1,-3.081781E-1,1.0676494E0,-1.2366115E0,-1.6071342E0,-6.9050467E-1,-1.0781987E0,-2.2983491E0,-1.1712831E0,-2.2299774E0,-2.7201893E0,-4.518121E-2,-2.0250385E0,-1.6614145E0,-4.4695613E-1,-2.2175338E0,-1.0749265E0,-3.2513711E0,-2.7006097E0,-1.9983383E0,4.6763908E-2],"categories":[],"categories_nodes":[],"categories_segments":[],"categories_sizes":[],"default_left":[0,0,0,0,0,0,0,0,0,0,0,0,0,0,0,0,0,0,0,0,0,0,0,0,0,0,0,0,0,0,0,0,0,0,0,0,0,0,0,0,0,0,0,0,0,0,0,0,0,0,0,0,0,0,0,0,0,0,0,0,0,0,0,0,0,0,0,0,0,0,0,0,0,0,0,0,0,0,0,0,0,0,0,0,0,0,0,0,0,0,0,0,0,0,0,0,0,0,0,0,0,0,0,0,0,0,0],"id":7,"left_children":[1,3,5,7,9,11,13,15,17,19,21,23,25,27,29,-1,31,33,35,37,39,41,43,45,47,49,51,53,55,57,59,-1,-1,61,-1,63,65,67,69,71,73,75,-1,77,79,81,83,85,87,89,-1,91,93,95,97,99,101,103,-1,105,-1,-1,-1,-1,-1,-1,-1,-1,-1,-1,-1,-1,-1,-1,-1,-1,-1,-1,-1,-1,-1,-1,-1,-1,-1,-1,-1,-1,-1,-1,-1,-1,-1,-1,-1,-1,-1,-1,-1,-1,-1,-1,-1,-1,-1,-1,-1],"loss_changes":[3.5851402E6,4.9915362E5,6.4648975E5,1.14542625E5,6.5209797E4,7.7780625E4,9.071375E4,9.520462E4,8.72065E4,1.1145344E4,7.717754E3,1.1754234E4,5.8164062E3,1.36705625E4,1.4450625E4,0E0,3.939922E2,1.3286E4,8.8180625E3,2.3504531E3,5.126828E3,5.8794023E3,4.4451973E3,6.1089795E3,6.5408516E3,4.140953E3,2.6485234E3,4.7610938E3,8.2178125E3,3.00975E3,1.2818281E4,0E0,0E0,1.206275E4,0E0,7.4251562E3,3.30425E3,8.224531E2,1.1503184E3,1.3726562E3,4.678992E3,5.10075E3,0E0,1.0982502E3,2.8469253E3,3.7574626E3,3.3954512E3,3.815836E3,5.5381543E3,2.6408906E3,0E0,2.6743203E3,9.196543E2,9.759375E2,7.8542383E3,5.75175E3,6.1180625E3,3.7481875E3,0E0,1.2112102E4,0E0,0E0,0E0,0E0,0E0,0E0,0E0,0E0,0E0,0E0,0E0,0E0,0E0,0E0,0E0,0E0,0E0,0E0,0E0,0E0,0E0,0E0,0E0,0E0,0E0,0E0,0E0,0E0,0E0,0E0,0E0,0E0,0E0,0E0,0E0,0E0,0E0,0E0,0E0,0E0,0E0,0E0,0E0,0E0,0E0,0E0,0E0],"parents":[2147483647,0,0,1,1,2,2,3,3,4,4,5,5,6,6,7,7,8,8,9,9,10,10,11,11,12,12,13,13,14,14,16,16,17,17,18,18,19,19,20,20,21,21,22,22,23,23,24,24,25,25,26,26,27,27,28,28,29,29,30,30,33,33,35,35,36,36,37,37,38,38,39,39,40,40,41,41,43,43,44,44,45,45,46,46,47,47,48,48,49,49,51,51,52,52,53,53,54,54,55,55,56,56,57,57,59,59],"right_children":[2,4,6,8,10,12,14,16,18,20,22,24,26,28,30,-1,32,34,36,38,40,42,44,46,48,50,52,54,56,58,60,-1,-1,62,-1,64,66,68,70,72,74,76,-1,78,80,82,84,86,88,90,-1,92,94,96,98,100,102,104,-1,106,-1,-1,-1,-1,-1,-1,-1,-1,-1,-1,-1,-1,-1,-1,-1,-1,-1,-1,-1,-1,-1,-1,-1,-1,-1,-1,-1,-1,-1,-1,-1,-1,-1,-1,-1,-1,-1,-1,-1,-1,-1,-1,-1,-1,-1,-1,-1],"split_conditions":[5.6240376E1,5.0915634E1,6.0932373E1,3.0563536E1,5.3716663E1,5.909106E1,5.6487137E1,8.034804E1,4.7383102E1,2.6096664E1,5.4957035E1,5.7427185E1,7.630882E1,6.920588E1,7.660136E1,3.2183201E0,7.32443E1,9.30098E1,4.925399E1,5.28027E1,5.0433887E1,9.122148E1,5.614706E1,4.813136E1,7.9933105E1,8.269921E1,8.264368E1,7.5078545E1,6.243053E1,6.455307E1,4.067643E1,-4.3951573E0,-2.384197E0,4.3767437E1,2.0489529E-1,8.169984E1,7.212745E1,5.6122547E1,1.7626179E1,5.9748665E1,9.479412E1,7.4303925E1,-8.9056855E-1,6.9677025E1,7.096395E1,2.6538292E1,6.934804E1,5.3612743E1,8.347528E1,6.0155678E1,-1.3838695E-1,5.9645126E1,7.209742E1,6.208236E1,4.907843E1,8.4231606E1,7.981194E1,6.747059E1,-3.42034E0,9.0331985E1,-2.8864877E0,3.2277753E0,2.477348E0,2.0024104E0,1.1861969E0,1.3085E0,1.646163E0,9.270507E-1,1.3401934E0,4.9089724E-1,1.0345429E0,7.419512E-1,1.1817529E0,7.488916E-1,-4.9772736E-1,2.889881E-1,6.784316E-1,-3.7565705E-1,2.3548011E-1,3.8808998E-1,8.606944E-2,1.3543829E0,8.505887E-2,-4.546431E-1,-1.4553925E-1,-1.0771887E0,-6.01884E-1,-3.081781E-1,1.0676494E0,-1.2366115E0,-1.6071342E0,-6.9050467E-1,-1.0781987E0,-2.2983491E0,-1.1712831E0,-2.2299774E0,-2.7201893E0,-4.518121E-2,-2.0250385E0,-1.6614145E0,-4.4695613E-1,-2.2175338E0,-1.0749265E0,-3.2513711E0,-2.7006097E0,-1.9983383E0,4.6763908E-2],"split_indices":[20,20,20,24,20,20,24,0,20,28,20,20,1,0,7,0,39,0,20,20,5,38,1,24,13,5,9,7,20,20,28,0,0,20,0,14,2,0,29,0,1,1,0,32,37,28,0,0,11,20,0,20,36,20,1,9,11,1,0,38,0,0,0,0,0,0,0,0,0,0,0,0,0,0,0,0,0,0,0,0,0,0,0,0,0,0,0,0,0,0,0,0,0,0,0,0,0,0,0,0,0,0,0,0,0,0,0],"split_type":[0,0,0,0,0,0,0,0,0,0,0,0,0,0,0,0,0,0,0,0,0,0,0,0,0,0,0,0,0,0,0,0,0,0,0,0,0,0,0,0,0,0,0,0,0,0,0,0,0,0,0,0,0,0,0,0,0,0,0,0,0,0,0,0,0,0,0,0,0,0,0,0,0,0,0,0,0,0,0,0,0,0,0,0,0,0,0,0,0,0,0,0,0,0,0,0,0,0,0,0,0,0,0,0,0,0,0],"sum_hessian":[5.286E3,2.802E3,2.484E3,1.208E3,1.594E3,1.425E3,1.059E3,2E1,1.188E3,8.63E2,7.31E2,9.22E2,5.03E2,6.34E2,4.25E2,6E0,1.4E1,4.72E2,7.16E2,2.62E2,6.01E2,3.48E2,3.83E2,4.01E2,5.21E2,2.63E2,2.4E2,1.78E2,4.56E2,3.39E2,8.6E1,9E0,5E0,4.66E2,6E0,3.08E2,4.08E2,2E2,6.2E1,1.33E2,4.68E2,3.41E2,7E0,5.4E1,3.29E2,2.5E1,3.76E2,4.27E2,9.4E1,2.56E2,7E0,2.25E2,1.5E1,1.41E2,3.7E1,3.06E2,1.5E2,2.53E2,8.6E1,4.4E1,4.2E1,7.8E1,3.88E2,2.71E2,3.7E1,1.42E2,2.66E2,2.4E1,1.76E2,1.6E1,4.6E1,3E1,1.03E2,4.61E2,7E0,1.66E2,1.75E2,4.6E1,8E0,1.27E2,2.02E2,8E0,1.7E1,1.45E2,2.31E2,4.9E1,3.78E2,8.7E1,7E0,1.52E2,1.04E2,7.5E1,1.5E2,5E0,1E1,7.6E1,6.5E1,6E0,3.1E1,2.95E2,1.1E1,1.34E2,1.6E1,9.1E1,1.62E2,3.5E1,9E0],"tree_param":{"num_deleted":"0","num_feature":"44","num_nodes":"107","size_leaf_vector":"1"}},{"base_weights":[1.6394801E-1,2.3453548E1,-2.5972288E1,3.621792E1,1.1272798E1,-1.1595868E1,-4.2875454E1,-4.9378983E1,3.7469463E1,1.6242373E1,4.9935822E0,-5.588488E0,-1.8386911E1,-3.4980892E1,-5.4160393E1,1.6108087E0,-3.936589E0,4.8381454E1,3.0372074E1,1.6638342E1,-1.0972807E1,6.7540493E0,-2.405858E0,-1.0036098E1,-2.838628E0,-1.5717087E1,-2.327846E1,-3.776674E1,-2.7592583E1,-5.0823833E1,-6.3384243E1,5.3564404E1,4.266285E1,3.6002476E1,2.8038252E1,2.0331123E1,1.4218814E1,6.1401886E-1,-1.8144693E0,3.3274136E0,9.23981E0,-5.399714E-1,-1.945649E1,4.9925056E-1,-1.0525615E1,-3.254741E0,1.1735252E0,-1.8833265E1,-1.1899755E1,-2.3785215E1,-4.371984E-1,-3.188195E1,-4.2128418E1,-2.8929861E1,-3.435471E0,-5.3358406E1,-3.5707664E1,-1.8698081E0,-3.2094057E0,2.7279656E0,1.734993E-2,2.1897388E0,1.0812886E0,1.3530186E0,1.8876151E0,3.844069E-1,1.4208988E0,1.0922257E0,1.16088726E-1,5.16282E-1,8.3576614E-1,3.3721203E-1,-7.649843E-2,4.9065423E-1,-9.9958867E-1,-7.1497184E-1,1.0497501E-1,2.691066E-1,-2.2604399E0,-3.6757633E-1,-6.77523E-1,2.2832166E-1,-2.2455612E-1,-1.0127631E0,-2.760615E-1,-6.224639E-1,3.367874E-1,-1.3536392E0,-1.0303636E0,-1.637337E0,1.5530439E-1,-2.134147E0,-7.353574E-1,7.4159354E-2,-1.4909002E0,-1.1362627E0,8.2051104E-1,-3.0031724E0,-2.4622054E0,-2.1689656E-1,-2.0592942E0],"categories":[],"categories_nodes":[],"categories_segments":[],"categories_sizes":[],"default_left":[0,0,0,0,0,0,0,0,0,0,0,0,0,0,0,0,0,0,0,0,0,0,0,0,0,0,0,0,0,0,0,0,0,0,0,0,0,0,0,0,0,0,0,0,0,0,0,0,0,0,0,0,0,0,0,0,0,0,0,0,0,0,0,0,0,0,0,0,0,0,0,0,0,0,0,0,0,0,0,0,0,0,0,0,0,0,0,0,0,0,0,0,0,0,0,0,0,0,0,0,0],"id":8,"left_children":[1,3,5,7,9,11,13,15,17,19,21,23,25,27,29,-1,-1,31,33,35,37,39,41,43,45,47,49,51,53,55,57,59,61,63,65,67,69,-1,-1,71,73,75,77,-1,79,81,-1,83,85,87,-1,89,91,93,95,97,99,-1,-1,-1,-1,-1,-1,-1,-1,-1,-1,-1,-1,-1,-1,-1,-1,-1,-1,-1,-1,-1,-1,-1,-1,-1,-1,-1,-1,-1,-1,-1,-1,-1,-1,-1,-1,-1,-1,-1,-1,-1,-1,-1,-1],"loss_changes":[3.2023838E6,4.3213125E5,6.019119E5,1.4732938E5,4.4383938E4,5.460278E4,9.95695E4,5.0442004E4,1.02223875E5,8.750344E3,8.236387E3,8.69043E3,7.8446875E3,1.2803625E4,1.11395E4,0E0,0E0,1.3295375E4,9.6803125E3,6.7123438E3,7.512341E3,4.3120723E3,3.8688691E3,2.7709375E3,4.9131953E3,4.6499688E3,1.4091641E3,1.1123875E4,5.970672E3,1.14188125E4,9.634375E1,1.43770625E4,5.1185E3,2.6489688E3,4.2598125E3,8.341445E3,4.4608203E3,0E0,0E0,3.5957556E3,5.1386934E3,4.0625085E3,7.9231245E3,0E0,2.4521895E3,4.2366E3,0E0,4.125836E3,1.9994277E3,1.6522422E3,0E0,6.488953E3,3.5632812E3,4.8550312E3,4.5845674E3,5.196875E3,8.924859E3,0E0,0E0,0E0,0E0,0E0,0E0,0E0,0E0,0E0,0E0,0E0,0E0,0E0,0E0,0E0,0E0,0E0,0E0,0E0,0E0,0E0,0E0,0E0,0E0,0E0,0E0,0E0,0E0,0E0,0E0,0E0,0E0,0E0,0E0,0E0,0E0,0E0,0E0,0E0,0E0,0E0,0E0,0E0,0E0],"parents":[2147483647,0,0,1,1,2,2,3,3,4,4,5,5,6,6,7,7,8,8,9,9,10,10,11,11,12,12,13,13,14,14,17,17,18,18,19,19,20,20,21,21,22,22,23,23,24,24,25,25,26,26,27,27,28,28,29,29,30,30,31,31,32,32,33,33,34,34,35,35,36,36,39,39,40,40,41,41,42,42,44,44,45,45,47,47,48,48,49,49,51,51,52,52,53,53,54,54,55,55,56,56],"right_children":[2,4,6,8,10,12,14,16,18,20,22,24,26,28,30,-1,-1,32,34,36,38,40,42,44,46,48,50,52,54,56,58,60,62,64,66,68,70,-1,-1,72,74,76,78,-1,80,82,-1,84,86,88,-1,90,92,94,96,98,100,-1,-1,-1,-1,-1,-1,-1,-1,-1,-1,-1,-1,-1,-1,-1,-1,-1,-1,-1,-1,-1,-1,-1,-1,-1,-1,-1,-1,-1,-1,-1,-1,-1,-1,-1,-1,-1,-1,-1,-1,-1,-1,-1,-1],"split_conditions":[5.5992077E1,5.1352528E1,6.0536213E1,3.688874E1,5.3867313E1,5.8322174E1,6.2992413E1,4.9706703E1,4.7754715E1,8.4034454E1,7.7002625E1,6.934804E1,5.9645126E1,8.7583336E1,5.7959305E1,1.6108087E0,-3.936589E0,4.5983707E1,2.338161E1,5.251088E1,6.123234E-17,6.9583336E1,9.673184E1,4.820766E1,5.1956913E1,7.815686E1,8.297549E1,6.1573486E1,8.371185E1,9.133613E1,4.489483E1,9.335294E1,8.21039E1,6.2112747E1,4.129902E1,9.325884E1,6.698529E1,6.1401886E-1,-1.8144693E0,5.506305E1,6.3756275E1,2.4145666E1,7.206363E1,4.9925056E-1,5.7136482E1,4.677108E1,1.1735252E0,8.1661705E1,5.7869537E1,7.587185E1,-4.371984E-1,9.5346085E1,8.890364E1,5.1463696E1,-1.8369701E-16,7.535784E1,6.750331E1,-1.8698081E0,-3.2094057E0,2.7279656E0,1.734993E-2,2.1897388E0,1.0812886E0,1.3530186E0,1.8876151E0,3.844069E-1,1.4208988E0,1.0922257E0,1.16088726E-1,5.16282E-1,8.3576614E-1,3.3721203E-1,-7.649843E-2,4.9065423E-1,-9.9958867E-1,-7.1497184E-1,1.0497501E-1,2.691066E-1,-2.2604399E0,-3.6757633E-1,-6.77523E-1,2.2832166E-1,-2.2455612E-1,-1.0127631E0,-2.760615E-1,-6.224639E-1,3.367874E-1,-1.3536392E0,-1.0303636E0,-1.637337E0,1.5530439E-1,-2.134147E0,-7.353574E-1,7.4159354E-2,-1.4909002E0,-1.1362627E0,8.2051104E-1,-3.0031724E0,-2.4622054E0,-2.1689656E-1,-2.0592942E0],"split_indices":[20,20,20,20,20,20,20,17,20,8,4,0,20,0,24,0,0,20,28,20,41,0,17,24,24,1,5,20,11,19,33,1,5,2,3,17,0,0,0,20,21,31,15,0,20,5,0,12,27,1,0,18,39,24,41,0,39,0,0,0,0,0,0,0,0,0,0,0,0,0,0,0,0,0,0,0,0,0,0,0,0,0,0,0,0,0,0,0,0,0,0,0,0,0,0,0,0,0,0,0,0],"split_type":[0,0,0,0,0,0,0,0,0,0,0,0,0,0,0,0,0,0,0,0,0,0,0,0,0,0,0,0,0,0,0,0,0,0,0,0,0,0,0,0,0,0,0,0,0,0,0,0,0,0,0,0,0,0,0,0,0,0,0,0,0,0,0,0,0,0,0,0,0,0,0,0,0,0,0,0,0,0,0,0,0,0,0,0,0,0,0,0,0,0,0,0,0,0,0,0,0,0,0,0,0],"sum_hessian":[5.259E3,2.781E3,2.478E3,1.357E3,1.424E3,1.34E3,1.138E3,1.9E1,1.338E3,7.94E2,6.3E2,7.12E2,6.28E2,6.72E2,4.66E2,5E0,1.4E1,5.25E2,8.13E2,7.83E2,1.1E1,5.09E2,1.21E2,2.71E2,4.41E2,4.09E2,2.19E2,4.85E2,1.87E2,3.47E2,1.19E2,2.71E2,2.54E2,2.34E2,5.79E2,3.07E2,4.76E2,6E0,5E0,2.15E2,2.94E2,1.1E2,1.1E1,6E0,2.65E2,4.35E2,6E0,2.23E2,1.86E2,2.11E2,8E0,2.1E2,2.75E2,1.77E2,1E1,2.95E2,5.2E1,5E0,1.14E2,2.66E2,5E0,2.4E2,1.4E1,4.1E1,1.93E2,1.1E1,5.68E2,2.83E2,2.4E1,1.88E2,2.88E2,1.26E2,8.9E1,2.89E2,5E0,1.7E1,9.3E1,6E0,5E0,1.31E2,1.34E2,5.9E1,3.76E2,2.01E2,2.2E1,1.81E2,5E0,1E2,1.11E2,2.05E2,5E0,2.69E2,6E0,5E0,1.72E2,5E0,5E0,1.07E2,1.88E2,8E0,4.4E1],"tree_param":{"num_deleted":"0","num_feature":"44","num_nodes":"101","size_leaf_vector":"1"}},{"base_weights":[-7.4361116E-2,2.1577257E1,-2.6081615E1,3.509967E1,1.0920462E1,-1.3213668E1,-4.287516E1,-4.2254864E1,3.6436317E1,1.5402772E1,2.990243E0,-7.104984E0,-2.0366404E1,-3.463555E1,-5.2107307E1,2.2544038E0,-7.060208E1,4.4620228E1,2.870399E1,1.9518185E1,1.2828912E1,5.710058E-1,6.836536E0,-1.3858108E1,-5.6010466E0,-1.6171688E1,-2.3745598E1,-4.1884525E1,-3.0896978E1,-4.9208004E1,-3.0755136E0,-1.7816029E0,-4.109763E0,4.9240253E1,3.9959743E1,3.1278511E1,2.2046986E1,2.239183E1,1.1798172E1,7.376857E0,1.4283104E1,-6.184205E0,1.5345407E0,8.578909E0,-3.2008786E0,-7.832096E0,-1.7167711E1,1.3858476E0,-6.721274E0,-1.7642244E1,-8.032485E0,-2.4314322E1,-5.976418E0,-4.3820423E1,-2.3717333E1,-3.337998E1,-1.9450214E1,-5.662151E1,-4.4136677E1,2.5056338E0,-8.491789E-2,1.4373043E0,2.060479E0,2.5747833E-1,1.5863686E0,1.2398292E0,5.7973796E-1,7.647192E-1,1.2064902E0,7.287573E-1,-7.1290344E-1,4.1204578E-1,-6.796997E-3,6.978346E-1,1.7655207E0,6.8192678E-3,-4.67619E-1,1.2559466E-1,-2.6225275E-1,1.5986827E-1,5.2252984E-1,-8.777513E-1,1.7536542E-1,-2.6710851E-2,-4.8435426E-1,-7.041535E-1,-1.0066067E0,7.22022E-1,-6.0320403E-2,1.1525747E0,-3.5279673E-1,-8.3006907E-1,-1.3322959E0,2.1321006E-1,-5.018093E-1,-1.3780041E0,-1.0800208E0,7.213292E-1,-1.1312609E0,-2.0017543E0,-2.4280088E0,-9.999695E-2,-1.9010302E0,-1.5103492E0,-1.863313E0,-1.2647763E0,-2.1021424E-2,-2.8782125E0,-1.2192557E0,-2.3013484E0,-1.5529054E0],"categories":[],"categories_nodes":[],"categories_segments":[],"categories_sizes":[],"default_left":[0,0,0,0,0,0,0,0,0,0,0,0,0,0,0,0,0,0,0,0,0,0,0,0,0,0,0,0,0,0,0,0,0,0,0,0,0,0,0,0,0,0,0,0,0,0,0,0,0,0,0,0,0,0,0,0,0,0,0,0,0,0,0,0,0,0,0,0,0,0,0,0,0,0,0,0,0,0,0,0,0,0,0,0,0,0,0,0,0,0,0,0,0,0,0,0,0,0,0,0,0,0,0,0,0,0,0,0,0,0,0],"id":9,"left_children":[1,3,5,7,9,11,13,15,17,19,21,23,25,27,29,-1,31,33,35,37,39,41,43,45,47,49,51,53,55,57,-1,-1,-1,59,61,63,65,67,69,71,73,75,77,79,81,83,85,87,89,91,93,95,97,99,101,103,105,107,109,-1,-1,-1,-1,-1,-1,-1,-1,-1,-1,-1,-1,-1,-1,-1,-1,-1,-1,-1,-1,-1,-1,-1,-1,-1,-1,-1,-1,-1,-1,-1,-1,-1,-1,-1,-1,-1,-1,-1,-1,-1,-1,-1,-1,-1,-1,-1,-1,-1,-1,-1,-1],"loss_changes":[2.9697848E6,4.14348E5,5.1719962E5,1.3264488E5,5.721622E4,5.9188703E4,7.7222625E4,5.7656316E4,7.762275E4,1.0646047E4,5.420225E3,7.3751406E3,8.471234E3,1.36583125E4,1.0266125E4,0E0,3.951461E3,1.10285E4,1.03423125E4,8.473125E3,4.9348984E3,2.3457136E3,3.963005E3,2.5155547E3,4.7216484E3,3.2310234E3,3.3280312E3,5.460375E3,9.804844E3,1.17021875E4,0E0,0E0,0E0,1.33775E4,3.0970625E3,5.2513438E3,4.968164E3,3.1548594E3,8.0948145E3,8.847739E2,2.9409062E3,9.0331006E2,2.1001086E3,1.8991533E3,3.3368457E3,6.571394E2,4.9031055E2,2.8613755E3,5.332242E3,1.78375E3,1.152123E3,2.3330625E3,4.4034507E3,1.0253438E3,6.1325547E3,2.5792188E3,7.5507754E3,3.1466875E3,4.2242188E3,0E0,0E0,0E0,0E0,0E0,0E0,0E0,0E0,0E0,0E0,0E0,0E0,0E0,0E0,0E0,0E0,0E0,0E0,0E0,0E0,0E0,0E0,0E0,0E0,0E0,0E0,0E0,0E0,0E0,0E0,0E0,0E0,0E0,0E0,0E0,0E0,0E0,0E0,0E0,0E0,0E0,0E0,0E0,0E0,0E0,0E0,0E0,0E0,0E0,0E0,0E0,0E0],"parents":[2147483647,0,0,1,1,2,2,3,3,4,4,5,5,6,6,7,7,8,8,9,9,10,10,11,11,12,12,13,13,14,14,16,16,17,17,18,18,19,19,20,20,21,21,22,22,23,23,24,24,25,25,26,26,27,27,28,28,29,29,33,33,34,34,35,35,36,36,37,37,38,38,39,39,40,40,41,41,42,42,43,43,44,44,45,45,46,46,47,47,48,48,49,49,50,50,51,51,52,52,53,53,54,54,55,55,56,56,57,57,58,58],"right_children":[2,4,6,8,10,12,14,16,18,20,22,24,26,28,30,-1,32,34,36,38,40,42,44,46,48,50,52,54,56,58,-1,-1,-1,60,62,64,66,68,70,72,74,76,78,80,82,84,86,88,90,92,94,96,98,100,102,104,106,108,110,-1,-1,-1,-1,-1,-1,-1,-1,-1,-1,-1,-1,-1,-1,-1,-1,-1,-1,-1,-1,-1,-1,-1,-1,-1,-1,-1,-1,-1,-1,-1,-1,-1,-1,-1,-1,-1,-1,-1,-1,-1,-1,-1,-1,-1,-1,-1,-1,-1,-1,-1,-1],"split_conditions":[5.634416E1,5.1036156E1,6.0997658E1,3.688874E1,5.4410778E1,5.8710663E1,6.2992413E1,7.9053925E1,4.8128002E1,5.251088E1,8.1088234E1,5.7759804E1,5.9645126E1,6.69902E1,6.455307E1,2.2544038E0,5.3649906E1,4.616449E1,7.4325356E1,7.473648E1,5.7544117E1,4.7596725E1,7.828534E1,5.7136482E1,2.9544E1,8.94951E1,8.316625E1,8.3871475E1,7.583539E1,7.8274506E1,-3.0755136E0,-1.7816029E0,-4.109763E0,9.281373E1,5.160784E1,3.912745E1,8.321568E1,5.7759804E1,9.3163055E1,8.286918E1,9.479925E1,5.5123314E1,7.857149E1,4.8244576E1,2.993E1,2.1398834E1,5.78864E1,6.587561E1,3.7965687E1,7.829348E1,4.968931E1,7.503432E1,5.549884E1,6.214541E1,7.3065926E1,6.208236E1,5.6204865E1,9.0757324E1,9.021913E1,2.5056338E0,-8.491789E-2,1.4373043E0,2.060479E0,2.5747833E-1,1.5863686E0,1.2398292E0,5.7973796E-1,7.647192E-1,1.2064902E0,7.287573E-1,-7.1290344E-1,4.1204578E-1,-6.796997E-3,6.978346E-1,1.7655207E0,6.8192678E-3,-4.67619E-1,1.2559466E-1,-2.6225275E-1,1.5986827E-1,5.2252984E-1,-8.777513E-1,1.7536542E-1,-2.6710851E-2,-4.8435426E-1,-7.041535E-1,-1.0066067E0,7.22022E-1,-6.0320403E-2,1.1525747E0,-3.5279673E-1,-8.3006907E-1,-1.3322959E0,2.1321006E-1,-5.018093E-1,-1.3780041E0,-1.0800208E0,7.213292E-1,-1.1312609E0,-2.0017543E0,-2.4280088E0,-9.999695E-2,-1.9010302E0,-1.5103492E0,-1.863313E0,-1.2647763E0,-2.1021424E-2,-2.8782125E0,-1.2192557E0,-2.3013484E0,-1.5529054E0],"split_indices":[20,20,20,20,20,20,20,0,20,20,1,0,20,1,20,0,18,20,6,7,0,32,5,20,28,0,5,15,11,0,0,0,0,1,2,3,0,0,2,14,32,20,6,13,28,30,20,36,3,14,25,0,35,20,12,20,25,38,38,0,0,0,0,0,0,0,0,0,0,0,0,0,0,0,0,0,0,0,0,0,0,0,0,0,0,0,0,0,0,0,0,0,0,0,0,0,0,0,0,0,0,0,0,0,0,0,0,0,0,0,0],"split_type":[0,0,0,0,0,0,0,0,0,0,0,0,0,0,0,0,0,0,0,0,0,0,0,0,0,0,0,0,0,0,0,0,0,0,0,0,0,0,0,0,0,0,0,0,0,0,0,0,0,0,0,0,0,0,0,0,0,0,0,0,0,0,0,0,0,0,0,0,0,0,0,0,0,0,0,0,0,0,0,0,0,0,0,0,0,0,0,0,0,0,0,0,0,0,0,0,0,0,0,0,0,0,0,0,0,0,0,0,0,0,0],"sum_hessian":[5.272E3,2.877E3,2.395E3,1.267E3,1.61E3,1.357E3,1.038E3,2.1E1,1.246E3,1.028E3,5.82E2,7.33E2,6.24E2,5.51E2,4.87E2,5E0,1.6E1,6.03E2,6.43E2,3.93E2,6.35E2,3.58E2,2.24E2,1.32E2,6.01E2,2.81E2,3.43E2,1.84E2,3.67E2,3.77E2,1.1E2,5E0,1.1E1,2.98E2,3.05E2,4.61E2,1.82E2,2.85E2,1.08E2,1.35E2,5E2,4.4E1,3.14E2,1.91E2,3.3E1,4.8E1,8.4E1,8.3E1,5.18E2,2.37E2,4.4E1,3.32E2,1.1E1,1.65E2,1.9E1,3E2,6.7E1,1.49E2,2.28E2,2.93E2,5E0,3.3E1,2.72E2,8E0,4.53E2,1.43E2,3.9E1,5.8E1,2.27E2,9.8E1,1E1,1.21E2,1.4E1,4.94E2,6E0,1.5E1,2.9E1,2.75E2,3.9E1,5E1,1.41E2,1E1,2.3E1,1E1,3.8E1,4.4E1,4E1,1.3E1,7E1,5E0,5.13E2,2.15E2,2.2E1,6E0,3.8E1,1.47E2,1.85E2,5E0,6E0,9.7E1,6.8E1,8E0,1.1E1,1.7E2,1.3E2,5.1E1,1.6E1,1.44E2,5E0,1.97E2,3.1E1],"tree_param":{"num_deleted":"0","num_feature":"44","num_nodes":"111","size_leaf_vector":"1"}},{"base_weights":[1.1954713E-1,2.0476154E1,-2.4391478E1,3.2863922E1,8.943538E0,-1.2679858E1,-4.04069E1,-3.290377E1,3.3965855E1,1.3823652E1,3.1896777E0,-7.8219585E0,-2.0585636E1,-3.218681E1,-4.803527E1,3.5484715E0,-3.6872728E0,4.314807E1,2.675739E1,1.848897E1,1.2168341E1,8.606783E0,1.4340769E0,-5.7338386E0,-1.2362288E1,-2.3626427E1,-1.7318857E1,-3.9637104E1,-2.9284735E1,-4.913486E1,-1.9928968E1,5.280835E1,4.007484E1,2.9281626E1,2.2562252E1,1.2417708E1,2.0156221E1,1.2962878E1,3.886547E0,4.7765226E0,1.3138076E1,6.493105E0,-4.7344452E-1,-9.824519E0,-3.2791371E0,-1.4283476E1,1.1076437E0,-2.4167673E1,-1.6026972E-1,-1.3104687E1,-1.9298689E1,-4.054787E1,-8.783289E-1,1.3195412E-1,-2.9755337E1,-4.3879135E1,-5.3867733E1,1.5643252E0,-4.250759E1,2.6830966E0,1.2463499E0,1.7155222E0,2.1292856E0,1.637294E0,1.2955343E0,1.1659728E0,-8.4481156E-1,7.110788E-1,3.2991207E-1,1.1714576E0,8.4182024E-1,5.1896185E-1,8.4525007E-1,8.174905E-1,-3.9108583E-1,3.750809E-1,2.9695315E-2,1.1598023E0,5.522681E-1,1.6768341E-1,6.037509E-1,5.417597E-2,-3.6037695E-1,5.0707823E-1,-5.1718634E-1,-1.8873826E-1,9.617826E-1,-5.848158E-1,-9.4804096E-1,1.5241908E0,-5.341565E-1,-1.0768806E0,-1.3675526E0,-5.7203764E-1,-1.4879642E0,-1.0716134E0,-8.084349E-1,-1.1630129E0,-2.053459E0,-9.7739595E-1,-1.5422205E0,-2.4130561E0,-1.7530228E0,-2.7563632E0,-1.9380865E0,-1.2253808E0,-2.4523408E0],"categories":[],"categories_nodes":[],"categories_segments":[],"categories_sizes":[],"default_left":[0,0,0,0,0,0,0,0,0,0,0,0,0,0,0,0,0,0,0,0,0,0,0,0,0,0,0,0,0,0,0,0,0,0,0,0,0,0,0,0,0,0,0,0,0,0,0,0,0,0,0,0,0,0,0,0,0,0,0,0,0,0,0,0,0,0,0,0,0,0,0,0,0,0,0,0,0,0,0,0,0,0,0,0,0,0,0,0,0,0,0,0,0,0,0,0,0,0,0,0,0,0,0,0,0,0,0],"id":10,"left_children":[1,3,5,7,9,11,13,15,17,19,21,23,25,27,29,-1,-1,31,33,35,37,39,41,43,45,47,49,51,53,55,57,59,61,63,65,67,69,71,73,75,77,79,81,83,85,87,89,91,-1,93,95,97,-1,-1,99,101,103,-1,105,-1,-1,-1,-1,-1,-1,-1,-1,-1,-1,-1,-1,-1,-1,-1,-1,-1,-1,-1,-1,-1,-1,-1,-1,-1,-1,-1,-1,-1,-1,-1,-1,-1,-1,-1,-1,-1,-1,-1,-1,-1,-1,-1,-1,-1,-1,-1,-1],"loss_changes":[2.5866155E6,4.0429112E5,4.4063875E5,1.0004125E5,4.1174914E4,5.206758E4,6.0712875E4,1.0280816E5,8.773125E4,5.9036562E3,6.4060884E3,7.9290625E3,4.7223906E3,9.2321875E3,1.4868375E4,0E0,0E0,1.5360875E4,7.32925E3,1.8316484E3,3.8236719E3,2.7991992E3,4.9349307E3,5.7904863E3,6.874875E3,2.8487969E3,1.8547188E3,1.9352344E3,5.3394375E3,9.889625E3,2.5614904E4,1.9625625E3,5.05875E3,4.6109062E3,8.999531E3,3.9746533E2,1.3399922E3,5.291172E3,7.862665E3,1.0319558E3,1.319001E3,2.4113296E3,3.9087458E3,2.354459E3,4.132925E3,2.5826016E3,1.2104147E4,1.5661562E3,0E0,1.9832324E3,7.849844E2,1.7382812E2,0E0,0E0,3.22725E3,7.5353438E3,2.705625E3,0E0,5.562129E2,0E0,0E0,0E0,0E0,0E0,0E0,0E0,0E0,0E0,0E0,0E0,0E0,0E0,0E0,0E0,0E0,0E0,0E0,0E0,0E0,0E0,0E0,0E0,0E0,0E0,0E0,0E0,0E0,0E0,0E0,0E0,0E0,0E0,0E0,0E0,0E0,0E0,0E0,0E0,0E0,0E0,0E0,0E0,0E0,0E0,0E0,0E0,0E0],"parents":[2147483647,0,0,1,1,2,2,3,3,4,4,5,5,6,6,7,7,8,8,9,9,10,10,11,11,12,12,13,13,14,14,17,17,18,18,19,19,20,20,21,21,22,22,23,23,24,24,25,25,26,26,27,27,28,28,29,29,30,30,31,31,32,32,33,33,34,34,35,35,36,36,37,37,38,38,39,39,40,40,41,41,42,42,43,43,44,44,45,45,46,46,47,47,49,49,50,50,51,51,54,54,55,55,56,56,58,58],"right_children":[2,4,6,8,10,12,14,16,18,20,22,24,26,28,30,-1,-1,32,34,36,38,40,42,44,46,48,50,52,54,56,58,60,62,64,66,68,70,72,74,76,78,80,82,84,86,88,90,92,-1,94,96,98,-1,-1,100,102,104,-1,106,-1,-1,-1,-1,-1,-1,-1,-1,-1,-1,-1,-1,-1,-1,-1,-1,-1,-1,-1,-1,-1,-1,-1,-1,-1,-1,-1,-1,-1,-1,-1,-1,-1,-1,-1,-1,-1,-1,-1,-1,-1,-1,-1,-1,-1,-1,-1,-1],"split_conditions":[5.634416E1,5.1502064E1,6.0997658E1,3.688874E1,5.4040287E1,5.909106E1,6.2779823E1,8.034804E1,4.8128002E1,5.362424E1,2.8302668E1,5.8255314E1,7.630882E1,6.856373E1,8.386599E1,3.5484715E0,-3.6872728E0,4.471041E1,7.076831E1,5.9519608E1,8.1337555E1,8.1666664E1,7.0002686E1,7.0539215E1,8.1661705E1,8.297549E1,5.9645126E1,9.6480446E1,5.1463696E1,5.7295532E1,8.568137E1,5.579693E1,6.573039E1,4.990626E1,9.673184E1,6.9192924E1,5.28027E1,7.787745E1,4.3388373E-1,6.9405365E1,4.5825966E1,7.957353E1,9.325884E1,4.820766E1,8.386599E1,7.184211E1,6.2794117E1,6.0155678E1,-1.6026972E-1,8.19698E1,2.5881904E-1,4.5222157E1,-8.783289E-1,1.3195412E-1,4.9037056E1,8.67402E1,8.330681E1,1.5643252E0,7.569255E1,2.6830966E0,1.2463499E0,1.7155222E0,2.1292856E0,1.637294E0,1.2955343E0,1.1659728E0,-8.4481156E-1,7.110788E-1,3.2991207E-1,1.1714576E0,8.4182024E-1,5.1896185E-1,8.4525007E-1,8.174905E-1,-3.9108583E-1,3.750809E-1,2.9695315E-2,1.1598023E0,5.522681E-1,1.6768341E-1,6.037509E-1,5.417597E-2,-3.6037695E-1,5.0707823E-1,-5.1718634E-1,-1.8873826E-1,9.617826E-1,-5.848158E-1,-9.4804096E-1,1.5241908E0,-5.341565E-1,-1.0768806E0,-1.3675526E0,-5.7203764E-1,-1.4879642E0,-1.0716134E0,-8.084349E-1,-1.1630129E0,-2.053459E0,-9.7739595E-1,-1.5422205E0,-2.4130561E0,-1.7530228E0,-2.7563632E0,-1.9380865E0,-1.2253808E0,-2.4523408E0],"split_indices":[20,20,20,20,20,20,20,0,20,5,28,20,1,0,11,0,0,20,8,0,4,1,37,0,12,5,20,16,24,24,1,27,1,20,16,15,20,1,42,12,5,1,17,24,11,12,1,20,0,9,41,34,0,0,23,0,10,0,5,0,0,0,0,0,0,0,0,0,0,0,0,0,0,0,0,0,0,0,0,0,0,0,0,0,0,0,0,0,0,0,0,0,0,0,0,0,0,0,0,0,0,0,0,0,0,0,0],"split_type":[0,0,0,0,0,0,0,0,0,0,0,0,0,0,0,0,0,0,0,0,0,0,0,0,0,0,0,0,0,0,0,0,0,0,0,0,0,0,0,0,0,0,0,0,0,0,0,0,0,0,0,0,0,0,0,0,0,0,0,0,0,0,0,0,0,0,0,0,0,0,0,0,0,0,0,0,0,0,0,0,0,0,0,0,0,0,0,0,0,0,0,0,0,0,0,0,0,0,0,0,0,0,0,0,0,0,0],"sum_hessian":[5.182E3,2.831E3,2.351E3,1.364E3,1.467E3,1.359E3,9.92E2,2.2E1,1.342E3,7.93E2,6.74E2,8.43E2,5.16E2,4.8E2,5.12E2,6E0,1.6E1,5.88E2,7.54E2,2.05E2,5.88E2,1.64E2,5.1E2,5.79E2,2.64E2,2.64E2,2.52E2,1.31E2,3.49E2,4.92E2,2E1,1.38E2,4.5E2,4.67E2,2.87E2,4.6E1,1.59E2,5.36E2,5.2E1,9E1,7.4E1,1.39E2,3.71E2,2.16E2,3.63E2,2.31E2,3.3E1,2.57E2,7E0,8.3E1,1.69E2,1.25E2,6E0,5E0,3.44E2,2.38E2,2.54E2,6E0,1.4E1,1.33E2,5E0,1.41E2,3.09E2,2.26E2,2.41E2,2.82E2,5E0,3.4E1,1.2E1,7.7E1,8.2E1,3.26E2,2.1E2,2.5E1,2.7E1,5.4E1,3.6E1,1.1E1,6.3E1,9E1,4.9E1,3.02E2,6.9E1,5E0,2.11E2,3.56E2,7E0,1.51E2,8E1,9E0,2.4E1,1.45E2,1.12E2,7.7E1,6E0,9.7E1,7.2E1,5E0,1.2E2,3.5E1,3.09E2,1.56E2,8.2E1,2.32E2,2.2E1,5E0,9E0],"tree_param":{"num_deleted":"0","num_feature":"44","num_nodes":"107","size_leaf_vector":"1"}},{"base_weights":[-1.9198959E-1,1.6957703E1,-2.6219908E1,2.9767416E1,5.486061E0,-1.6222614E1,-4.0553303E1,-3.2636353E1,3.0732151E1,1.1488306E1,-1.5659316E-1,-1.0218654E1,-2.237949E1,-3.4279335E1,-4.7380253E1,2.470635E0,-6.4507355E1,4.0422806E1,2.3996113E1,1.2725074E1,5.291917E0,6.2732453E0,-1.2179217E0,-1.1520228E1,-2.7359633E-2,-1.9089096E1,-2.560592E1,-3.7465977E1,-2.776183E1,-4.9939575E1,-3.4919487E1,-1.5348934E0,-3.8014073E0,4.468935E1,3.4961346E1,2.5688738E1,1.4770859E1,9.473282E0,1.4981884E1,7.005936E0,-1.139069E0,1.4805805E1,4.1186056E0,1.5118527E0,-4.050749E0,-2.0229408E1,-1.0467779E1,5.983225E0,-1.4627953E1,-1.9495522E1,-6.59285E0,-2.6209415E1,4.1584745E-1,-3.8087044E1,-5.416214E-2,-2.9248966E1,1.13922946E-1,-4.69563E1,-5.5691406E1,-4.1328423E1,-7.8036327E0,2.2712622E0,-1.362801E-1,1.4567856E0,1.9119902E0,1.4758793E0,1.1425631E0,9.318167E-1,-3.0509445E-1,6.0758424E-1,3.5370222E-1,7.7530634E-1,-1.4514844E-1,1.6121693E-1,6.4193714E-1,4.2176604E-1,1.4528824E0,-1.472157E-1,2.9843202E-1,1.0664307E-1,-1.5668577E0,-4.666907E-1,-1.1142355E-1,-1.0963461E0,-2.357558E-1,-4.2653996E-1,-7.0536435E-1,1.3651681E0,-2.799482E-2,-1.4275619E0,-4.2431122E-1,-9.306636E-1,-1.591834E0,4.849719E-1,-1.0901499E0,-1.5627091E0,-1.1285491E0,-2.151214E0,-1.7617773E0,1.9086532E-1,-1.5237702E0,-2.6292682E0,-2.1370203E0,-2.882286E0,-1.9862474E0,-2.2195861E0,-6.327063E-1,1.1348804E0,-1.867096E0],"categories":[],"categories_nodes":[],"categories_segments":[],"categories_sizes":[],"default_left":[0,0,0,0,0,0,0,0,0,0,0,0,0,0,0,0,0,0,0,0,0,0,0,0,0,0,0,0,0,0,0,0,0,0,0,0,0,0,0,0,0,0,0,0,0,0,0,0,0,0,0,0,0,0,0,0,0,0,0,0,0,0,0,0,0,0,0,0,0,0,0,0,0,0,0,0,0,0,0,0,0,0,0,0,0,0,0,0,0,0,0,0,0,0,0,0,0,0,0,0,0,0,0,0,0,0,0,0,0],"id":11,"left_children":[1,3,5,7,9,11,13,15,17,19,21,23,25,27,29,-1,31,33,35,37,39,41,43,45,47,49,51,53,55,57,59,-1,-1,61,63,65,67,69,71,73,-1,75,77,79,81,83,85,87,89,91,93,95,-1,97,-1,99,-1,101,103,105,107,-1,-1,-1,-1,-1,-1,-1,-1,-1,-1,-1,-1,-1,-1,-1,-1,-1,-1,-1,-1,-1,-1,-1,-1,-1,-1,-1,-1,-1,-1,-1,-1,-1,-1,-1,-1,-1,-1,-1,-1,-1,-1,-1,-1,-1,-1,-1,-1],"loss_changes":[2.3184488E6,4.599287E5,2.9495425E5,9.004325E4,5.5987715E4,4.475522E4,3.4646375E4,6.333365E4,9.4131625E4,6.0693203E3,5.8281523E3,8.196129E3,5.8765E3,8.195531E3,1.1099875E4,0E0,4.277133E3,1.2317375E4,1.30765625E4,4.7505156E3,6.6539805E3,2.161664E3,5.6746514E3,4.808133E3,6.319212E3,1.3975781E3,6.3614688E3,6.6432812E3,6.7704297E3,3.0715625E3,1.2185016E4,0E0,0E0,1.16774375E4,3.9594688E3,7.2185625E3,1.1087873E4,1.6857285E3,3.7216719E3,2.780335E3,0E0,1.9301279E3,1.2984072E3,7.6933374E3,3.4438394E3,1.421418E3,3.3387695E3,7.1324736E3,1.5497778E3,2.5707734E3,2.9385767E3,4.703922E3,0E0,2.573E3,0E0,5.9181953E3,0E0,3.0825625E3,1.07025E3,4.527164E3,1.4363353E4,0E0,0E0,0E0,0E0,0E0,0E0,0E0,0E0,0E0,0E0,0E0,0E0,0E0,0E0,0E0,0E0,0E0,0E0,0E0,0E0,0E0,0E0,0E0,0E0,0E0,0E0,0E0,0E0,0E0,0E0,0E0,0E0,0E0,0E0,0E0,0E0,0E0,0E0,0E0,0E0,0E0,0E0,0E0,0E0,0E0,0E0,0E0,0E0],"parents":[2147483647,0,0,1,1,2,2,3,3,4,4,5,5,6,6,7,7,8,8,9,9,10,10,11,11,12,12,13,13,14,14,16,16,17,17,18,18,19,19,20,20,21,21,22,22,23,23,24,24,25,25,26,26,27,27,28,28,29,29,30,30,33,33,34,34,35,35,36,36,37,37,38,38,39,39,41,41,42,42,43,43,44,44,45,45,46,46,47,47,48,48,49,49,50,50,51,51,53,53,55,55,57,57,58,58,59,59,60,60],"right_children":[2,4,6,8,10,12,14,16,18,20,22,24,26,28,30,-1,32,34,36,38,40,42,44,46,48,50,52,54,56,58,60,-1,-1,62,64,66,68,70,72,74,-1,76,78,80,82,84,86,88,90,92,94,96,-1,98,-1,100,-1,102,104,106,108,-1,-1,-1,-1,-1,-1,-1,-1,-1,-1,-1,-1,-1,-1,-1,-1,-1,-1,-1,-1,-1,-1,-1,-1,-1,-1,-1,-1,-1,-1,-1,-1,-1,-1,-1,-1,-1,-1,-1,-1,-1,-1,-1,-1,-1,-1,-1,-1],"split_conditions":[5.7343727E1,5.1952908E1,6.1573486E1,3.688874E1,5.456534E1,5.940855E1,5.656643E1,8.034804E1,4.8128002E1,8.0483284E1,4.783227E1,7.947142E1,6.0536213E1,8.735294E1,7.752443E1,2.470635E0,9.749279E-1,4.6450172E1,7.733784E1,6.722059E1,5.6486137E1,4.8077E1,5.5992077E1,5.267157E1,8.016553E1,8.343227E1,8.4195755E1,8.473343E1,8.611393E1,5.7959305E1,6.929951E1,-1.5348934E0,-3.8014073E0,9.398039E1,6.427941E1,4.990626E1,8.91232E1,5.3126884E1,8.212752E1,5.921549E1,-1.139069E0,5.6240376E1,5.7544117E1,8.424953E1,6.432843E1,7.505223E1,5.8710663E1,6.157353E1,7.77402E1,8.235334E1,6.3147892E1,7.239706E1,4.1584745E-1,6.659804E1,-5.416214E-2,5.348095E1,1.13922946E-1,6.055392E1,8.783577E1,9.749279E-1,8.190528E1,2.2712622E0,-1.362801E-1,1.4567856E0,1.9119902E0,1.4758793E0,1.1425631E0,9.318167E-1,-3.0509445E-1,6.0758424E-1,3.5370222E-1,7.7530634E-1,-1.4514844E-1,1.6121693E-1,6.4193714E-1,4.2176604E-1,1.4528824E0,-1.472157E-1,2.9843202E-1,1.0664307E-1,-1.5668577E0,-4.666907E-1,-1.1142355E-1,-1.0963461E0,-2.357558E-1,-4.2653996E-1,-7.0536435E-1,1.3651681E0,-2.799482E-2,-1.4275619E0,-4.2431122E-1,-9.306636E-1,-1.591834E0,4.849719E-1,-1.0901499E0,-1.5627091E0,-1.1285491E0,-2.151214E0,-1.7617773E0,1.9086532E-1,-1.5237702E0,-2.6292682E0,-2.1370203E0,-2.882286E0,-1.9862474E0,-2.2195861E0,-6.327063E-1,1.1348804E0,-1.867096E0],"split_indices":[20,20,20,20,20,20,24,0,20,14,5,11,20,0,8,0,42,20,8,0,25,24,20,0,14,8,8,8,15,24,32,0,0,1,0,20,1,20,8,23,0,20,0,11,3,5,20,3,1,9,34,0,0,0,0,24,0,2,37,42,8,0,0,0,0,0,0,0,0,0,0,0,0,0,0,0,0,0,0,0,0,0,0,0,0,0,0,0,0,0,0,0,0,0,0,0,0,0,0,0,0,0,0,0,0,0,0,0,0],"split_type":[0,0,0,0,0,0,0,0,0,0,0,0,0,0,0,0,0,0,0,0,0,0,0,0,0,0,0,0,0,0,0,0,0,0,0,0,0,0,0,0,0,0,0,0,0,0,0,0,0,0,0,0,0,0,0,0,0,0,0,0,0,0,0,0,0,0,0,0,0,0,0,0,0,0,0,0,0,0,0,0,0,0,0,0,0,0,0,0,0,0,0,0,0,0,0,0,0,0,0,0,0,0,0,0,0,0,0,0,0],"sum_hessian":[5.192E3,3.13E3,2.062E3,1.478E3,1.652E3,1.216E3,8.46E2,2.2E1,1.456E3,8E2,8.52E2,6.17E2,5.99E2,4.44E2,4.02E2,6E0,1.6E1,5.95E2,8.61E2,6.66E2,1.34E2,1.2E2,7.32E2,5.47E2,7E1,3E2,2.99E2,2.95E2,1.49E2,3.31E2,7.1E1,5E0,1.1E1,3.3E2,2.65E2,7.26E2,1.35E2,2.75E2,3.91E2,1.27E2,7E0,2.3E1,9.7E1,3.73E2,3.59E2,5.7E1,4.9E2,5E1,2E1,2.9E2,1E1,2.94E2,5E0,2.9E2,5E0,1.42E2,7E0,2.24E2,1.07E2,5.7E1,1.4E1,3.25E2,5E0,9.9E1,1.66E2,3.05E2,4.21E2,1.14E2,2.1E1,1.28E2,1.47E2,3.8E2,1.1E1,7.8E1,4.9E1,1.7E1,6E0,2E1,7.7E1,3.67E2,6E0,9.1E1,2.68E2,5.1E1,6E0,3.22E2,1.68E2,1.1E1,3.9E1,5E0,1.5E1,2.73E2,1.7E1,5E0,5E0,1.2E2,1.74E2,1.01E2,1.89E2,5E0,1.37E2,9.1E1,1.33E2,9.3E1,1.4E1,5.1E1,6E0,7E0,7E0],"tree_param":{"num_deleted":"0","num_feature":"44","num_nodes":"109","size_leaf_vector":"1"}},{"base_weights":[-1.7794193E-1,1.8050467E1,-2.268576E1,3.0645428E1,8.545645E0,-1.2627252E1,-3.7281998E1,-4.494794E1,3.1790157E1,1.348645E1,2.4463184E0,-7.8621736E0,-2.0472197E1,-3.2722298E1,-4.755384E1,-3.7204106E0,-1.9678095E-1,3.840628E1,2.5611444E1,1.3962023E1,-6.4043612E0,-7.3379034E-1,5.8142495E0,-5.357237E0,-1.1982078E1,-2.4541195E1,-1.7809528E1,-4.1381947E1,-2.9856535E1,-4.9936092E1,-3.4071106E1,3.8921074E1,3.902642E-2,5.5996895E0,2.6183237E1,1.837458E1,1.2117498E1,-1.4437507E0,6.0002785E0,8.498401E-1,-5.332779E0,7.674649E0,-4.640229E0,-5.801774E0,1.248638E0,-1.2749986E1,7.5389376E0,-2.5851486E1,-1.1123419E1,-1.8102085E1,-1.042967E-1,-3.5429768E1,-2.363055E0,-3.0877338E1,-1.3281788E1,-1.5499262E0,-2.5180316E0,-1.1132586E1,-4.5548E1,2.373733E0,1.7758334E0,6.768612E-1,-4.9635586E-1,1.5416441E0,1.2178982E0,9.849022E-1,1.15325905E-1,8.5896295E-1,5.4790765E-1,8.666814E-1,-6.9360083E-1,9.789568E-2,-3.6924973E-1,-4.281496E-1,-8.9374766E-2,5.096981E-1,2.1152876E-1,-1.1021427E0,2.5770065E-1,-6.317908E-1,-2.1658508E-1,-8.5054797E-1,-5.402015E-1,-3.6753058E-1,1.0682892E0,-1.0954148E0,-1.4950919E0,7.963915E-1,-1.0604513E0,-7.8451043E-1,-1.008592E0,-1.837583E0,-5.94144E-1,-1.3070294E0,-1.7580416E0,3.1035325E-1,-1.7245184E0,7.804789E-1,-1.5711529E0,-2.4459903E0,-1.4863292E0],"categories":[],"categories_nodes":[],"categories_segments":[],"categories_sizes":[],"default_left":[0,0,0,0,0,0,0,0,0,0,0,0,0,0,0,0,0,0,0,0,0,0,0,0,0,0,0,0,0,0,0,0,0,0,0,0,0,0,0,0,0,0,0,0,0,0,0,0,0,0,0,0,0,0,0,0,0,0,0,0,0,0,0,0,0,0,0,0,0,0,0,0,0,0,0,0,0,0,0,0,0,0,0,0,0,0,0,0,0,0,0,0,0,0,0,0,0,0,0,0,0],"id":12,"left_children":[1,3,5,7,9,11,13,15,17,19,21,23,25,27,29,-1,-1,31,33,35,37,39,41,43,45,47,49,51,53,55,57,59,-1,61,63,65,67,-1,69,71,73,75,77,79,-1,81,83,85,87,89,-1,91,-1,93,95,-1,-1,97,99,-1,-1,-1,-1,-1,-1,-1,-1,-1,-1,-1,-1,-1,-1,-1,-1,-1,-1,-1,-1,-1,-1,-1,-1,-1,-1,-1,-1,-1,-1,-1,-1,-1,-1,-1,-1,-1,-1,-1,-1,-1,-1],"loss_changes":[2.1519272E6,3.4666206E5,3.4410225E5,1.09249E5,4.977954E4,5.183425E4,4.3258375E4,2.2655766E4,4.92095E4,8.726719E3,7.941172E3,8.881602E3,5.24675E3,1.5285125E4,7.669125E3,0E0,0E0,1.14130625E4,7.1505938E3,7.0343594E3,6.307834E3,2.7871238E3,7.0377354E3,7.437166E3,4.9984883E3,3.3128906E3,1.4368438E3,4.02125E3,8.1129062E3,4.085E2,1.1860629E4,1.52824375E4,0E0,2.4763936E3,4.5052812E3,5.5026484E3,3.517711E3,0E0,3.6190933E3,2.6144854E3,1.1059568E3,2.610502E3,9.489802E3,5.308418E3,0E0,2.4253086E3,2.8348342E3,2.3103828E3,5.7949067E3,1.2523906E3,0E0,2.2041719E3,0E0,8.692156E3,1.3030172E4,0E0,0E0,9.716472E3,1.9166406E2,0E0,0E0,0E0,0E0,0E0,0E0,0E0,0E0,0E0,0E0,0E0,0E0,0E0,0E0,0E0,0E0,0E0,0E0,0E0,0E0,0E0,0E0,0E0,0E0,0E0,0E0,0E0,0E0,0E0,0E0,0E0,0E0,0E0,0E0,0E0,0E0,0E0,0E0,0E0,0E0,0E0,0E0],"parents":[2147483647,0,0,1,1,2,2,3,3,4,4,5,5,6,6,7,7,8,8,9,9,10,10,11,11,12,12,13,13,14,14,17,17,18,18,19,19,20,20,21,21,22,22,23,23,24,24,25,25,26,26,27,27,28,28,29,29,30,30,31,31,33,33,34,34,35,35,36,36,38,38,39,39,40,40,41,41,42,42,43,43,45,45,46,46,47,47,48,48,49,49,51,51,53,53,54,54,57,57,58,58],"right_children":[2,4,6,8,10,12,14,16,18,20,22,24,26,28,30,-1,-1,32,34,36,38,40,42,44,46,48,50,52,54,56,58,60,-1,62,64,66,68,-1,70,72,74,76,78,80,-1,82,84,86,88,90,-1,92,-1,94,96,-1,-1,98,100,-1,-1,-1,-1,-1,-1,-1,-1,-1,-1,-1,-1,-1,-1,-1,-1,-1,-1,-1,-1,-1,-1,-1,-1,-1,-1,-1,-1,-1,-1,-1,-1,-1,-1,-1,-1,-1,-1,-1,-1,-1,-1],"split_conditions":[5.663598E1,5.1036156E1,6.1274967E1,3.688874E1,5.4040287E1,5.940855E1,5.7170856E1,6.234898E-1,4.8128002E1,8.383014E1,7.484804E1,5.8322174E1,7.239706E1,6.747059E1,8.043607E1,-3.7204106E0,-1.9678095E-1,9.659258E-1,4.129902E1,5.203772E1,2.7688171E1,5.5992077E1,9.672719E1,5.1956913E1,8.55111E1,8.513343E1,8.473343E1,6.2363575E1,8.313475E1,4.4070156E1,4.067643E1,3.8169407E1,3.902642E-2,3.7965687E1,2.338161E1,8.175526E1,4.931562E1,-1.4437507E0,7.820969E1,9.0600555E1,5.4409664E1,5.546535E1,7.322935E1,5.8485294E1,1.248638E0,6.747059E1,7.57851E1,6.035822E1,5.89951E1,6.0256668E1,-1.042967E-1,9.584926E1,-2.363055E0,6.243053E1,7.956148E1,-1.5499262E0,-2.5180316E0,5.6815582E1,9.110294E1,2.373733E0,1.7758334E0,6.768612E-1,-4.9635586E-1,1.5416441E0,1.2178982E0,9.849022E-1,1.15325905E-1,8.5896295E-1,5.4790765E-1,8.666814E-1,-6.9360083E-1,9.789568E-2,-3.6924973E-1,-4.281496E-1,-8.9374766E-2,5.096981E-1,2.1152876E-1,-1.1021427E0,2.5770065E-1,-6.317908E-1,-2.1658508E-1,-8.5054797E-1,-5.402015E-1,-3.6753058E-1,1.0682892E0,-1.0954148E0,-1.4950919E0,7.963915E-1,-1.0604513E0,-7.8451043E-1,-1.008592E0,-1.837583E0,-5.94144E-1,-1.3070294E0,-1.7580416E0,3.1035325E-1,-1.7245184E0,7.804789E-1,-1.5711529E0,-2.4459903E0,-1.4863292E0],"split_indices":[20,20,20,20,20,20,24,43,20,8,1,20,0,0,13,0,0,40,3,20,28,20,18,24,12,13,8,20,10,12,28,24,0,3,28,4,5,0,10,16,21,20,12,0,0,0,37,20,0,20,0,16,0,20,5,0,0,33,1,0,0,0,0,0,0,0,0,0,0,0,0,0,0,0,0,0,0,0,0,0,0,0,0,0,0,0,0,0,0,0,0,0,0,0,0,0,0,0,0,0,0],"split_type":[0,0,0,0,0,0,0,0,0,0,0,0,0,0,0,0,0,0,0,0,0,0,0,0,0,0,0,0,0,0,0,0,0,0,0,0,0,0,0,0,0,0,0,0,0,0,0,0,0,0,0,0,0,0,0,0,0,0,0,0,0,0,0,0,0,0,0,0,0,0,0,0,0,0,0,0,0,0,0,0,0,0,0,0,0,0,0,0,0,0,0,0,0,0,0,0,0,0,0,0,0],"sum_hessian":[5.243E3,2.897E3,2.346E3,1.245E3,1.652E3,1.39E3,9.56E2,1.8E1,1.227E3,9.12E2,7.4E2,8.66E2,5.24E2,6.65E2,2.91E2,1E1,8E0,5.9E2,6.37E2,8.91E2,2.1E1,3.81E2,3.59E2,5.4E2,3.26E2,2.04E2,3.2E2,1.62E2,5.03E2,2.45E2,4.6E1,5.82E2,8E0,1.8E1,6.19E2,2.6E2,6.31E2,7E0,1.4E1,2.84E2,9.7E1,3.05E2,5.4E1,5.33E2,7E0,3.14E2,1.2E1,1.85E2,1.9E1,3.14E2,6E0,8.4E1,7.8E1,4.73E2,3E1,7E0,2.38E2,1.6E1,3E1,1.62E2,4.2E2,1.2E1,6E0,1.7E2,4.49E2,2.4E2,2E1,1.15E2,5.16E2,9E0,5E0,2.51E2,3.3E1,5E1,4.7E1,1.75E2,1.3E2,1.9E1,3.5E1,9.3E1,4.4E2,9.6E1,2.18E2,6E0,6E0,9.7E1,8.8E1,5E0,1.4E1,1.49E2,1.65E2,7.9E1,5E0,2.28E2,2.45E2,1.6E1,1.4E1,7E0,9E0,2.3E1,7E0],"tree_param":{"num_deleted":"0","num_feature":"44","num_nodes":"101","size_leaf_vector":"1"}},{"base_weights":[1.3547783E-1,1.6600597E1,-2.2174738E1,2.7795504E1,6.6399155E0,-1.1242085E1,-3.387849E1,-2.5770582E1,2.8461573E1,1.0154287E1,6.6478544E-1,-8.242838E0,-1.7409384E1,-2.731693E1,-4.1119637E1,1.5202631E0,-3.2146027E0,3.7225986E1,2.3702911E1,1.6101631E1,8.876722E0,9.399667E0,-8.1215876E-1,-5.4954443E0,-1.0701844E1,-1.7760422E1,3.619903E-1,-2.9213934E1,-1.7803507E1,-4.4702934E1,-3.2385273E1,3.7849937E1,6.435664E0,2.7858482E1,2.0429062E1,1.2717359E1,1.8145126E1,1.1547803E1,6.8147798E0,1.1456968E0,7.718538E0,3.999611E0,-2.5250976E0,1.5952917E0,-7.214331E0,-1.2469905E1,-4.5400667E0,-2.0250637E1,-1.4296479E1,-3.3347794E1,-2.6904192E1,-2.1364702E1,9.193685E0,-4.2852036E1,-2.620695E0,-2.4239712E1,-4.3205112E1,2.2306857E0,1.7083485E0,1.6551297E0,-1.0643604E0,1.6074103E0,1.2290257E0,1.0974845E0,6.065253E-1,8.5020065E-1,4.8978034E-1,1.0062962E0,5.379924E-1,6.089284E-1,-1.389275E0,4.768706E-1,1.4317994E-1,1.204611E-1,4.524106E-1,1.3223945E-1,1.1255805E0,-1.7291063E-1,2.3896085E-1,-2.669816E-1,2.3467436E-1,-3.8074917E-1,6.7682785E-1,-5.6197894E-1,-1.2925643E0,-3.6782286E-1,5.294463E-1,-1.1409621E0,-8.5466164E-1,-7.5264126E-1,-3.5365633E-4,-1.0451746E0,-1.7181237E0,-1.197964E0,-1.4982953E0,1.4104383E-2,-1.2440078E0,-7.851462E-1,1.8362057E0,-2.3138955E0,-1.8876814E0,5.98113E-1,-1.3269094E0,-2.2562683E0,-1.0554007E0],"categories":[],"categories_nodes":[],"categories_segments":[],"categories_sizes":[],"default_left":[0,0,0,0,0,0,0,0,0,0,0,0,0,0,0,0,0,0,0,0,0,0,0,0,0,0,0,0,0,0,0,0,0,0,0,0,0,0,0,0,0,0,0,0,0,0,0,0,0,0,0,0,0,0,0,0,0,0,0,0,0,0,0,0,0,0,0,0,0,0,0,0,0,0,0,0,0,0,0,0,0,0,0,0,0,0,0,0,0,0,0,0,0,0,0,0,0,0,0,0,0,0,0,0,0],"id":13,"left_children":[1,3,5,7,9,11,13,15,17,19,21,23,25,27,29,-1,-1,31,33,35,37,39,41,43,45,47,-1,49,51,53,55,57,59,61,63,65,67,69,71,-1,73,75,77,79,81,83,85,87,89,91,93,95,97,99,-1,101,103,-1,-1,-1,-1,-1,-1,-1,-1,-1,-1,-1,-1,-1,-1,-1,-1,-1,-1,-1,-1,-1,-1,-1,-1,-1,-1,-1,-1,-1,-1,-1,-1,-1,-1,-1,-1,-1,-1,-1,-1,-1,-1,-1,-1,-1,-1,-1,-1],"loss_changes":[1.9300065E6,3.3690338E5,2.85078E5,5.1504625E4,3.3611297E4,2.1218281E4,5.0041625E4,4.0909773E4,5.7751375E4,7.5134766E3,7.6716465E3,5.202379E3,3.3917266E3,9.725906E3,1.45065E4,0E0,0E0,9.223375E3,1.186075E4,9.902422E2,4.5018047E3,1.7739282E3,4.2052656E3,4.5216953E3,4.4083867E3,2.9158906E3,0E0,3.6034688E3,9.5234375E3,2.868125E3,1.2342281E4,1.0499625E4,8.837965E3,4.82875E3,6.229125E3,7.0747363E2,1.3602578E3,9.293246E3,5.049043E3,0E0,5.27709E2,3.2987285E3,2.5791233E3,1.5934565E3,2.5800254E3,4.9411133E3,4.0402246E3,1.3415234E3,1.7168164E3,1.359625E3,2.0537344E3,6.5539297E3,8.803749E3,3.3970625E3,0E0,7.724547E3,1.7565234E3,0E0,0E0,0E0,0E0,0E0,0E0,0E0,0E0,0E0,0E0,0E0,0E0,0E0,0E0,0E0,0E0,0E0,0E0,0E0,0E0,0E0,0E0,0E0,0E0,0E0,0E0,0E0,0E0,0E0,0E0,0E0,0E0,0E0,0E0,0E0,0E0,0E0,0E0,0E0,0E0,0E0,0E0,0E0,0E0,0E0,0E0,0E0,0E0],"parents":[2147483647,0,0,1,1,2,2,3,3,4,4,5,5,6,6,7,7,8,8,9,9,10,10,11,11,12,12,13,13,14,14,17,17,18,18,19,19,20,20,21,21,22,22,23,23,24,24,25,25,27,27,28,28,29,29,30,30,31,31,32,32,33,33,34,34,35,35,36,36,37,37,38,38,40,40,41,41,42,42,43,43,44,44,45,45,46,46,47,47,48,48,49,49,50,50,51,51,52,52,53,53,55,55,56,56],"right_children":[2,4,6,8,10,12,14,16,18,20,22,24,26,28,30,-1,-1,32,34,36,38,40,42,44,46,48,-1,50,52,54,56,58,60,62,64,66,68,70,72,-1,74,76,78,80,82,84,86,88,90,92,94,96,98,100,-1,102,104,-1,-1,-1,-1,-1,-1,-1,-1,-1,-1,-1,-1,-1,-1,-1,-1,-1,-1,-1,-1,-1,-1,-1,-1,-1,-1,-1,-1,-1,-1,-1,-1,-1,-1,-1,-1,-1,-1,-1,-1,-1,-1,-1,-1,-1,-1,-1,-1],"split_conditions":[4.9855377E1,4.4614002E1,5.3825554E1,3.0563536E1,4.7772293E1,5.239278E1,5.6134052E1,8.722059E1,4.0716637E1,4.952612E1,4.7444164E1,5.1021343E1,8.4231606E1,7.820969E1,7.373004E1,1.5202631E0,-3.2146027E0,9.659258E-1,4.2649612E1,5.510994E1,4.603631E1,2.6226135E1,6.91573E1,5.0433887E1,7.965348E1,5.238929E1,3.619903E-1,6.630882E1,8.3179405E1,5.8179234E1,4.067643E1,3.8169407E1,7.453601E1,5.5458168E1,7.752443E1,4.5629364E1,6.793137E1,9.768622E1,7.4907265E1,1.1456968E0,5.08817E1,9.429702E1,8.2545975E1,6.807843E1,7.995984E1,8.1095184E1,8.235334E1,6.530158E1,8.333583E1,6.587561E1,5.504588E1,4.7095867E1,5.1489628E1,7.536275E1,-2.620695E0,4.7096992E1,9.586592E1,2.2306857E0,1.7083485E0,1.6551297E0,-1.0643604E0,1.6074103E0,1.2290257E0,1.0974845E0,6.065253E-1,8.5020065E-1,4.8978034E-1,1.0062962E0,5.379924E-1,6.089284E-1,-1.389275E0,4.768706E-1,1.4317994E-1,1.204611E-1,4.524106E-1,1.3223945E-1,1.1255805E0,-1.7291063E-1,2.3896085E-1,-2.669816E-1,2.3467436E-1,-3.8074917E-1,6.7682785E-1,-5.6197894E-1,-1.2925643E0,-3.6782286E-1,5.294463E-1,-1.1409621E0,-8.5466164E-1,-7.5264126E-1,-3.5365633E-4,-1.0451746E0,-1.7181237E0,-1.197964E0,-1.4982953E0,1.4104383E-2,-1.2440078E0,-7.851462E-1,1.8362057E0,-2.3138955E0,-1.8876814E0,5.98113E-1,-1.3269094E0,-2.2562683E0,-1.0554007E0],"split_indices":[24,24,24,24,24,24,24,1,24,5,5,24,9,10,7,0,0,40,24,13,24,28,37,5,13,25,0,1,4,24,28,24,37,5,8,24,4,17,38,0,4,18,13,1,34,9,9,16,13,36,24,34,27,1,0,35,19,0,0,0,0,0,0,0,0,0,0,0,0,0,0,0,0,0,0,0,0,0,0,0,0,0,0,0,0,0,0,0,0,0,0,0,0,0,0,0,0,0,0,0,0,0,0,0,0],"split_type":[0,0,0,0,0,0,0,0,0,0,0,0,0,0,0,0,0,0,0,0,0,0,0,0,0,0,0,0,0,0,0,0,0,0,0,0,0,0,0,0,0,0,0,0,0,0,0,0,0,0,0,0,0,0,0,0,0,0,0,0,0,0,0,0,0,0,0,0,0,0,0,0,0,0,0,0,0,0,0,0,0,0,0,0,0,0,0,0,0,0,0,0,0,0,0,0,0,0,0,0,0,0,0,0,0],"sum_hessian":[5.252E3,3.022E3,2.23E3,1.422E3,1.6E3,1.154E3,1.076E3,1.7E1,1.405E3,1.007E3,5.93E2,7.78E2,3.76E2,5.67E2,5.09E2,7E0,1E1,4.92E2,9.13E2,1.76E2,8.31E2,8.5E1,5.08E2,3.69E2,4.09E2,3.71E2,5E0,4.71E2,9.6E1,3.58E2,1.51E2,4.82E2,1E1,3.99E2,5.14E2,6.9E1,1.07E2,3.6E2,4.71E2,8E0,7.7E1,1.33E2,3.75E2,7.2E1,2.97E2,3.17E2,9.2E1,2.13E2,1.58E2,1.64E2,3.07E2,8.5E1,1.1E1,2.94E2,6.4E1,8.8E1,6.3E1,1.66E2,3.16E2,5E0,5E0,1.69E2,2.3E2,4.33E2,8.1E1,2.6E1,4.3E1,8.3E1,2.4E1,3.55E2,5E0,2.78E2,1.93E2,1.6E1,6.1E1,1.25E2,8E0,3.33E2,4.2E1,2.2E1,5E1,2.92E2,5E0,2.92E2,2.5E1,7.8E1,1.4E1,1.14E2,9.9E1,1.5E2,8E0,1.4E1,1.5E2,1.61E2,1.46E2,1.2E1,7.3E1,6E0,5E0,1.71E2,1.23E2,5E0,8.3E1,5.7E1,6E0],"tree_param":{"num_deleted":"0","num_feature":"44","num_nodes":"105","size_leaf_vector":"1"}},{"base_weights":[-2.749626E-2,1.6783522E1,-1.9871746E1,2.8122301E1,8.302026E0,-1.0126965E1,-3.281123E1,-2.479054E1,2.9067442E1,1.267926E1,3.5115573E0,-6.0517216E0,-1.6775358E1,-2.6264996E1,-3.9207207E1,2.4122818E0,-5.520071E1,3.5607605E1,2.3696619E1,1.6941336E1,1.0819068E1,7.695654E0,1.9038669E0,-3.4417553E0,-8.861656E0,-1.9351358E1,-1.4095223E1,-2.6833595E1,2.3208845E0,-4.236784E1,-3.1684566E1,-1.3514993E0,-3.276961E0,3.6036263E1,1.2924522E-1,1.9137207E1,2.5994862E1,1.736236E1,-1.8093567E-1,9.260106E0,1.5996595E1,4.3503866E0,1.0792107E1,2.7569137E0,-5.348661E0,-3.3736643E-1,-6.2911196E0,-1.06118555E1,-4.7900777E0,-2.10164E1,-1.4115619E1,-9.960212E0,-1.5966828E1,-3.326805E1,-2.4336784E1,-9.932028E-1,1.2067839E0,-3.7007866E1,-4.560002E1,-2.5962492E1,-3.9558605E1,2.0820894E0,1.6230763E0,1.1120467E0,5.376158E-1,1.4736565E0,1.151446E0,7.167534E-1,9.851355E-1,5.168618E-1,-3.2958996E-1,1.0705892E0,6.850374E-1,3.242906E-1,-3.9367076E-2,8.719754E-1,4.7089726E-1,2.1807824E-1,-4.1233245E-2,-1.00872E-1,-1.5134137E0,8.217322E-1,-7.0513345E-2,-3.437035E-1,4.4852754E-1,-6.602132E-1,-3.3546206E-1,6.616677E-2,-5.769277E-1,-1.3914326E0,-9.746956E-1,1.7516325E-1,-9.856882E-1,-4.2267236E-1,-1.4061283E0,-1.1886672E0,-7.26761E-1,-1.6976725E0,-7.739323E-1,-6.318992E-1,-1.2503072E0,-2.2368739E0,-1.704387E0,-2.06019E0,-2.4230556E0,-1.5838832E0,-1.4708607E-1,-2.0625126E0,-9.8174614E-1],"categories":[],"categories_nodes":[],"categories_segments":[],"categories_sizes":[],"default_left":[0,0,0,0,0,0,0,0,0,0,0,0,0,0,0,0,0,0,0,0,0,0,0,0,0,0,0,0,0,0,0,0,0,0,0,0,0,0,0,0,0,0,0,0,0,0,0,0,0,0,0,0,0,0,0,0,0,0,0,0,0,0,0,0,0,0,0,0,0,0,0,0,0,0,0,0,0,0,0,0,0,0,0,0,0,0,0,0,0,0,0,0,0,0,0,0,0,0,0,0,0,0,0,0,0,0,0,0,0],"id":14,"left_children":[1,3,5,7,9,11,13,15,17,19,21,23,25,27,29,-1,31,33,35,37,39,41,43,45,47,49,51,53,55,57,59,-1,-1,61,-1,63,65,67,-1,69,71,73,75,77,79,81,83,85,87,89,91,93,95,97,99,-1,-1,101,103,105,107,-1,-1,-1,-1,-1,-1,-1,-1,-1,-1,-1,-1,-1,-1,-1,-1,-1,-1,-1,-1,-1,-1,-1,-1,-1,-1,-1,-1,-1,-1,-1,-1,-1,-1,-1,-1,-1,-1,-1,-1,-1,-1,-1,-1,-1,-1,-1,-1],"loss_changes":[1.7617528E6,2.747123E5,3.0505938E5,6.1883438E4,3.4280117E4,3.7366938E4,4.2508E4,5.152682E4,4.1371875E4,6.592625E3,5.251421E3,6.268033E3,3.3485156E3,8.468E3,1.1109E4,0E0,2.8791094E3,7.5469375E3,6.4453438E3,2.2975156E3,4.6761406E3,2.1993223E3,3.5223718E3,3.9511685E3,2.8906953E3,2.0100234E3,1.8582812E3,7.329875E3,5.8034185E3,4.644875E3,6.1302812E3,0E0,0E0,9.32125E3,0E0,5.6390703E3,3.8345625E3,1.5066406E3,0E0,7.956961E3,1.4063789E3,1.1686274E3,8.561455E2,2.9235195E3,4.916471E3,3.890535E3,2.1344102E3,2.823162E3,5.2145757E3,1.5167266E3,6.6790986E3,2.0573857E3,1.6399219E3,1.1643125E3,2.5697344E3,0E0,0E0,1.6948281E3,8.1171875E2,1.2402273E4,1.3747109E3,0E0,0E0,0E0,0E0,0E0,0E0,0E0,0E0,0E0,0E0,0E0,0E0,0E0,0E0,0E0,0E0,0E0,0E0,0E0,0E0,0E0,0E0,0E0,0E0,0E0,0E0,0E0,0E0,0E0,0E0,0E0,0E0,0E0,0E0,0E0,0E0,0E0,0E0,0E0,0E0,0E0,0E0,0E0,0E0,0E0,0E0,0E0,0E0],"parents":[2147483647,0,0,1,1,2,2,3,3,4,4,5,5,6,6,7,7,8,8,9,9,10,10,11,11,12,12,13,13,14,14,16,16,17,17,18,18,19,19,20,20,21,21,22,22,23,23,24,24,25,25,26,26,27,27,28,28,29,29,30,30,33,33,35,35,36,36,37,37,39,39,40,40,41,41,42,42,43,43,44,44,45,45,46,46,47,47,48,48,49,49,50,50,51,51,52,52,53,53,54,54,57,57,58,58,59,59,60,60],"right_children":[2,4,6,8,10,12,14,16,18,20,22,24,26,28,30,-1,32,34,36,38,40,42,44,46,48,50,52,54,56,58,60,-1,-1,62,-1,64,66,68,-1,70,72,74,76,78,80,82,84,86,88,90,92,94,96,98,100,-1,-1,102,104,106,108,-1,-1,-1,-1,-1,-1,-1,-1,-1,-1,-1,-1,-1,-1,-1,-1,-1,-1,-1,-1,-1,-1,-1,-1,-1,-1,-1,-1,-1,-1,-1,-1,-1,-1,-1,-1,-1,-1,-1,-1,-1,-1,-1,-1,-1,-1,-1,-1],"split_conditions":[5.634416E1,5.0915634E1,6.0997658E1,3.688874E1,5.37719E1,5.909106E1,6.283897E1,8.034804E1,4.7754715E1,2.6096664E1,2.8302668E1,5.7770336E1,7.630882E1,8.386599E1,7.319064E1,2.4122818E0,4.8878025E1,9.30098E1,6.69902E1,8.730223E1,5.057897E1,8.110784E1,8.357914E1,6.452825E1,7.3641235E1,7.418481E1,5.9645126E1,6.934804E1,8.284195E1,6.367593E1,4.067643E1,-1.3514993E0,-3.276961E0,3.8562737E1,1.2924522E-1,7.447336E1,4.9410778E1,7.4632355E1,-1.8093567E-1,8.831373E1,5.2235798E1,5.5295166E1,4.5985435E1,5.569412E1,5.702673E1,4.7877518E1,9.042825E1,7.957353E1,6.433015E1,5.4014706E1,5.89951E1,8.2978775E1,4.8669914E1,8.212692E1,4.1256233E1,-9.932028E-1,1.2067839E0,5.9034313E1,3.9156242E1,9.0331985E1,8.424953E1,2.0820894E0,1.6230763E0,1.1120467E0,5.376158E-1,1.4736565E0,1.151446E0,7.167534E-1,9.851355E-1,5.168618E-1,-3.2958996E-1,1.0705892E0,6.850374E-1,3.242906E-1,-3.9367076E-2,8.719754E-1,4.7089726E-1,2.1807824E-1,-4.1233245E-2,-1.00872E-1,-1.5134137E0,8.217322E-1,-7.0513345E-2,-3.437035E-1,4.4852754E-1,-6.602132E-1,-3.3546206E-1,6.616677E-2,-5.769277E-1,-1.3914326E0,-9.746956E-1,1.7516325E-1,-9.856882E-1,-4.2267236E-1,-1.4061283E0,-1.1886672E0,-7.26761E-1,-1.6976725E0,-7.739323E-1,-6.318992E-1,-1.2503072E0,-2.2368739E0,-1.704387E0,-2.06019E0,-2.4230556E0,-1.5838832E0,-1.4708607E-1,-2.0625126E0,-9.8174614E-1],"split_indices":[20,20,20,20,20,20,20,0,20,28,28,20,1,11,6,0,16,0,1,36,25,2,14,15,4,4,20,0,15,20,28,0,0,24,0,6,20,1,0,0,20,20,24,20,25,24,39,1,33,0,0,6,32,4,27,0,0,1,28,38,11,0,0,0,0,0,0,0,0,0,0,0,0,0,0,0,0,0,0,0,0,0,0,0,0,0,0,0,0,0,0,0,0,0,0,0,0,0,0,0,0,0,0,0,0,0,0,0,0],"split_type":[0,0,0,0,0,0,0,0,0,0,0,0,0,0,0,0,0,0,0,0,0,0,0,0,0,0,0,0,0,0,0,0,0,0,0,0,0,0,0,0,0,0,0,0,0,0,0,0,0,0,0,0,0,0,0,0,0,0,0,0,0,0,0,0,0,0,0,0,0,0,0,0,0,0,0,0,0,0,0,0,0,0,0,0,0,0,0,0,0,0,0,0,0,0,0,0,0,0,0,0,0,0,0,0,0,0,0,0,0],"sum_hessian":[5.279E3,2.858E3,2.421E3,1.222E3,1.636E3,1.382E3,1.039E3,2.1E1,1.201E3,8.54E2,7.82E2,8.58E2,5.24E2,5.16E2,5.23E2,6E0,1.5E1,5.39E2,6.62E2,2.57E2,5.97E2,2.16E2,5.66E2,4.46E2,4.12E2,2.64E2,2.6E2,5.06E2,1E1,3.65E2,1.58E2,5E0,1E1,5.32E2,7E0,2.25E2,4.37E2,2.52E2,5E0,4.61E2,1.36E2,1.05E2,1.11E2,5.07E2,5.9E1,2.14E2,2.32E2,2.87E2,1.25E2,1.98E2,6.6E1,8.3E1,1.77E2,1.38E2,3.68E2,5E0,5E0,1.42E2,2.23E2,9.4E1,6.4E1,2.03E2,3.29E2,1.63E2,6.2E1,1.97E2,2.4E2,1.13E2,1.39E2,4.32E2,2.9E1,3.8E1,9.8E1,7.4E1,3.1E1,1.7E1,9.4E1,3.5E2,1.57E2,5.3E1,6E0,1.2E1,2.02E2,2.24E2,8E0,1.71E2,1.16E2,6.6E1,5.9E1,3.3E1,1.65E2,1.6E1,5E1,7.8E1,5E0,2.5E1,1.52E2,1.32E2,6E0,2.1E1,3.47E2,3.5E1,1.07E2,9.4E1,1.29E2,7.5E1,1.9E1,5.8E1,6E0],"tree_param":{"num_deleted":"0","num_feature":"44","num_nodes":"109","size_leaf_vector":"1"}},{"base_weights":[5.5968136E-2,1.6010822E1,-1.8566814E1,2.538103E1,7.2649555E0,-8.760937E0,-2.977437E1,-2.3645092E1,2.616707E1,1.0583146E1,3.1931293E0,-4.8235006E0,-1.2852565E1,-2.6030987E1,-4.0793884E1,1.5957355E0,-2.8840158E0,3.5975426E1,2.2346395E1,1.1616359E1,1.9333764E0,8.416149E0,1.5360688E0,-2.8357134E0,-7.676514E0,-1.3971538E1,-8.059552E0,-2.7987936E1,-1.6714424E1,-4.141939E1,-2.4460685E-1,3.650246E1,1.5573926E-1,2.5503996E1,1.9062567E1,1.6198969E1,1.0175995E1,-4.456156E0,1.11117735E1,1.9601013E1,7.3619065E0,8.232013E0,3.3482698E-1,-1.9202509E0,-1.3372189E1,-1.3182813E1,-6.3335733E0,-2.1043644E1,-1.2947898E1,7.9589003E-1,-9.437844E0,-2.425573E1,-3.3893406E1,7.5420696E-1,-1.8867077E1,-4.2696102E1,-3.0605253E1,2.3463848E0,1.7200116E0,1.4859188E0,1.1008334E0,-2.4408197E-1,9.688749E-1,7.0375985E-1,1.0650786E0,4.923891E-1,1.7083956E0,1.1397725E-1,-9.2318743E-1,7.4850523E-1,-3.4985206E-1,2.8887907E-1,1.3752979E0,2.132384E-1,5.2422273E-1,9.0787806E-2,6.304764E-1,6.1964747E-2,-3.761468E-1,-2.3883356E-2,-2.9981554E-1,7.202659E-1,-1.1039175E0,-1.6851026E-1,-8.723788E-1,-3.530277E-1,4.0228733E-1,-6.4395165E-1,-1.1773468E0,-6.227626E-1,-1.3182389E0,-5.68845E-1,2.7475223E-1,-1.3414967E0,-1.0580372E0,-2.0206099E0,-1.5568002E0,-1.0409309E0,7.961596E-1,-2.1945982E0,-1.7905868E0,4.7334558E-1,-1.9051336E0],"categories":[],"categories_nodes":[],"categories_segments":[],"categories_sizes":[],"default_left":[0,0,0,0,0,0,0,0,0,0,0,0,0,0,0,0,0,0,0,0,0,0,0,0,0,0,0,0,0,0,0,0,0,0,0,0,0,0,0,0,0,0,0,0,0,0,0,0,0,0,0,0,0,0,0,0,0,0,0,0,0,0,0,0,0,0,0,0,0,0,0,0,0,0,0,0,0,0,0,0,0,0,0,0,0,0,0,0,0,0,0,0,0,0,0,0,0,0,0,0,0,0,0],"id":15,"left_children":[1,3,5,7,9,11,13,15,17,19,21,23,25,27,29,-1,-1,31,33,35,37,39,41,43,45,47,49,51,53,55,-1,57,-1,59,61,63,65,67,69,71,73,75,77,79,81,83,85,87,89,-1,91,93,95,-1,97,99,101,-1,-1,-1,-1,-1,-1,-1,-1,-1,-1,-1,-1,-1,-1,-1,-1,-1,-1,-1,-1,-1,-1,-1,-1,-1,-1,-1,-1,-1,-1,-1,-1,-1,-1,-1,-1,-1,-1,-1,-1,-1,-1,-1,-1,-1,-1],"loss_changes":[1.5557399E6,2.30913E5,2.6525356E5,5.3067125E4,1.9691023E4,2.0718812E4,4.54205E4,4.3445215E4,4.9406125E4,7.161578E3,5.6723193E3,3.7144912E3,3.2747578E3,1.49155625E4,6.1705E3,0E0,0E0,6.3595312E3,9.536219E3,4.5717734E3,5.1523545E3,1.7160693E3,4.0181106E3,3.7346343E3,1.9111035E3,3.423414E3,4.181414E3,1.45121875E4,1.0484203E4,2.5379688E3,0E0,6.4427188E3,0E0,6.5420312E3,3.7005312E3,1.5388906E3,3.9821914E3,4.949957E3,2.620856E3,1.2583096E3,1.3657715E3,2.1102935E3,3.0292095E3,2.1133093E3,7.815711E3,2.1152354E3,2.3460225E3,9.807168E2,2.6355234E3,0E0,3.4219639E3,2.8533438E3,3.533875E3,0E0,9.837238E3,4.536875E2,1.0278027E4,0E0,0E0,0E0,0E0,0E0,0E0,0E0,0E0,0E0,0E0,0E0,0E0,0E0,0E0,0E0,0E0,0E0,0E0,0E0,0E0,0E0,0E0,0E0,0E0,0E0,0E0,0E0,0E0,0E0,0E0,0E0,0E0,0E0,0E0,0E0,0E0,0E0,0E0,0E0,0E0,0E0,0E0,0E0,0E0,0E0,0E0],"parents":[2147483647,0,0,1,1,2,2,3,3,4,4,5,5,6,6,7,7,8,8,9,9,10,10,11,11,12,12,13,13,14,14,17,17,18,18,19,19,20,20,21,21,22,22,23,23,24,24,25,25,26,26,27,27,28,28,29,29,31,31,33,33,34,34,35,35,36,36,37,37,38,38,39,39,40,40,41,41,42,42,43,43,44,44,45,45,46,46,47,47,48,48,50,50,51,51,52,52,54,54,55,55,56,56],"right_children":[2,4,6,8,10,12,14,16,18,20,22,24,26,28,30,-1,-1,32,34,36,38,40,42,44,46,48,50,52,54,56,-1,58,-1,60,62,64,66,68,70,72,74,76,78,80,82,84,86,88,90,-1,92,94,96,-1,98,100,102,-1,-1,-1,-1,-1,-1,-1,-1,-1,-1,-1,-1,-1,-1,-1,-1,-1,-1,-1,-1,-1,-1,-1,-1,-1,-1,-1,-1,-1,-1,-1,-1,-1,-1,-1,-1,-1,-1,-1,-1,-1,-1,-1,-1,-1,-1],"split_conditions":[4.91158E1,4.448434E1,5.3681927E1,3.0563536E1,4.685169E1,5.1294136E1,5.7170856E1,8.034804E1,3.995412E1,7.981194E1,5.251913E1,7.604482E1,7.965348E1,9.515363E1,8.48087E1,1.5957355E0,-2.8840158E0,9.504412E1,4.25758E1,5.0650963E1,7.6223526E1,2.6780228E1,6.708228E1,9.429702E1,4.5322163E1,5.2705883E1,4.8497444E1,5.5636845E1,2.4422865E1,8.063042E1,-2.4460685E-1,3.603082E1,1.5573926E-1,5.7602077E1,4.0583164E1,8.235784E1,9.479925E1,6.6201485E1,7.0710677E-1,4.640596E1,4.9841183E1,7.1254906E1,8.235334E1,7.9071556E1,5.0527725E1,4.9613506E1,8.53604E1,4.8434162E1,8.236409E1,7.9589003E-1,8.371185E1,5.013764E1,6.659804E1,7.5420696E-1,7.430667E1,8.686191E1,7.51509E1,2.3463848E0,1.7200116E0,1.4859188E0,1.1008334E0,-2.4408197E-1,9.688749E-1,7.0375985E-1,1.0650786E0,4.923891E-1,1.7083956E0,1.1397725E-1,-9.2318743E-1,7.4850523E-1,-3.4985206E-1,2.8887907E-1,1.3752979E0,2.132384E-1,5.2422273E-1,9.0787806E-2,6.304764E-1,6.1964747E-2,-3.761468E-1,-2.3883356E-2,-2.9981554E-1,7.202659E-1,-1.1039175E0,-1.6851026E-1,-8.723788E-1,-3.530277E-1,4.0228733E-1,-6.4395165E-1,-1.1773468E0,-6.227626E-1,-1.3182389E0,-5.68845E-1,2.7475223E-1,-1.3414967E0,-1.0580372E0,-2.0206099E0,-1.5568002E0,-1.0409309E0,7.961596E-1,-2.1945982E0,-1.7905868E0,4.7334558E-1,-1.9051336E0],"split_indices":[24,24,24,24,24,24,24,0,24,11,5,38,13,17,11,0,0,1,24,5,15,28,37,16,25,1,0,24,31,5,0,24,0,5,3,1,33,35,41,19,25,0,9,37,35,24,15,5,11,0,11,26,0,0,35,37,4,0,0,0,0,0,0,0,0,0,0,0,0,0,0,0,0,0,0,0,0,0,0,0,0,0,0,0,0,0,0,0,0,0,0,0,0,0,0,0,0,0,0,0,0,0,0],"split_type":[0,0,0,0,0,0,0,0,0,0,0,0,0,0,0,0,0,0,0,0,0,0,0,0,0,0,0,0,0,0,0,0,0,0,0,0,0,0,0,0,0,0,0,0,0,0,0,0,0,0,0,0,0,0,0,0,0,0,0,0,0,0,0,0,0,0,0,0,0,0,0,0,0,0,0,0,0,0,0,0,0,0,0,0,0,0,0,0,0,0,0,0,0,0,0,0,0,0,0,0,0,0,0],"sum_hessian":[5.234E3,2.819E3,2.415E3,1.36E3,1.459E3,1.289E3,1.126E3,2.1E1,1.339E3,8.03E2,6.56E2,6.58E2,6.31E2,8.43E2,2.83E2,8E0,1.3E1,3.73E2,9.66E2,7.17E2,8.6E1,1.57E2,4.99E2,3.89E2,2.69E2,5.1E2,1.21E2,6.95E2,1.48E2,2.78E2,5E0,3.67E2,6E0,4.89E2,4.77E2,1.69E2,5.48E2,5.1E1,3.5E1,1.2E1,1.45E2,7.5E1,4.24E2,3.59E2,3E1,5.1E1,2.18E2,6.2E1,4.48E2,6E0,1.15E2,4.29E2,2.66E2,9E0,1.39E2,2.46E2,3.2E1,5.8E1,3.09E2,2.18E2,2.71E2,6E0,4.71E2,1.22E2,4.7E1,5.42E2,6E0,3.5E1,1.6E1,2.9E1,6E0,5E0,7E0,7.4E1,7.1E1,3.1E1,4.4E1,3.81E2,4.3E1,2.66E2,9.3E1,7E0,2.3E1,1.6E1,3.5E1,2.08E2,1E1,1.6E1,4.6E1,4.34E2,1.4E1,1.02E2,1.3E1,2.3E2,1.99E2,7.5E1,1.91E2,1.32E2,7E0,2.05E2,4.1E1,5E0,2.7E1],"tree_param":{"num_deleted":"0","num_feature":"44","num_nodes":"103","size_leaf_vector":"1"}},{"base_weights":[1.0904669E-1,1.5276359E1,-1.8159369E1,2.4316809E1,6.894331E0,-1.0302977E1,-3.0480534E1,-2.9147285E1,2.5126335E1,9.737864E0,1.4923961E0,-6.547713E0,-1.7048197E1,-2.538492E1,-3.6441425E1,1.9796938E0,-5.3109764E1,3.3334633E1,2.0976122E1,5.30446E0,1.10318575E1,2.391019E0,-5.897967E0,-4.3921647E0,-1.0289365E1,-1.4066643E0,-1.6038319E1,-2.6025879E1,-2.8333704E0,-3.752474E1,-8.292438E0,-3.228471E0,-1.1616055E0,3.3954407E1,-2.7247244E-1,2.4587109E1,1.832231E1,6.053584E0,-1.1328139E0,1.324409E1,8.33428E0,6.2133443E-1,6.3771067E0,-1.4236807E0,-2.617417E0,-5.4250746E0,1.9547639E0,-1.1969988E1,-4.562866E0,-1.8162142E1,-1.3527841E1,-2.9822994E1,-2.2770878E1,-1.1236479E0,1.1404005E0,-3.5390507E1,-2.2138212E0,1.5602068E0,-3.2681854E1,2.2088804E0,1.6173357E0,1.2585006E0,2.3027997E-1,9.663297E-1,4.6014816E-1,3.3048728E-1,-7.2948617E-1,6.9568235E-1,-6.6609815E-2,4.3581516E-1,-7.247521E-1,-2.7262041E-2,3.244198E-1,3.7604913E-1,-4.674881E-1,-1.1175907E0,3.4889036E-3,-1.6825575E-1,-4.11597E-1,1.0286108E0,