{"learner":{"attributes":{"best_iteration":"3","best_score":"55.8435855587153","scikit_learn":"{\"_estimator_type\": \"regressor\"}"},"feature_names":["aux_CP014_TM8_154_MED_t0","aux_CP014_TM8_154_MED_t1","aux_CP014_TM8_154_MED_t3","aux_CP014_TM8_154_MED_t6","aux_CP014_TM8_26_MED_t0","aux_CP014_TM8_26_MED_t1","aux_CP014_TM8_26_MED_t3","aux_CP014_TM8_26_MED_t6","aux_CP014_TM8_30_MED_t0","aux_CP014_TM8_30_MED_t1","aux_CP014_TM8_30_MED_t3","aux_CP014_TM8_30_MED_t6","aux_CP014_TM8_31_MED_t0","aux_CP014_TM8_31_MED_t1","aux_CP014_TM8_31_MED_t3","aux_CP014_TM8_31_MED_t6","aux_CP014_TM8_84_MED_t0","aux_CP014_TM8_84_MED_t1","aux_CP014_TM8_84_MED_t3","aux_CP014_TM8_84_MED_t6","aux_CP014_TM8_85_MED_t0","aux_CP014_TM8_85_MED_t1","aux_CP014_TM8_85_MED_t3","aux_CP014_TM8_85_MED_t6","aux_CP014_TM8_92_MED_t0","aux_CP014_TM8_92_MED_t1","aux_CP014_TM8_92_MED_t3","aux_CP014_TM8_92_MED_t6","aux_CP014_TM8_93_MED_t0","aux_CP014_TM8_93_MED_t1","aux_CP014_TM8_93_MED_t3","aux_CP014_TM8_93_MED_t6","aux_GPRS046_M029_CALC_t0","aux_GPRS046_M029_CALC_t1","aux_GPRS046_M029_CALC_t3","aux_GPRS046_M029_CALC_t6","hora_sin","hora_cos","dia_sem_sin","dia_sem_cos"],"feature_types":["float","float","float","float","float","float","float","float","float","float","float","float","float","float","float","float","float","float","float","float","float","float","float","float","float","float","float","float","float","float","float","float","float","float","float","float","float","float","float","float"],"gradient_booster":{"model":{"gbtree_model_param":{"num_parallel_tree":"1","num_trees":"34"},"iteration_indptr":[0,1,2,3,4,5,6,7,8,9,10,11,12,13,14,15,16,17,18,19,20,21,22,23,24,25,26,27,28,29,30,31,32,33,34],"tree_info":[0,0,0,0,0,0,0,0,0,0,0,0,0,0,0,0,0,0,0,0,0,0,0,0,0,0,0,0,0,0,0,0,0,0],"trees":[{"base_weights":[5.386056E-1,4.3638702E1,-1.7151459E1,1.207554E1,5.3082806E1,-1.9404787E1,1.3236379E1,-1.3974843E1,2.1019646E1,-7.315173E-2,5.5252304E1,-3.6113464E1,-1.1394157E0,3.9526635E-1,-2.4689177E1,-2.1593404E-1,2.4887453E1,6.0585518E1,3.747052E1,6.762598E1,-3.989037E1,-3.9837701E0,5.2487003E1,-1.675342E0,-6.165101E-1,3.3089033E-1,2.7916697E1,6.572918E1,4.4009113E1,1.9236626E-1,4.2291668E1,1.6799233E0,4.8419714E0,-9.004794E1,-3.3122524E1,-2.4927135E1,3.5713768E0,7.5622063E0,5.3842616E0,9.895119E-1,1.8372011E0,1.6873953E0,3.4960434E0,1.4678713E0,2.805299E0,2.2549357E0,7.5546116E-1,-8.515897E-1,-5.2898936E0,-2.370934E0,-1.1027219E0,-3.0259123E0,-1.0357794E0,3.258939E-1,-2.7701197E0,-3.432445E-1,1.0372801E0],"categories":[],"categories_nodes":[],"categories_segments":[],"categories_sizes":[],"default_left":[0,0,0,0,0,0,0,0,0,0,0,0,0,0,0,0,0,0,0,0,0,0,0,0,0,0,0,0,0,0,0,0,0,0,0,0,0,0,0,0,0,0,0,0,0,0,0,0,0,0,0,0,0,0,0,0,0],"id":0,"left_children":[1,3,5,7,9,11,-1,13,15,-1,17,19,21,-1,23,-1,25,27,29,31,33,35,37,-1,-1,-1,39,41,43,-1,45,-1,-1,47,49,51,53,55,-1,-1,-1,-1,-1,-1,-1,-1,-1,-1,-1,-1,-1,-1,-1,-1,-1,-1,-1],"loss_changes":[8.0436656E5,9.086481E4,4.802165E5,1.7070262E4,2.8013688E4,2.2671147E5,0E0,4.651052E3,5.401744E3,0E0,1.9247375E4,1.5471862E5,5.450583E4,0E0,9.989746E2,0E0,2.4129297E3,1.1846875E4,8.7483125E3,1.0650152E4,1.2430206E5,5.37312E4,4.3809977E4,0E0,0E0,0E0,2.1365684E3,1.50571875E4,6.142867E3,0E0,2.975086E3,0E0,0E0,4.878578E4,5.147997E4,1.2228645E4,4.3797797E4,2.2359834E3,0E0,0E0,0E0,0E0,0E0,0E0,0E0,0E0,0E0,0E0,0E0,0E0,0E0,0E0,0E0,0E0,0E0,0E0,0E0],"parents":[2147483647,0,0,1,1,2,2,3,3,4,4,5,5,7,7,8,8,10,10,11,11,12,12,14,14,16,16,17,17,18,18,19,19,20,20,21,21,22,22,26,26,27,27,28,28,30,30,33,33,34,34,35,35,36,36,37,37],"right_children":[2,4,6,8,10,12,-1,14,16,-1,18,20,22,-1,24,-1,26,28,30,32,34,36,38,-1,-1,-1,40,42,44,-1,46,-1,-1,48,50,52,54,56,-1,-1,-1,-1,-1,-1,-1,-1,-1,-1,-1,-1,-1,-1,-1,-1,-1,-1,-1],"split_conditions":[-5E-1,-4.3388373E-1,5.958569E2,3.3381668E2,2.018665E3,3.0683832E2,1.3236379E1,-7.0710677E-1,3.0299667E2,-7.315173E-2,9.749279E-1,2.2747E2,5.8798834E2,3.9526635E-1,5.1869666E2,-2.1593404E-1,5.9509807E0,2.262459E2,1.184075E2,2.34325E3,1.9430366E3,-4.3388373E-1,7.092157E1,-1.675342E0,-6.165101E-1,3.3089033E-1,3.4214334E2,2.332353E1,3.3066333E2,1.9236626E-1,2.388118E2,1.6799233E0,4.8419714E0,1.1286625E2,1.4904307E-1,2.1476794E2,9.659258E-1,1.2039542E2,5.3842616E0,9.895119E-1,1.8372011E0,1.6873953E0,3.4960434E0,1.4678713E0,2.805299E0,2.2549357E0,7.5546116E-1,-8.515897E-1,-5.2898936E0,-2.370934E0,-1.1027219E0,-3.0259123E0,-1.0357794E0,3.258939E-1,-2.7701197E0,-3.432445E-1,1.0372801E0],"split_indices":[37,38,11,0,4,0,0,37,2,0,38,1,10,0,8,0,32,27,17,4,4,38,34,0,0,0,0,34,1,0,27,0,0,21,12,25,37,18,0,0,0,0,0,0,0,0,0,0,0,0,0,0,0,0,0,0,0],"split_type":[0,0,0,0,0,0,0,0,0,0,0,0,0,0,0,0,0,0,0,0,0,0,0,0,0,0,0,0,0,0,0,0,0,0,0,0,0,0,0,0,0,0,0,0,0,0,0,0,0,0,0,0,0,0,0,0,0],"sum_hessian":[1.053E3,3.06E2,7.47E2,7.1E1,2.35E2,7.42E2,5E0,1.8E1,5.3E1,9E0,2.26E2,3.87E2,3.55E2,6E0,1.2E1,7E0,4.6E1,1.72E2,5.4E1,1.3E1,3.74E2,3.38E2,1.7E1,6E0,6E0,7E0,3.9E1,1.29E2,4.3E1,7E0,4.7E1,7E0,6E0,4.3E1,3.31E2,8.9E1,2.49E2,1E1,7E0,2.2E1,1.7E1,1.6E1,1.13E2,2.1E1,2.2E1,4.2E1,5E0,8E0,3.5E1,1.43E2,1.88E2,8E0,8.1E1,2.38E2,1.1E1,5E0,5E0],"tree_param":{"num_deleted":"0","num_feature":"40","num_nodes":"57","size_leaf_vector":"1"}},{"base_weights":[5.49457E-1,-2.8384317E1,2.5722073E1,-1.3001009E2,-2.3932913E1,2.1758663E1,1.3617293E2,-7.617625E1,-1.2145484E1,-2.9036585E1,3.5610355E1,2.5266247E0,4.0415394E1,1.4767749E1,3.9976986E1,-2.1613291E-1,-5.583039E0,6.662279E1,-3.172643E1,5.32004E1,-1.0793422E1,-1.761017E1,9.567296E0,1.0863839E1,5.0799458E1,3.3890111E0,3.224235E-1,4.858028E0,1.545786E0,-5.146565E0,-3.6723644E1,4.4776587E0,3.5994274E1,-1.3897859E0,3.9955553E-1,-2.4876102E1,1.4301685E0,-4.1262774E0,1.9368158E1,-3.1208076E1,2.1558924E1,5.274846E1,-1.0658908E0,-1.0196289E0,9.837853E-1,-2.583495E0,-1.2494146E0,6.411615E-1,2.2500818E0,-1.3494529E0,-7.4610376E-1,9.0358895E-1,-2.6575768E-1,-4.1150925E-1,6.7834854E-1,1.938399E0,6.33889E-1,-2.6109523E-1,-2.1834486E0,-1.8567161E-1,1.227415E0,1.695187E0,3.0813844E0],"categories":[],"categories_nodes":[],"categories_segments":[],"categories_sizes":[],"default_left":[0,0,0,0,0,0,0,0,0,0,0,0,0,0,0,0,0,0,0,0,0,0,0,0,0,0,0,0,0,0,0,0,0,0,0,0,0,0,0,0,0,0,0,0,0,0,0,0,0,0,0,0,0,0,0,0,0,0,0,0,0,0,0],"id":1,"left_children":[1,3,5,7,9,11,13,15,-1,17,19,21,23,-1,25,-1,-1,27,29,31,33,35,37,39,41,-1,-1,-1,-1,43,45,-1,47,-1,-1,49,51,53,55,57,59,61,-1,-1,-1,-1,-1,-1,-1,-1,-1,-1,-1,-1,-1,-1,-1,-1,-1,-1,-1,-1,-1],"loss_changes":[7.545605E5,2.1491894E5,2.3954147E5,1.030205E5,1.4173406E5,1.9221414E5,2.7909975E5,3.7751094E4,0E0,1.1198119E5,3.0779504E4,3.7738465E4,8.290931E4,0E0,1.1674113E4,0E0,0E0,1.0068379E4,5.5062062E4,1.3652273E4,3.7372803E3,9.583783E3,2.652058E4,3.306916E4,2.9379531E4,0E0,0E0,0E0,0E0,2.575683E4,6.0091094E4,0E0,3.5913516E3,0E0,0E0,6.4469336E2,2.3423901E3,6.137876E3,1.4429469E4,4.624241E3,4.4750605E3,3.0697E4,0E0,0E0,0E0,0E0,0E0,0E0,0E0,0E0,0E0,0E0,0E0,0E0,0E0,0E0,0E0,0E0,0E0,0E0,0E0,0E0,0E0],"parents":[2147483647,0,0,1,1,2,2,3,3,4,4,5,5,6,6,7,7,9,9,10,10,11,11,12,12,14,14,17,17,18,18,19,19,20,20,21,21,22,22,23,23,24,24,29,29,30,30,32,32,35,35,36,36,37,37,38,38,39,39,40,40,41,41],"right_children":[2,4,6,8,10,12,14,16,-1,18,20,22,24,-1,26,-1,-1,28,30,32,34,36,38,40,42,-1,-1,-1,-1,44,46,-1,48,-1,-1,50,52,54,56,58,60,62,-1,-1,-1,-1,-1,-1,-1,-1,-1,-1,-1,-1,-1,-1,-1,-1,-1,-1,-1,-1,-1],"split_conditions":[2.2788701E2,1.7213184E3,5.927845E2,1.3263431E2,1.4183902E2,-5E-1,1.3182548E-1,9.488458E1,-1.2145484E1,2.2747E2,2.7298868E2,-4.3388373E-1,-4.3388373E-1,1.4767749E1,3.2897144E2,-2.1613291E-1,-5.583039E0,5.690367E2,2.0001283E3,1.1177458E2,3.2119666E2,3.36885E2,3.2656668E2,2.7543732E2,2.91952E2,3.3890111E0,3.224235E-1,4.858028E0,1.545786E0,3.2559332E2,1.5059933E-1,4.4776587E0,1.2500222E2,-1.3897859E0,3.9955553E-1,2.523252E2,1.4306999E2,1.2586667E2,2.3193132E3,1.1953079E2,3.0299667E2,2.2933267E3,-1.0658908E0,-1.0196289E0,9.837853E-1,-2.583495E0,-1.2494146E0,6.411615E-1,2.2500818E0,-1.3494529E0,-7.4610376E-1,9.0358895E-1,-2.6575768E-1,-4.1150925E-1,6.7834854E-1,1.938399E0,6.33889E-1,-2.6109523E-1,-2.1834486E0,-1.8567161E-1,1.227415E0,1.695187E0,3.0813844E0],"split_indices":[24,4,8,22,20,36,13,16,0,1,31,38,38,0,2,0,0,8,7,23,1,1,2,29,31,0,0,0,0,3,15,0,16,0,0,24,23,17,7,23,2,5,0,0,0,0,0,0,0,0,0,0,0,0,0,0,0,0,0,0,0,0,0],"split_type":[0,0,0,0,0,0,0,0,0,0,0,0,0,0,0,0,0,0,0,0,0,0,0,0,0,0,0,0,0,0,0,0,0,0,0,0,0,0,0,0,0,0,0,0,0,0,0,0,0,0,0,0,0,0,0,0,0,0,0,0,0,0,0],"sum_hessian":[1.034E3,4.81E2,5.53E2,1.9E1,4.62E2,5.35E2,1.8E1,1.4E1,5E0,4.26E2,3.6E1,2.64E2,2.71E2,6E0,1.2E1,5E0,9E0,1.1E1,4.15E2,2.6E1,1E1,6.8E1,1.96E2,7.1E1,2E2,6E0,6E0,5E0,6E0,6.6E1,3.49E2,7E0,1.9E1,5E0,5E0,4.9E1,1.9E1,8.2E1,1.14E2,1.4E1,5.7E1,1.95E2,5E0,4.1E1,2.5E1,1.52E2,1.97E2,6E0,1.3E1,3.9E1,1E1,5E0,1.4E1,6.7E1,1.5E1,2.8E1,8.6E1,5E0,9E0,6E0,5.1E1,6.4E1,1.31E2],"tree_param":{"num_deleted":"0","num_feature":"40","num_nodes":"63","size_leaf_vector":"1"}},{"base_weights":[-2.2214968E0,-2.6068863E1,2.3486486E1,7.2845474E1,-2.9619446E1,7.4735265E0,3.9661957E1,1.3692297E0,4.585661E0,-1.14463425E2,-2.4941004E1,3.4577982E0,6.500524E0,1.4466082E1,4.4703796E1,-7.5580536E1,-1.1897006E1,7.425537E1,-2.776483E1,1.1686762E1,-8.672356E0,2.7915926E0,6.246447E0,4.6994392E1,-3.7354958E-1,-4.714666E-2,-9.747142E1,5.2999884E-1,5.4215293E0,-4.1061577E1,-1.591181E1,-3.786726E0,1.8121826E1,2.4888442E0,-1.1853577E1,1.2051201E1,-1.2868326E0,5.105104E1,2.7431301E1,-1.1882144E0,1.153139E0,-3.471106E0,-6.380506E0,-2.2384136E0,7.1521336E-1,-2.222183E0,1.2718937E-1,-6.357474E-1,4.312439E-1,7.8267044E-1,2.7906873E0,9.4657576E-1,-1.5623799E-1,-7.761666E-1,-9.011155E-2,-4.3529645E-1,8.11063E-1,2.636578E0,3.1460598E-1,8.697073E-1,2.0977197E0],"categories":[],"categories_nodes":[],"categories_segments":[],"categories_sizes":[],"default_left":[0,0,0,0,0,0,0,0,0,0,0,0,0,0,0,0,0,0,0,0,0,0,0,0,0,0,0,0,0,0,0,0,0,0,0,0,0,0,0,0,0,0,0,0,0,0,0,0,0,0,0,0,0,0,0,0,0,0,0,0,0],"id":2,"left_children":[1,3,5,7,9,11,13,-1,-1,15,17,19,-1,21,23,25,-1,27,29,31,33,-1,35,37,39,-1,41,-1,-1,43,45,47,49,51,53,55,-1,57,59,-1,-1,-1,-1,-1,-1,-1,-1,-1,-1,-1,-1,-1,-1,-1,-1,-1,-1,-1,-1,-1,-1],"loss_changes":[6.38203E5,1.9180316E5,1.2946647E5,1.3773703E4,2.0433262E5,1.240321E5,3.097875E4,0E0,0E0,1.1161553E5,1.4099325E5,2.465703E4,0E0,1.4265538E4,2.1395781E4,3.584368E4,0E0,2.9294852E4,7.546494E4,1.470727E4,3.5810635E3,0E0,7.1779873E3,1.4225781E4,6.5782646E3,0E0,5.4926094E3,0E0,0E0,4.7229375E4,1.3544633E5,4.98587E3,8.795273E3,2.1836975E3,2.8473965E3,2.9118433E3,0E0,1.1847656E4,4.512039E3,0E0,0E0,0E0,0E0,0E0,0E0,0E0,0E0,0E0,0E0,0E0,0E0,0E0,0E0,0E0,0E0,0E0,0E0,0E0,0E0,0E0,0E0],"parents":[2147483647,0,0,1,1,2,2,3,3,4,4,5,5,6,6,9,9,10,10,11,11,13,13,14,14,15,15,17,17,18,18,19,19,20,20,22,22,23,23,24,24,26,26,29,29,30,30,31,31,32,32,33,33,34,34,35,35,37,37,38,38],"right_children":[2,4,6,8,10,12,14,-1,-1,16,18,20,-1,22,24,26,-1,28,30,32,34,-1,36,38,40,-1,42,-1,-1,44,46,48,50,52,54,56,-1,58,60,-1,-1,-1,-1,-1,-1,-1,-1,-1,-1,-1,-1,-1,-1,-1,-1,-1,-1,-1,-1,-1,-1],"split_conditions":[2.3395546E2,1.9079555E2,-5E-1,6.234898E-1,1.845745E3,5.95393E2,2.2223567E3,1.3692297E0,4.585661E0,2.771589E2,2.2734334E2,2.91952E2,6.500524E0,1.8491689E2,1.2459417E2,9.3525E1,-1.1897006E1,2.34325E3,2.8223166E2,1.22361946E2,-2.2252093E-1,2.7915926E0,9.129902E1,3.4033334E2,2.8178555E2,-4.714666E-2,1.2519114E2,5.2999884E-1,5.4215293E0,1.4079237E2,4.49951E1,3.2597665E2,1.4636624E2,1.4371709E2,2.5825983E2,3.0657758E2,-1.2868326E0,3.40965E2,1.283507E2,-1.1882144E0,1.153139E0,-3.471106E0,-6.380506E0,-2.2384136E0,7.1521336E-1,-2.222183E0,1.2718937E-1,-6.357474E-1,4.312439E-1,7.8267044E-1,2.7906873E0,9.4657576E-1,-1.5623799E-1,-7.761666E-1,-9.011155E-2,-4.3529645E-1,8.11063E-1,2.636578E0,3.1460598E-1,8.697073E-1,2.0977197E0],"split_indices":[24,31,36,39,4,10,4,0,0,31,0,31,0,31,19,16,0,4,11,16,39,0,32,0,29,0,13,0,0,21,32,1,23,20,24,1,0,2,16,0,0,0,0,0,0,0,0,0,0,0,0,0,0,0,0,0,0,0,0,0,0],"split_type":[0,0,0,0,0,0,0,0,0,0,0,0,0,0,0,0,0,0,0,0,0,0,0,0,0,0,0,0,0,0,0,0,0,0,0,0,0,0,0,0,0,0,0,0,0,0,0,0,0,0,0,0,0,0,0,0,0,0,0,0,0],"sum_hessian":[1.039E3,5.39E2,5E2,1.8E1,5.21E2,2.52E2,2.48E2,6E0,1.2E1,2.6E1,4.95E2,2.45E2,7E0,4.2E1,2.06E2,2.1E1,5E0,1.3E1,4.82E2,1.46E2,9.9E1,6E0,3.6E1,1.96E2,1E1,5E0,1.6E1,5E0,8E0,2.26E2,2.56E2,4.3E1,1.03E2,2.2E1,7.7E1,3.1E1,5E0,1.61E2,3.5E1,5E0,5E0,1E1,6E0,2.12E2,1.4E1,1E2,1.56E2,2.5E1,1.8E1,9.8E1,5E0,5E0,1.7E1,5.6E1,2.1E1,5E0,2.6E1,1.55E2,6E0,2.2E1,1.3E1],"tree_param":{"num_deleted":"0","num_feature":"40","num_nodes":"61","size_leaf_vector":"1"}},{"base_weights":[1.6699563E0,3.8662594E1,-1.3549992E1,1.3460747E1,4.2439316E1,-1.6031538E1,1.2712574E1,3.006834E0,2.4045115E0,1.7172094E1,4.588466E1,-2.7964243E1,3.7579901E0,1.7030672E1,-2.0744062E1,3.6236893E1,5.121435E0,3.686564E1,5.3805496E1,5.849489E1,-3.0759447E1,3.8033577E1,8.6516225E-1,-3.1042993E-1,1.5380435E0,-1.5689358E0,-6.5903775E-2,9.4497794E-1,2.4191623E0,1.3057074E1,-6.867258E-1,1.8255688E1,4.2155445E1,4.0869513E0,4.7315758E1,1.118733E0,4.3645377E0,-9.080864E1,-2.6899195E1,1.4727607E1,3.5025125E0,-7.722283E-1,3.0318782E0,2.5985217E-1,1.1203054E0,4.475357E-2,1.1078026E0,2.185395E0,6.818627E-1,3.341391E0,1.9751606E0,-5.371072E-1,-5.6584244E0,4.6615598E-1,-1.532887E0,-2.3618285E-1,2.0733285E0,-2.5275028E0,3.1211987E-2],"categories":[],"categories_nodes":[],"categories_segments":[],"categories_sizes":[],"default_left":[0,0,0,0,0,0,0,0,0,0,0,0,0,0,0,0,0,0,0,0,0,0,0,0,0,0,0,0,0,0,0,0,0,0,0,0,0,0,0,0,0,0,0,0,0,0,0,0,0,0,0,0,0,0,0,0,0,0,0],"id":3,"left_children":[1,3,5,7,9,11,-1,-1,13,15,17,19,21,23,25,27,29,31,33,35,37,39,41,-1,-1,-1,-1,-1,-1,43,-1,45,47,-1,49,-1,-1,51,53,55,-1,57,-1,-1,-1,-1,-1,-1,-1,-1,-1,-1,-1,-1,-1,-1,-1,-1,-1],"loss_changes":[6.007122E5,2.9024219E4,5.0646106E5,2.1523672E4,2.2710406E4,1.7721442E5,0E0,0E0,1.220303E4,7.6215566E3,1.4938219E4,1.1489853E5,2.8023613E4,7.2131914E3,2.8476113E3,1.816459E3,3.4712134E3,1.0446891E4,1.8598438E4,1.3637629E4,1.02785E5,1.5375797E4,2.5694953E4,0E0,0E0,0E0,0E0,0E0,0E0,1.0565332E3,0E0,1.8061064E3,3.29425E3,0E0,1.3050641E4,0E0,0E0,4.710936E4,5.855725E4,7.481041E3,0E0,1.7831914E4,0E0,0E0,0E0,0E0,0E0,0E0,0E0,0E0,0E0,0E0,0E0,0E0,0E0,0E0,0E0,0E0,0E0],"parents":[2147483647,0,0,1,1,2,2,3,3,4,4,5,5,8,8,9,9,10,10,11,11,12,12,13,13,14,14,15,15,16,16,17,17,18,18,19,19,20,20,21,21,22,22,29,29,31,31,32,32,34,34,37,37,38,38,39,39,41,41],"right_children":[2,4,6,8,10,12,-1,-1,14,16,18,20,22,24,26,28,30,32,34,36,38,40,42,-1,-1,-1,-1,-1,-1,44,-1,46,48,-1,50,-1,-1,52,54,56,-1,58,-1,-1,-1,-1,-1,-1,-1,-1,-1,-1,-1,-1,-1,-1,-1,-1,-1],"split_conditions":[-5E-1,2.2477383E3,5.958569E2,-2.2252093E-1,1.9093138E1,2.2884442E2,1.2712574E1,3.006834E0,8.606373E1,2.335685E3,1.08333334E-1,2.2747E2,2.4594556E2,2.3788086E2,2.3737466E3,2.3239734E3,-7.0710677E-1,2.841529E2,1.23131714E2,2.34325E3,1.845745E3,2.8459332E2,5.945317E2,-3.1042993E-1,1.5380435E0,-1.5689358E0,-6.5903775E-2,9.4497794E-1,2.4191623E0,6.5686274E0,-6.867258E-1,2.7261246E2,1.3210417E2,4.0869513E0,8.0382355E1,1.118733E0,4.3645377E0,1.09818054E2,1.9188112E2,8.514216E1,3.5025125E0,1.373725E2,3.0318782E0,2.5985217E-1,1.1203054E0,4.475357E-2,1.1078026E0,2.185395E0,6.818627E-1,3.341391E0,1.9751606E0,-5.371072E-1,-5.6584244E0,4.6615598E-1,-1.532887E0,-2.3618285E-1,2.0733285E0,-2.5275028E0,3.1211987E-2],"split_indices":[37,4,11,39,34,24,0,0,32,4,11,1,30,24,7,4,37,28,13,4,4,10,10,0,0,0,0,0,0,33,0,28,17,0,35,0,0,20,29,32,0,21,0,0,0,0,0,0,0,0,0,0,0,0,0,0,0,0,0],"split_type":[0,0,0,0,0,0,0,0,0,0,0,0,0,0,0,0,0,0,0,0,0,0,0,0,0,0,0,0,0,0,0,0,0,0,0,0,0,0,0,0,0,0,0,0,0,0,0,0,0,0,0,0,0,0,0,0,0,0,0],"sum_hessian":[1.065E3,3.1E2,7.55E2,4.1E1,2.69E2,7.49E2,6E0,7E0,3.4E1,3.3E1,2.36E2,4.67E2,2.82E2,2.1E1,1.3E1,1.2E1,2.1E1,1.13E2,1.23E2,1.4E1,4.53E2,2.1E1,2.61E2,8E0,1.3E1,8E0,5E0,6E0,6E0,1.5E1,6E0,2.6E1,8.7E1,2.1E1,1.02E2,7E0,7E0,2.6E1,4.27E2,1.3E1,8E0,2.55E2,6E0,9E0,6E0,5E0,2.1E1,8.2E1,5E0,2.7E1,7.5E1,6E0,2E1,4E1,3.87E2,8E0,5E0,6E0,2.49E2],"tree_param":{"num_deleted":"0","num_feature":"40","num_nodes":"59","size_leaf_vector":"1"}},{"base_weights":[3.4829143E-1,-2.5177505E1,1.8378344E1,-2.8437006E1,9.153806E1,3.573009E1,3.19213E0,3.8156876E1,-3.1155624E1,1.6198782E0,7.263115E0,8.971981E0,4.3248875E1,-4.089348E-2,8.836061E0,3.7844079E0,1.0795433E1,-7.1323975E1,-2.5824604E1,-1.650796E1,1.9303434E1,-6.2316613E0,4.6847626E1,-7.465313E1,3.5808685E0,-4.1950688E-1,1.4099215E0,-1.18169716E2,-4.786609E1,-4.361712E1,-1.4034446E1,-2.46872E1,5.130271E-2,1.2879114E1,3.4612934E1,9.688147E-1,-1.9642212E1,4.8500153E1,-2.5780907E-2,-5.564143E0,-2.259999E0,-1.3951489E1,1.0850109E1,-2.4541156E0,-7.389759E0,-1.7574948E0,-4.9606986E0,-4.375516E-1,-2.5644743E0,-1.9787734E0,1.946445E-1,-1.6824772E0,-4.3031034E-1,8.192636E-1,1.4079045E-1,2.0121877E0,1.0659841E0,-2.059033E0,2.5766328E-1,1.2368848E0,2.5567226E0,-1.1819795E0,3.2661486E-1,-1.821842E-1,9.061324E-1],"categories":[],"categories_nodes":[],"categories_segments":[],"categories_sizes":[],"default_left":[0,0,0,0,0,0,0,0,0,0,0,0,0,0,0,0,0,0,0,0,0,0,0,0,0,0,0,0,0,0,0,0,0,0,0,0,0,0,0,0,0,0,0,0,0,0,0,0,0,0,0,0,0,0,0,0,0,0,0,0,0,0,0,0,0],"id":4,"left_children":[1,3,5,7,9,11,13,15,17,-1,-1,19,21,23,-1,-1,25,27,29,31,33,35,37,39,41,-1,-1,43,45,47,49,51,-1,53,55,-1,57,59,-1,-1,-1,61,63,-1,-1,-1,-1,-1,-1,-1,-1,-1,-1,-1,-1,-1,-1,-1,-1,-1,-1,-1,-1,-1,-1],"loss_changes":[4.814039E5,1.6732488E5,1.6141206E5,7.758841E4,3.340343E4,5.7146656E4,1.8404064E5,1.6631734E4,8.50885E4,0E0,0E0,1.716661E4,4.0005156E4,8.7558E4,0E0,0E0,3.9113203E3,4.597547E4,7.490167E4,2.7525806E3,4.073711E3,5.875288E3,1.63098125E4,1.1137289E4,3.9532168E4,0E0,0E0,2.342739E4,1.804654E4,3.7798438E4,9.9976016E4,1.5797832E3,0E0,1.1515825E3,1.0893457E2,0E0,6.0904336E3,1.1309531E4,0E0,0E0,0E0,1.8214988E4,2.3151543E4,0E0,0E0,0E0,0E0,0E0,0E0,0E0,0E0,0E0,0E0,0E0,0E0,0E0,0E0,0E0,0E0,0E0,0E0,0E0,0E0,0E0,0E0],"parents":[2147483647,0,0,1,1,2,2,3,3,4,4,5,5,6,6,7,7,8,8,11,11,12,12,13,13,16,16,17,17,18,18,19,19,20,20,21,21,22,22,23,23,24,24,27,27,28,28,29,29,30,30,31,31,33,33,34,34,36,36,37,37,41,41,42,42],"right_children":[2,4,6,8,10,12,14,16,18,-1,-1,20,22,24,-1,-1,26,28,30,32,34,36,38,40,42,-1,-1,44,46,48,50,52,-1,54,56,-1,58,60,-1,-1,-1,62,64,-1,-1,-1,-1,-1,-1,-1,-1,-1,-1,-1,-1,-1,-1,-1,-1,-1,-1,-1,-1,-1,-1],"split_conditions":[3.1125333E2,5.88855E2,1.1953438E2,1.9470667E2,7.0666664E1,-4.3388373E-1,5.9411053E2,2.0590266E3,1.951565E3,1.6198782E0,7.263115E0,3.2781668E2,2.0239116E3,1.3556068E2,8.836061E0,3.7844079E0,2.3743484E3,7.7617645E1,1.4904307E-1,9.129902E1,1.283507E2,1.1585528E2,2.5513931E2,4.6625E2,-4.3388373E-1,-4.1950688E-1,1.4099215E0,6.234898E-1,1.20513054E2,1.5504902E1,5.1715687E1,3.1872168E2,5.130271E-2,2.4103633E3,2.3280984E3,9.688147E-1,2.3353578E2,2.427451E1,-2.5780907E-2,-5.564143E0,-2.259999E0,3.36885E2,4.897549E1,-2.4541156E0,-7.389759E0,-1.7574948E0,-4.9606986E0,-4.375516E-1,-2.5644743E0,-1.9787734E0,1.946445E-1,-1.6824772E0,-4.3031034E-1,8.192636E-1,1.4079045E-1,2.0121877E0,1.0659841E0,-2.059033E0,2.5766328E-1,1.2368848E0,2.5567226E0,-1.1819795E0,3.2661486E-1,-1.821842E-1,9.061324E-1],"split_indices":[0,11,19,31,35,38,10,7,4,0,0,1,4,21,0,0,7,32,12,34,16,23,27,0,38,0,0,39,16,34,34,1,0,4,4,0,31,34,0,0,0,1,33,0,0,0,0,0,0,0,0,0,0,0,0,0,0,0,0,0,0,0,0,0,0],"split_type":[0,0,0,0,0,0,0,0,0,0,0,0,0,0,0,0,0,0,0,0,0,0,0,0,0,0,0,0,0,0,0,0,0,0,0,0,0,0,0,0,0,0,0,0,0,0,0,0,0,0,0,0,0,0,0,0,0,0,0,0,0,0,0,0,0],"sum_hessian":[1.044E3,4.32E2,6.12E2,4.21E2,1.1E1,2.85E2,3.27E2,1.6E1,4.05E2,6E0,5E0,6.3E1,2.22E2,3.22E2,5E0,6E0,1E1,4.6E1,3.59E2,1.8E1,4.5E1,1.5E1,2.07E2,1.4E1,3.08E2,5E0,5E0,1.4E1,3.2E1,1.42E2,2.17E2,1.2E1,6E0,3.3E1,1.2E1,5E0,1E1,2E2,7E0,5E0,9E0,9E1,2.18E2,5E0,9E0,2.7E1,5E0,2.6E1,1.16E2,8.9E1,1.28E2,7E0,5E0,2.4E1,9E0,7E0,5E0,5E0,5E0,2.1E1,1.79E2,6.1E1,2.9E1,7.3E1,1.45E2],"tree_param":{"num_deleted":"0","num_feature":"40","num_nodes":"65","size_leaf_vector":"1"}},{"base_weights":[4.1800553E-1,3.5197388E1,-1.3676017E1,9.317325E0,4.2987083E1,-1.5818983E1,1.1031112E1,1.8373838E1,-1.397851E1,2.3229218E1,4.6508038E1,-1.13544136E2,-1.3020408E1,1.152745E1,3.494286E1,-2.2876717E1,3.5358608E-1,9.367953E0,3.0058355E1,4.1444725E1,6.8560875E1,-1.8023401E2,-3.6522987E1,2.015913E0,-2.3890747E1,-1.0866791E-1,1.4087395E1,2.124465E0,1.0117086E0,-1.3665186E0,-5.812254E-1,-2.1201813E-1,8.705196E-1,2.0798477E1,1.9971898E0,1.6469477E-1,4.335493E1,2.5589569E0,3.9951153E0,-1.1105189E1,-5.4154286E0,-1.0831559E-1,-3.2387912E0,5.9519184E-1,3.1808243E0,6.319163E1,-2.6764214E1,8.560821E-1,2.041279E-1,1.3028187E0,4.2761183E-1,3.8658593E0,2.0752497E0,2.5518901E0,-3.8031697E-2,1.3269144E0,4.367593E0,1.6046921E0,-1.4831096E0],"categories":[],"categories_nodes":[],"categories_segments":[],"categories_sizes":[],"default_left":[0,0,0,0,0,0,0,0,0,0,0,0,0,0,0,0,0,0,0,0,0,0,0,0,0,0,0,0,0,0,0,0,0,0,0,0,0,0,0,0,0,0,0,0,0,0,0,0,0,0,0,0,0,0,0,0,0,0,0],"id":5,"left_children":[1,3,5,7,9,11,-1,13,15,17,19,21,23,25,27,29,-1,31,33,35,37,39,41,43,45,-1,47,-1,-1,-1,-1,-1,-1,49,-1,-1,51,-1,-1,-1,-1,-1,-1,53,-1,55,57,-1,-1,-1,-1,-1,-1,-1,-1,-1,-1,-1,-1],"loss_changes":[5.269383E5,6.2089594E4,3.8757094E5,1.5658747E4,1.5469469E4,2.060888E5,0E0,5.6047637E3,4.096854E3,3.3115703E3,1.959125E4,1.0126281E5,1.2083983E5,1.3996685E3,7.989629E2,4.301045E2,0E0,1.60736E3,1.4516074E3,1.1949969E4,2.994375E3,9.037719E3,1.0530393E4,2.7173574E4,1.09035625E5,0E0,9.2976416E2,0E0,0E0,0E0,0E0,0E0,0E0,7.395405E2,0E0,0E0,6.7059062E3,0E0,0E0,0E0,0E0,0E0,0E0,2.0903225E4,0E0,1.006818E4,7.190853E4,0E0,0E0,0E0,0E0,0E0,0E0,0E0,0E0,0E0,0E0,0E0,0E0],"parents":[2147483647,0,0,1,1,2,2,3,3,4,4,5,5,7,7,8,8,9,9,10,10,11,11,12,12,13,13,14,14,15,15,17,17,18,18,19,19,20,20,21,21,22,22,23,23,24,24,26,26,33,33,36,36,43,43,45,45,46,46],"right_children":[2,4,6,8,10,12,-1,14,16,18,20,22,24,26,28,30,-1,32,34,36,38,40,42,44,46,-1,48,-1,-1,-1,-1,-1,-1,50,-1,-1,52,-1,-1,-1,-1,-1,-1,54,-1,56,58,-1,-1,-1,-1,-1,-1,-1,-1,-1,-1,-1,-1],"split_conditions":[-5E-1,-4.3388373E-1,5.958569E2,-7.0710677E-1,-5E-1,1.7213184E3,1.1031112E1,3.4342166E2,2.5365527E2,3.2464334E2,5.1318164E2,6.661275E1,-2.5881904E-1,2.4675378E2,2.3280984E3,5.2968665E2,3.5358608E-1,7.555882E1,6.234898E-1,3.0597665E2,2.28196E3,2.1246245E2,1.10635E2,5.9411053E2,2.2747E2,-1.0866791E-1,1.2473583E2,2.124465E0,1.0117086E0,-1.3665186E0,-5.812254E-1,-2.1201813E-1,8.705196E-1,2.362993E3,1.9971898E0,1.6469477E-1,2.2211244E2,2.5589569E0,3.9951153E0,-1.1105189E1,-5.4154286E0,-1.0831559E-1,-3.2387912E0,2.5126134E2,3.1808243E0,2.34325E3,1.02610275E2,8.560821E-1,2.041279E-1,1.3028187E0,4.2761183E-1,3.8658593E0,2.0752497E0,2.5518901E0,-3.8031697E-2,1.3269144E0,4.367593E0,1.6046921E0,-1.4831096E0],"split_indices":[37,38,11,37,36,4,0,1,25,1,11,35,36,30,4,10,0,34,39,1,7,28,18,11,1,0,18,0,0,0,0,0,0,7,0,0,30,0,0,0,0,0,0,30,0,4,19,0,0,0,0,0,0,0,0,0,0,0,0],"split_type":[0,0,0,0,0,0,0,0,0,0,0,0,0,0,0,0,0,0,0,0,0,0,0,0,0,0,0,0,0,0,0,0,0,0,0,0,0,0,0,0,0,0,0,0,0,0,0,0,0,0,0,0,0,0,0,0,0,0,0],"sum_hessian":[1.073E3,3.09E2,7.64E2,7.2E1,2.37E2,7.58E2,6E0,5.2E1,2E1,3.7E1,2E2,2E1,7.38E2,3.8E1,1.4E1,1.4E1,6E0,1.3E1,2.4E1,1.65E2,3.5E1,1E1,1E1,3.1E2,4.28E2,6E0,3.2E1,8E0,6E0,9E0,5E0,5E0,8E0,1.4E1,1E1,8E0,1.57E2,1.6E1,1.9E1,5E0,5E0,5E0,5E0,3.04E2,6E0,1.3E1,4.15E2,2.4E1,8E0,9E0,5E0,6E0,1.51E2,7E0,2.97E2,6E0,7E0,1.9E1,3.96E2],"tree_param":{"num_deleted":"0","num_feature":"40","num_nodes":"59","size_leaf_vector":"1"}},{"base_weights":[8.539632E-1,-8.671262E-1,1.5009892E1,3.3587353E1,-1.5198777E1,9.94083E0,4.1876698E1,-2.8043068E1,6.790764E-1,5.6671673E-1,2.6726595E1,3.637417E1,5.9693394E1,2.9827072E1,-3.1418898E1,2.360767E0,-4.5394645E0,-1.7477581E1,6.870553E0,2.0045342E0,1.6326836E1,-1.740289E-1,3.8293327E1,6.55662E1,1.2169087E0,4.8023663E0,2.834054E0,2.3630371E-2,-3.7092392E1,1.0129212E0,3.703019E0,-1.2698478E0,-2.9578927E-1,-4.3910357E-1,5.2299803E-1,3.4832394E-1,1.1554236E0,3.0085816E0,1.7378924E0,3.5851095E0,2.2705495E0,1.3047545E0,-8.5810614E-1,-7.5511974E-1,1.6732063E0,-4.5012836E0,-1.6206034E0,-8.217556E-1,3.062271E-1],"categories":[],"categories_nodes":[],"categories_segments":[],"categories_sizes":[],"default_left":[0,0,0,0,0,0,0,0,0,0,0,0,0,0,0,0,0,0,0,0,0,0,0,0,0,0,0,0,0,0,0,0,0,0,0,0,0,0,0,0,0,0,0,0,0,0,0,0,0],"id":6,"left_children":[1,3,-1,5,7,9,11,13,15,17,19,21,23,25,27,29,-1,31,33,-1,35,-1,37,39,-1,41,-1,43,45,47,-1,-1,-1,-1,-1,-1,-1,-1,-1,-1,-1,-1,-1,-1,-1,-1,-1,-1,-1],"loss_changes":[5.407325E5,5.1602494E5,0E0,5.9754875E4,1.505293E5,1.2727609E4,2.0073438E4,8.064406E4,5.11204E4,6.14768E3,3.3703184E3,1.3598594E4,9.192234E3,1.5177961E4,6.886278E4,3.142212E4,0E0,1.1284961E3,2.3393738E3,0E0,9.786216E2,0E0,1.0893922E4,2.1737969E3,0E0,6.52863E3,0E0,3.0856533E4,7.808244E4,2.8728885E4,0E0,0E0,0E0,0E0,0E0,0E0,0E0,0E0,0E0,0E0,0E0,0E0,0E0,0E0,0E0,0E0,0E0,0E0,0E0],"parents":[2147483647,0,0,1,1,3,3,4,4,5,5,6,6,7,7,8,8,9,9,10,10,11,11,12,12,13,13,14,14,15,15,17,17,18,18,20,20,22,22,23,23,25,25,27,27,28,28,29,29],"right_children":[2,4,-1,6,8,10,12,14,16,18,20,22,24,26,28,30,-1,32,34,-1,36,-1,38,40,-1,42,-1,44,46,48,-1,-1,-1,-1,-1,-1,-1,-1,-1,-1,-1,-1,-1,-1,-1,-1,-1,-1,-1],"split_conditions":[5.958569E2,-5E-1,1.5009892E1,-4.3388373E-1,2.182263E2,1.2759806E2,3.3381668E2,2.3468167E2,9.659258E-1,2.4539883E2,2.3280984E3,2.018665E3,2.443201E3,2.3394167E3,2.0001283E3,5.9405286E2,-4.5394645E0,5.2968665E2,6.889216E1,2.0045342E0,8.698529E1,-1.740289E-1,1.88388E2,1.2616728E2,1.2169087E0,2.598579E2,2.834054E0,1.4189362E2,1.845745E3,-4.3388373E-1,3.703019E0,-1.2698478E0,-2.9578927E-1,-4.3910357E-1,5.2299803E-1,3.4832394E-1,1.1554236E0,3.0085816E0,1.7378924E0,3.5851095E0,2.2705495E0,1.3047545E0,-8.5810614E-1,-7.5511974E-1,1.6732063E0,-4.5012836E0,-1.6206034E0,-8.217556E-1,3.062271E-1],"split_indices":[11,37,0,38,24,16,0,2,37,24,4,4,4,6,7,11,0,10,35,0,35,0,31,13,0,3,0,23,4,38,0,0,0,0,0,0,0,0,0,0,0,0,0,0,0,0,0,0,0],"split_type":[0,0,0,0,0,0,0,0,0,0,0,0,0,0,0,0,0,0,0,0,0,0,0,0,0,0,0,0,0,0,0,0,0,0,0,0,0,0,0,0,0,0,0,0,0,0,0,0,0],"sum_hessian":[1.048E3,1.043E3,5E0,3.06E2,7.37E2,8E1,2.26E2,4.07E2,3.3E2,5.2E1,2.8E1,1.75E2,5.1E1,2.2E1,3.85E2,3.25E2,5E0,1.3E1,3.9E1,1.1E1,1.7E1,8E0,1.67E2,4.3E1,8E0,1.2E1,1E1,5.9E1,3.26E2,3.2E2,5E0,7E0,6E0,7E0,3.2E1,8E0,9E0,2.1E1,1.46E2,3.1E1,1.2E1,6E0,6E0,4.1E1,1.8E1,2.5E1,3.01E2,7.2E1,2.48E2],"tree_param":{"num_deleted":"0","num_feature":"40","num_nodes":"49","size_leaf_vector":"1"}},{"base_weights":[-4.1632277E-1,3.235113E1,-1.3305882E1,9.155217E0,3.9463287E1,-1.63429E1,6.612817E1,-1.8768936E0,2.5200924E1,3.0288067E1,4.829146E1,-2.1781821E0,-2.5933104E1,3.2512787E1,8.1157675E0,5.0423846E0,-1.2761812E1,1.8502239E0,1.4686389E1,-2.0529543E-1,3.257745E1,3.7958374E1,5.5495502E1,-1.7177849E1,3.292103E0,5.4045895E1,-2.814094E1,1.12876425E1,3.4116666E0,-2.4246307E-1,8.104248E0,-1.8585892E1,4.983246E-2,2.8274694E-1,9.5447296E-1,1.07901E1,3.628852E1,4.189831E1,8.999395E-1,7.581021E1,4.333658E1,-2.2022116E1,-7.1584475E-1,-7.937331E0,1.1466039E1,9.456467E-1,4.300502E0,-7.70727E1,-2.4609802E1,1.1248591E0,-4.6297637E-1,6.29898E-1,1.4323483E-1,-1.3115234E0,-3.2764515E-1,4.0833335E-2,7.434655E-1,2.5715787E0,1.5047506E0,1.7057812E0,2.5960145E0,4.8794646E0,3.008814E0,2.5549715E0,1.8674678E0,3.6761597E-1,-1.3298302E0,3.285116E-1,-3.3105972E-1,-9.4940466E-1,-4.084487E-2,-2.1847866E-1,9.578487E-1,1.9759301E0,-5.2070594E0,-1.0112569E0,-3.0541165E0],"categories":[],"categories_nodes":[],"categories_segments":[],"categories_sizes":[],"default_left":[0,0,0,0,0,0,0,0,0,0,0,0,0,0,0,0,0,0,0,0,0,0,0,0,0,0,0,0,0,0,0,0,0,0,0,0,0,0,0,0,0,0,0,0,0,0,0,0,0,0,0,0,0,0,0,0,0,0,0,0,0,0,0,0,0,0,0,0,0,0,0,0,0,0,0,0,0],"id":7,"left_children":[1,3,5,7,9,11,13,15,17,19,21,23,25,27,-1,29,31,-1,33,-1,35,37,39,41,43,45,47,49,-1,-1,51,53,-1,-1,-1,55,57,59,-1,61,63,65,67,69,71,-1,-1,73,75,-1,-1,-1,-1,-1,-1,-1,-1,-1,-1,-1,-1,-1,-1,-1,-1,-1,-1,-1,-1,-1,-1,-1,-1,-1,-1,-1,-1],"loss_changes":[4.443269E5,4.863078E4,1.8321381E5,1.261791E4,1.6916594E4,9.883405E4,8.5237516E4,3.3037004E3,3.0505273E3,9.11307E3,6.3702812E3,2.4263416E4,7.815431E4,1.5901678E4,0E0,8.573706E2,1.382499E3,0E0,5.655996E2,0E0,8.255156E3,3.1718672E3,1.2758047E4,6.281922E3,2.0009504E4,1.1838746E4,7.1181E4,3.6645015E3,0E0,0E0,4.5681018E2,9.2868115E2,0E0,0E0,0E0,6.779114E2,6.9787656E3,1.4180156E3,0E0,1.943E3,8.117969E1,8.394221E3,8.610175E2,7.2216396E3,1.5430816E4,0E0,0E0,9.248856E4,6.2084703E4,0E0,0E0,0E0,0E0,0E0,0E0,0E0,0E0,0E0,0E0,0E0,0E0,0E0,0E0,0E0,0E0,0E0,0E0,0E0,0E0,0E0,0E0,0E0,0E0,0E0,0E0,0E0,0E0],"parents":[2147483647,0,0,1,1,2,2,3,3,4,4,5,5,6,6,7,7,8,8,9,9,10,10,11,11,12,12,13,13,15,15,16,16,18,18,20,20,21,21,22,22,23,23,24,24,25,25,26,26,27,27,30,30,31,31,35,35,36,36,37,37,39,39,40,40,41,41,42,42,43,43,44,44,47,47,48,48],"right_children":[2,4,6,8,10,12,14,16,18,20,22,24,26,28,-1,30,32,-1,34,-1,36,38,40,42,44,46,48,50,-1,-1,52,54,-1,-1,-1,56,58,60,-1,62,64,66,68,70,72,-1,-1,74,76,-1,-1,-1,-1,-1,-1,-1,-1,-1,-1,-1,-1,-1,-1,-1,-1,-1,-1,-1,-1,-1,-1,-1,-1,-1,-1,-1,-1],"split_conditions":[-5E-1,-4.3388373E-1,5.8798834E2,3.4055E2,3.2875168E2,-2.5881904E-1,7.569144E1,-7.0710677E-1,2.3390283E3,2.018665E3,1.1266667E0,-4.3388373E-1,2.3273334E2,1.2615866E2,8.1157675E0,3.0436832E2,3.3334E2,1.8502239E0,1.4497847E2,-2.0529543E-1,2.1480392E1,3.3491165E2,1.25828255E2,3.3653833E2,1.2382819E2,2.1130532E3,1.845745E3,1.2170944E2,3.4116666E0,-2.4246307E-1,1.2447976E2,2.356085E3,4.983246E-2,2.8274694E-1,9.5447296E-1,3.2310165E2,7.9653595E1,2.36085E3,8.999395E-1,7.439706E1,1.2269E2,1.2289166E2,1.4643251E2,6.4946075E1,4.1382355E1,9.456467E-1,4.300502E0,9.3525E1,5.7087E2,1.1248591E0,-4.6297637E-1,6.29898E-1,1.4323483E-1,-1.3115234E0,-3.2764515E-1,4.0833335E-2,7.434655E-1,2.5715787E0,1.5047506E0,1.7057812E0,2.5960145E0,4.8794646E0,3.008814E0,2.5549715E0,1.8674678E0,3.6761597E-1,-1.3298302E0,3.285116E-1,-3.3105972E-1,-9.4940466E-1,-4.084487E-2,-2.1847866E-1,9.578487E-1,1.9759301E0,-5.2070594E0,-1.0112569E0,-3.0541165E0],"split_indices":[37,38,11,0,0,36,35,37,5,4,11,38,3,14,0,2,0,0,21,0,34,2,13,1,18,4,4,16,0,0,18,4,0,0,0,1,35,7,0,35,17,18,23,34,35,0,0,16,8,0,0,0,0,0,0,0,0,0,0,0,0,0,0,0,0,0,0,0,0,0,0,0,0,0,0,0,0],"split_type":[0,0,0,0,0,0,0,0,0,0,0,0,0,0,0,0,0,0,0,0,0,0,0,0,0,0,0,0,0,0,0,0,0,0,0,0,0,0,0,0,0,0,0,0,0,0,0,0,0,0,0,0,0,0,0,0,0,0,0,0,0,0,0,0,0,0,0,0,0,0,0,0,0,0,0,0,0],"sum_hessian":[1.05E3,2.96E2,7.54E2,7E1,2.26E2,7.27E2,2.7E1,4.2E1,2.8E1,1.13E2,1.13E2,2.94E2,4.33E2,2.1E1,6E0,2.6E1,1.6E1,1.2E1,1.6E1,7E0,1.06E2,4.9E1,6.4E1,7.8E1,2.16E2,1.1E1,4.22E2,1.4E1,7E0,6E0,2E1,1.1E1,5E0,6E0,1E1,1.6E1,9E1,4E1,9E0,2.2E1,4.2E1,6E1,1.8E1,9.1E1,1.25E2,6E0,5E0,2.7E1,3.95E2,9E0,5E0,1E1,1E1,6E0,5E0,5E0,1.1E1,2.4E1,6.6E1,2.5E1,1.5E1,7E0,1.5E1,1.5E1,2.7E1,8E0,5.2E1,8E0,1E1,3.5E1,5.6E1,4.1E1,8.4E1,5E0,2.2E1,3.54E2,4.1E1],"tree_param":{"num_deleted":"0","num_feature":"40","num_nodes":"77","size_leaf_vector":"1"}},{"base_weights":[4.820792E-2,2.964783E1,-1.1486583E1,5.2676743E1,2.6841625E1,-1.3080897E1,6.9701896E0,6.4644196E1,1.4166465E0,-5.0007586E0,3.0475428E1,-2.3649456E1,1.0398861E0,4.400145E0,4.8340256E1,-1.2148764E0,3.9278247E0,1.6475641E1,3.479262E1,-1.0949004E0,-3.04122E1,6.395128E0,-1.04076185E1,1.6719201E0,2.9225454E0,9.999296E-1,-6.256327E0,-6.402556E-1,1.9481468E1,3.0935452E1,5.4760887E1,-1.9856895E1,1.9642195E1,-2.8694471E1,-5.9185286E0,-3.3569808E0,1.9263239E1,-5.8399577E0,-2.1858202E1,-6.4673585E-1,1.8371232E-1,-1.9832122E-1,1.1870174E0,2.6885787E-1,1.6149197E0,1.1864008E0,3.2991319E0,-1.4533774E0,1.4195788E0,5.8613265E-1,3.6554277E0,-5.5589695E0,-1.3528948E0,-6.343704E-1,7.1588105E-1,2.1978202E0,4.1430745E-1,-5.974797E-2,-6.5816164E-1,-1.5186447E0,-2.5774056E-1],"categories":[],"categories_nodes":[],"categories_segments":[],"categories_sizes":[],"default_left":[0,0,0,0,0,0,0,0,0,0,0,0,0,0,0,0,0,0,0,0,0,0,0,0,0,0,0,0,0,0,0,0,0,0,0,0,0,0,0,0,0,0,0,0,0,0,0,0,0,0,0,0,0,0,0,0,0,0,0,0,0],"id":8,"left_children":[1,3,5,7,9,11,-1,13,-1,15,17,19,21,-1,23,-1,25,27,29,31,33,35,37,-1,-1,-1,39,-1,41,43,45,47,49,51,-1,53,55,57,59,-1,-1,-1,-1,-1,-1,-1,-1,-1,-1,-1,-1,-1,-1,-1,-1,-1,-1,-1,-1,-1,-1],"loss_changes":[3.591805E5,1.7642156E4,1.8391997E5,7.1904688E3,3.0817828E4,1.119541E5,0E0,3.3490625E3,0E0,4.921672E3,1.38063125E4,6.539925E4,1.9806094E4,0E0,1.4565234E2,0E0,3.3998347E3,5.354877E3,1.2238172E4,3.9296984E4,4.6448E4,2.7674324E4,5.2567227E3,0E0,0E0,0E0,9.106144E2,0E0,5.3888125E3,5.187047E3,8.176211E3,2.4378535E4,1.9459086E4,4.0850562E4,0E0,2.096035E4,2.5381156E4,2.5340796E3,3.9643838E3,0E0,0E0,0E0,0E0,0E0,0E0,0E0,0E0,0E0,0E0,0E0,0E0,0E0,0E0,0E0,0E0,0E0,0E0,0E0,0E0,0E0,0E0],"parents":[2147483647,0,0,1,1,2,2,3,3,4,4,5,5,7,7,9,9,10,10,11,11,12,12,14,14,16,16,17,17,18,18,19,19,20,20,21,21,22,22,26,26,28,28,29,29,30,30,31,31,32,32,33,33,35,35,36,36,37,37,38,38],"right_children":[2,4,6,8,10,12,-1,14,-1,16,18,20,22,-1,24,-1,26,28,30,32,34,36,38,-1,-1,-1,40,-1,42,44,46,48,50,52,-1,54,56,58,60,-1,-1,-1,-1,-1,-1,-1,-1,-1,-1,-1,-1,-1,-1,-1,-1,-1,-1,-1,-1,-1,-1],"split_conditions":[-5E-1,1.88388E2,5.95393E2,9.165686E1,1.284825E2,2.1561041E2,6.9701896E0,2.6712445E2,1.4166465E0,2.3810655E2,2.4487306E2,2.4410188E2,2.9143555E2,4.400145E0,2.4594556E2,-1.2148764E0,1.21291664E2,4.897059E0,5.2968665E2,1.23929E2,1.2E3,2.8140833E2,2.3533384E3,1.6719201E0,2.9225454E0,9.999296E-1,2.3348552E3,-6.402556E-1,2.2744482E3,2.01996E3,2.3302766E3,4.9119208E2,1.14223335E2,4.769608E0,-5.9185286E0,2.523252E2,5.4943E2,1.4627792E2,2.5033884E2,-6.4673585E-1,1.8371232E-1,-1.9832122E-1,1.1870174E0,2.6885787E-1,1.6149197E0,1.1864008E0,3.2991319E0,-1.4533774E0,1.4195788E0,5.8613265E-1,3.6554277E0,-5.5589695E0,-1.3528948E0,-6.343704E-1,7.1588105E-1,2.1978202E0,4.1430745E-1,-5.974797E-2,-6.5816164E-1,-1.5186447E0,-2.5774056E-1],"split_indices":[37,31,10,35,22,24,0,29,0,24,24,1,31,0,30,0,16,32,11,24,17,10,4,0,0,0,6,0,5,5,6,8,17,32,0,24,10,23,24,0,0,0,0,0,0,0,0,0,0,0,0,0,0,0,0,0,0,0,0,0,0],"split_type":[0,0,0,0,0,0,0,0,0,0,0,0,0,0,0,0,0,0,0,0,0,0,0,0,0,0,0,0,0,0,0,0,0,0,0,0,0,0,0,0,0,0,0,0,0,0,0,0,0,0,0,0,0,0,0,0,0,0,0,0,0],"sum_hessian":[1.05E3,2.94E2,7.56E2,3E1,2.64E2,7.49E2,7E0,1.9E1,1.1E1,2.7E1,2.37E2,4.28E2,3.21E2,6E0,1.3E1,8E0,1.9E1,5.7E1,1.8E2,9.9E1,3.29E2,2.19E2,1.02E2,7E0,6E0,7E0,1.2E1,5E0,5.2E1,1.53E2,2.7E1,5.2E1,4.7E1,3.24E2,5E0,1.25E2,9.4E1,7.4E1,2.8E1,7E0,5E0,8E0,4.4E1,8E0,1.45E2,8E0,1.9E1,4.4E1,8E0,4.2E1,5E0,5E0,3.19E2,8.2E1,4.3E1,2.8E1,6.6E1,4.6E1,2.8E1,1.8E1,1E1],"tree_param":{"num_deleted":"0","num_feature":"40","num_nodes":"61","size_leaf_vector":"1"}},{"base_weights":[9.79303E-1,2.9606934E1,-1.1139625E1,6.1888537E0,3.6954376E1,-1.2669005E1,6.4229083E0,-2.037042E1,1.3169847E1,4.915131E0,3.865597E1,-2.3475994E1,4.898419E-1,-1.5179907E0,-4.6082345E-1,6.6963677E0,2.6781227E1,-4.3384176E-1,1.1117616E0,2.1254892E1,4.1565872E1,5.5663447E0,-3.0708733E1,-1.905227E1,6.181679E0,-2.011595E0,1.1125763E1,5.4197395E-1,3.169332E1,1.2233887E1,3.0632654E1,3.7308685E1,5.5249535E1,-1.2178667E1,2.4536196E1,-9.371371E1,-2.6615723E1,-3.3658325E1,-1.538609E1,-6.9581513E0,1.2374652E1,1.8811192E-1,-4.5810053E-1,6.985316E-1,1.1273807E-1,9.617338E-1,1.8233244E0,2.3432313E-2,8.8101286E-1,7.614572E-1,1.9170923E0,2.5335586E0,1.7473496E0,3.4524841E0,1.7960942E0,-1.9311665E-2,-3.1117866E0,4.6799237E-1,3.3800812E0,-1.2088527E-1,-6.3069797E0,-9.5264006E-1,-2.0039127E0,-2.1801338E0,-1.1638917E0,2.5586268E-1,-8.858839E-1,-8.1444263E-1,1.872322E-1,7.538417E-1,-1.4391322E0],"categories":[],"categories_nodes":[],"categories_segments":[],"categories_sizes":[],"default_left":[0,0,0,0,0,0,0,0,0,0,0,0,0,0,0,0,0,0,0,0,0,0,0,0,0,0,0,0,0,0,0,0,0,0,0,0,0,0,0,0,0,0,0,0,0,0,0,0,0,0,0,0,0,0,0,0,0,0,0,0,0,0,0,0,0,0,0,0,0,0,0],"id":9,"left_children":[1,3,5,7,9,11,-1,13,15,17,19,21,23,-1,-1,25,27,-1,-1,29,31,33,35,37,39,41,43,-1,45,47,49,51,53,55,57,59,61,63,65,67,69,-1,-1,-1,-1,-1,-1,-1,-1,-1,-1,-1,-1,-1,-1,-1,-1,-1,-1,-1,-1,-1,-1,-1,-1,-1,-1,-1,-1,-1,-1],"loss_changes":[3.6045144E5,5.2934406E4,1.5746956E5,1.4173312E4,1.2617375E4,1.02829836E5,0E0,1.4989717E3,5.1040947E3,3.2546719E3,1.0401906E4,8.356558E4,3.6488867E4,0E0,0E0,1.6432743E3,1.1400469E3,0E0,0E0,2.497248E3,8.997719E3,2.7229672E4,7.949956E4,3.4398105E3,2.07558E4,6.5428925E2,6.7350854E2,0E0,1.25549805E2,1.194E3,1.310708E3,2.89125E3,8.97825E3,2.4762076E4,2.4849021E4,5.592889E4,2.9775297E4,4.2351855E2,3.0080518E3,8.251146E3,1.967269E4,0E0,0E0,0E0,0E0,0E0,0E0,0E0,0E0,0E0,0E0,0E0,0E0,0E0,0E0,0E0,0E0,0E0,0E0,0E0,0E0,0E0,0E0,0E0,0E0,0E0,0E0,0E0,0E0,0E0,0E0],"parents":[2147483647,0,0,1,1,2,2,3,3,4,4,5,5,7,7,8,8,9,9,10,10,11,11,12,12,15,15,16,16,19,19,20,20,21,21,22,22,23,23,24,24,25,25,26,26,28,28,29,29,30,30,31,31,32,32,33,33,34,34,35,35,36,36,37,37,38,38,39,39,40,40],"right_children":[2,4,6,8,10,12,-1,14,16,18,20,22,24,-1,-1,26,28,-1,-1,30,32,34,36,38,40,42,44,-1,46,48,50,52,54,56,58,60,62,64,66,68,70,-1,-1,-1,-1,-1,-1,-1,-1,-1,-1,-1,-1,-1,-1,-1,-1,-1,-1,-1,-1,-1,-1,-1,-1,-1,-1,-1,-1,-1,-1],"split_conditions":[-5E-1,-4.3388373E-1,5.95393E2,2.4539883E2,3.0597665E2,2.1561041E2,6.4229083E0,2.834E2,3.4342166E2,1.3771257E2,-5E-1,2.4304666E2,-4.3388373E-1,-1.5179907E0,-4.6082345E-1,2.906558E2,1.984955E3,-4.3384176E-1,1.1117616E0,5.142883E2,5.0983447E2,2.2773018E3,1.845745E3,1.4011154E2,4.897549E1,2.876461E2,1.2513871E2,5.4197395E-1,2.975185E2,6.1112747E1,3.2752728E2,1.8937778E2,1.2597191E2,1.0274028E2,1.2466464E2,1.17082504E2,8.660254E-1,2.6631046E2,1.237147E2,3.2693E2,2.6897723E2,1.8811192E-1,-4.5810053E-1,6.985316E-1,1.1273807E-1,9.617338E-1,1.8233244E0,2.3432313E-2,8.8101286E-1,7.614572E-1,1.9170923E0,2.5335586E0,1.7473496E0,3.4524841E0,1.7960942E0,-1.9311665E-2,-3.1117866E0,4.6799237E-1,3.3800812E0,-1.2088527E-1,-6.3069797E0,-9.5264006E-1,-2.0039127E0,-2.1801338E0,-1.1638917E0,2.5586268E-1,-8.858839E-1,-8.1444263E-1,1.872322E-1,7.538417E-1,-1.4391322E0],"split_indices":[37,38,10,24,1,24,0,10,1,20,36,1,38,0,0,28,7,0,0,11,11,4,4,21,33,28,15,0,28,33,1,31,14,17,13,22,36,28,18,1,26,0,0,0,0,0,0,0,0,0,0,0,0,0,0,0,0,0,0,0,0,0,0,0,0,0,0,0,0,0,0],"split_type":[0,0,0,0,0,0,0,0,0,0,0,0,0,0,0,0,0,0,0,0,0,0,0,0,0,0,0,0,0,0,0,0,0,0,0,0,0,0,0,0,0,0,0,0,0,0,0,0,0,0,0,0,0,0,0,0,0,0,0,0,0,0,0,0,0,0,0,0,0,0,0],"sum_hessian":[1.037E3,3.08E2,7.29E2,7.4E1,2.34E2,7.22E2,7E0,1.5E1,5.9E1,1.2E1,2.22E2,3.96E2,3.26E2,7E0,8E0,4.1E1,1.8E1,7E0,5E0,3.3E1,1.89E2,7.9E1,3.17E2,7.3E1,2.53E2,1.4E1,2.7E1,5E0,1.3E1,1.8E1,1.5E1,1.47E2,4.2E1,4.1E1,3.8E1,1.8E1,2.99E2,1.3E1,6E1,8.1E1,1.72E2,8E0,6E0,2E1,7E0,5E0,8E0,6E0,1.2E1,6E0,9E0,1.9E1,1.28E2,2.3E1,1.9E1,3.4E1,7E0,2.9E1,9E0,5E0,1.3E1,1.93E2,1.06E2,5E0,8E0,6E0,5.4E1,4.3E1,3.8E1,1.62E2,1E1],"tree_param":{"num_deleted":"0","num_feature":"40","num_nodes":"71","size_leaf_vector":"1"}},{"base_weights":[3.2619834E-1,2.7800478E1,-1.0532637E1,8.21798E0,3.434922E1,-1.3285387E1,7.753024E1,1.3894407E1,-9.537322E0,-7.0934236E-1,3.575707E1,-8.081759E1,-1.098051E1,1.0702919E1,1.6746286E1,8.256659E0,2.5958477E1,-1.0073066E0,5.526455E-4,1.8255203E1,3.8796234E1,-4.1496124E1,-9.592465E0,-2.0015121E1,-8.911477E-1,2.0200784E0,-1.9212848E-1,-1.0893118E-1,1.08554735E1,6.1216635E-1,1.5893722E0,2.5402483E-1,-2.531408E-1,2.4299083E0,7.045901E0,4.042232E1,7.144894E-1,2.5831532E-1,-6.915473E1,5.7690403E1,-2.2308653E1,-1.6444075E1,4.2757974E0,6.772559E-1,3.7234727E-2,-9.523489E-2,9.716754E-1,2.1800232E0,1.3366796E0,-2.1256578E0,-4.4347057E0,1.2390921E0,4.048362E0,-6.0898083E-1,-1.7501888E0,-1.1791061E0,-2.3474549E-1,-3.358327E-1,5.0898755E-1],"categories":[],"categories_nodes":[],"categories_segments":[],"categories_sizes":[],"default_left":[0,0,0,0,0,0,0,0,0,0,0,0,0,0,0,0,0,0,0,0,0,0,0,0,0,0,0,0,0,0,0,0,0,0,0,0,0,0,0,0,0,0,0,0,0,0,0,0,0,0,0,0,0,0,0,0,0,0,0],"id":10,"left_children":[1,3,5,7,9,11,13,15,17,-1,19,21,23,-1,25,27,29,-1,31,33,35,37,-1,39,41,-1,-1,-1,43,-1,-1,-1,-1,-1,45,47,-1,-1,49,51,53,55,57,-1,-1,-1,-1,-1,-1,-1,-1,-1,-1,-1,-1,-1,-1,-1,-1],"loss_changes":[3.1384847E5,3.7929203E4,1.8380462E5,7.792739E3,1.5747375E4,1.1304173E5,1.872628E5,3.7270723E3,1.9245502E3,0E0,1.0828531E4,9.6797984E4,6.460789E4,0E0,8.4385E3,1.1364114E3,1.0454238E3,0E0,3.0866132E2,1.1216215E4,6.7492188E3,2.4885416E4,0E0,6.793778E4,2.7072867E4,0E0,0E0,0E0,8.8589966E2,0E0,0E0,0E0,0E0,0E0,2.9215571E3,6.3101875E3,0E0,0E0,2.4629258E3,6.4089844E3,4.6375484E4,6.931207E3,1.6488148E4,0E0,0E0,0E0,0E0,0E0,0E0,0E0,0E0,0E0,0E0,0E0,0E0,0E0,0E0,0E0,0E0],"parents":[2147483647,0,0,1,1,2,2,3,3,4,4,5,5,6,6,7,7,8,8,10,10,11,11,12,12,14,14,15,15,16,16,18,18,19,19,20,20,21,21,23,23,24,24,28,28,34,34,35,35,38,38,39,39,40,40,41,41,42,42],"right_children":[2,4,6,8,10,12,14,16,18,-1,20,22,24,-1,26,28,30,-1,32,34,36,38,-1,40,42,-1,-1,-1,44,-1,-1,-1,-1,-1,46,48,-1,-1,50,52,54,56,58,-1,-1,-1,-1,-1,-1,-1,-1,-1,-1,-1,-1,-1,-1,-1,-1],"split_conditions":[-5E-1,-4.3388373E-1,5.90335E2,-7.0710677E-1,2.018665E3,1.790335E3,1.3140295E-1,3.4342166E2,7.744118E1,-7.0934236E-1,3.18355E2,1.8091956E2,3.0748666E2,1.0702919E1,1.1499333E2,3.0299667E2,1.9944417E3,-1.0073066E0,2.872311E2,2.4779222E2,2.4814167E3,1.09818054E2,-9.592465E0,2.2747E2,-4.3388373E-1,2.0200784E0,-1.9212848E-1,-1.0893118E-1,2.4103633E3,6.1216635E-1,1.5893722E0,2.5402483E-1,-2.531408E-1,2.4299083E0,3.1798166E2,9.749279E-1,7.144894E-1,2.5831532E-1,1.2519114E2,1.2474401E2,2.2917067E2,2.4553606E2,5.1715687E1,6.772559E-1,3.7234727E-2,-9.523489E-2,9.716754E-1,2.1800232E0,1.3366796E0,-2.1256578E0,-4.4347057E0,1.2390921E0,4.048362E0,-6.0898083E-1,-1.7501888E0,-1.1791061E0,-2.3474549E-1,-3.358327E-1,5.0898755E-1],"split_indices":[37,38,8,37,4,4,14,1,35,0,0,25,0,0,18,2,7,0,29,28,4,20,0,1,38,0,0,0,4,0,0,0,0,0,1,38,0,0,13,14,28,25,33,0,0,0,0,0,0,0,0,0,0,0,0,0,0,0,0],"split_type":[0,0,0,0,0,0,0,0,0,0,0,0,0,0,0,0,0,0,0,0,0,0,0,0,0,0,0,0,0,0,0,0,0,0,0,0,0,0,0,0,0,0,0,0,0,0,0,0,0,0,0,0,0,0,0,0,0,0,0],"sum_hessian":[1.05E3,2.97E2,7.53E2,7.5E1,2.22E2,7.31E2,2.2E1,5.7E1,1.8E1,6E0,2.16E2,2.3E1,7.08E2,6E0,1.6E1,4E1,1.7E1,8E0,1E1,3.3E1,1.83E2,1.8E1,5E0,3.73E2,3.35E2,7E0,9E0,8E0,3.2E1,6E0,1.1E1,5E0,5E0,8E0,2.5E1,1.71E2,1.2E1,7E0,1.1E1,1E1,3.63E2,8.3E1,2.52E2,2.5E1,7E0,1.5E1,1E1,1.37E2,3.4E1,6E0,5E0,5E0,5E0,2.03E2,1.6E2,5.1E1,3.2E1,8.8E1,1.64E2],"tree_param":{"num_deleted":"0","num_feature":"40","num_nodes":"59","size_leaf_vector":"1"}},{"base_weights":[-5.279126E-1,-2.0848756E0,1.0038153E1,2.5822838E1,-1.3313339E1,6.938627E0,3.2285107E1,-2.3753857E1,1.0974478E0,-1.8379854E1,1.2858287E1,1.2917866E1,3.537651E1,-2.1709944E1,-6.4166536E0,-1.2037999E1,5.622613E0,-1.4311587E0,-2.9132771E-1,7.9381924E0,2.569865E1,-2.2317986E-1,1.796722E1,2.2431347E1,3.959367E1,1.9769629E1,-2.6481085E1,-1.936426E1,1.4267136E1,3.636101E1,3.6314704E0,-1.0152539E-1,5.5216825E-1,1.6073525E0,7.20666E-1,5.469613E-1,1.3702644E0,3.0047176E0,8.391704E-1,7.760069E-1,2.0847843E0,1.9450665E0,-9.902539E-1,-1.8951914E0,-7.305388E-1,-1.143072E0,-5.028515E-1,2.3313656E0,-8.790544E-2,3.8387185E-1,3.6654766E0,-7.4604315E-1,3.6815956E-1],"categories":[],"categories_nodes":[],"categories_segments":[],"categories_sizes":[],"default_left":[0,0,0,0,0,0,0,0,0,0,0,0,0,0,0,0,0,0,0,0,0,0,0,0,0,0,0,0,0,0,0,0,0,0,0,0,0,0,0,0,0,0,0,0,0,0,0,0,0,0,0,0,0],"id":11,"left_children":[1,3,-1,5,7,9,11,13,15,17,19,21,23,25,-1,27,29,-1,-1,31,33,-1,35,37,39,41,43,45,47,49,51,-1,-1,-1,-1,-1,-1,-1,-1,-1,-1,-1,-1,-1,-1,-1,-1,-1,-1,-1,-1,-1,-1],"loss_changes":[3.2665078E5,3.2435756E5,0E0,3.6016406E4,1.110649E5,1.1776296E4,1.2769891E4,8.868428E4,1.8552902E4,1.7585923E3,3.772711E3,2.8900337E3,9.478078E3,8.384216E4,0E0,1.5694243E4,1.4063406E4,0E0,0E0,1.478188E3,7.691279E2,0E0,1.3546396E3,9.406928E3,6.532797E3,3.4086133E4,5.06945E4,1.8173809E3,9.420898E3,1.4266492E4,1.5270943E4,0E0,0E0,0E0,0E0,0E0,0E0,0E0,0E0,0E0,0E0,0E0,0E0,0E0,0E0,0E0,0E0,0E0,0E0,0E0,0E0,0E0,0E0],"parents":[2147483647,0,0,1,1,3,3,4,4,5,5,6,6,7,7,8,8,9,9,10,10,11,11,12,12,13,13,15,15,16,16,19,19,20,20,22,22,23,23,24,24,25,25,26,26,27,27,28,28,29,29,30,30],"right_children":[2,4,-1,6,8,10,12,14,16,18,20,22,24,26,-1,28,30,-1,-1,32,34,-1,36,38,40,42,44,46,48,50,52,-1,-1,-1,-1,-1,-1,-1,-1,-1,-1,-1,-1,-1,-1,-1,-1,-1,-1,-1,-1,-1,-1],"split_conditions":[5.958569E2,-5E-1,1.0038153E1,-4.3388373E-1,2.2377405E2,2.4539883E2,-5E-1,5.23935E2,-4.3388373E-1,2.834E2,3.4320667E2,3.1975833E2,2.2933267E3,1.9188112E2,-6.4166536E0,3.3668668E2,2.4331667E2,-1.4311587E0,-2.9132771E-1,3.0436832E2,2.3280984E3,-2.2317986E-1,3.35985E2,2.8700981E1,1.9588236E1,1.2573487E2,2.7741553E2,3.3378665E2,1.2454617E2,2.1774216E3,1.3968195E2,-1.0152539E-1,5.5216825E-1,1.6073525E0,7.20666E-1,5.469613E-1,1.3702644E0,3.0047176E0,8.391704E-1,7.760069E-1,2.0847843E0,1.9450665E0,-9.902539E-1,-1.8951914E0,-7.305388E-1,-1.143072E0,-5.028515E-1,2.3313656E0,-8.790544E-2,3.8387185E-1,3.6654766E0,-7.4604315E-1,3.6815956E-1],"split_indices":[11,37,0,38,24,24,36,3,38,10,0,0,5,29,0,0,3,0,0,2,5,0,2,32,34,15,10,1,17,5,22,0,0,0,0,0,0,0,0,0,0,0,0,0,0,0,0,0,0,0,0,0,0],"split_type":[0,0,0,0,0,0,0,0,0,0,0,0,0,0,0,0,0,0,0,0,0,0,0,0,0,0,0,0,0,0,0,0,0,0,0,0,0,0,0,0,0,0,0,0,0,0,0,0,0,0,0,0,0],"sum_hessian":[1.04E3,1.033E3,7E0,2.96E2,7.37E2,7.6E1,2.2E2,4.27E2,3.1E2,1.4E1,6.2E1,3.1E1,1.89E2,4.2E2,7E0,7.9E1,2.31E2,7E0,7E0,4.6E1,1.6E1,7E0,2.4E1,4.8E1,1.41E2,4.3E1,3.77E2,6.2E1,1.7E1,1.3E1,2.18E2,1.1E1,3.5E1,9E0,7E0,1.5E1,9E0,5E0,4.3E1,1.2E1,1.29E2,2.9E1,1.4E1,1.91E2,1.86E2,4.4E1,1.8E1,5E0,1.2E1,8E0,5E0,3.6E1,1.82E2],"tree_param":{"num_deleted":"0","num_feature":"40","num_nodes":"53","size_leaf_vector":"1"}},{"base_weights":[5.315416E-1,-9.079614E-1,1.0758075E1,2.4357292E1,-1.1272103E1,5.0813704E0,3.0208834E1,-2.0998878E1,1.1064405E0,-6.380681E0,1.9611456E1,5.0643196E0,3.280606E1,-3.333325E1,-8.443411E0,-1.2604756E1,5.097079E0,-1.8146515E1,1.1013973E0,1.477569E0,1.2164931E1,1.2077097E0,-6.720559E0,2.8957163E1,4.4311283E1,-4.785003E0,-3.0047739E1,-3.777686E1,1.2716533E1,-1.891545E1,1.8454296E1,-5.9270906E0,1.0579769E1,-1.4829783E0,-5.1039475E-1,-5.473041E-1,2.2479244E-1,7.423689E-2,8.314481E-1,-6.547469E-1,2.503416E-1,6.1279345E-1,1.5968201E0,2.4556332E0,6.176146E-1,-1.3484992E0,-4.617841E0,-3.8133466E0,-1.1787286E0,3.6223707E-1,2.4083061E0,-1.0507324E0,2.83027E-2,2.1261272E0,-9.455875E-2,-9.03047E-1,1.9001351E-1,1.8128008E0,2.7387843E-1],"categories":[],"categories_nodes":[],"categories_segments":[],"categories_sizes":[],"default_left":[0,0,0,0,0,0,0,0,0,0,0,0,0,0,0,0,0,0,0,0,0,0,0,0,0,0,0,0,0,0,0,0,0,0,0,0,0,0,0,0,0,0,0,0,0,0,0,0,0,0,0,0,0,0,0,0,0,0,0],"id":12,"left_children":[1,3,-1,5,7,9,11,13,15,17,19,21,23,25,27,29,31,33,35,-1,37,-1,39,41,43,-1,45,47,49,51,53,55,57,-1,-1,-1,-1,-1,-1,-1,-1,-1,-1,-1,-1,-1,-1,-1,-1,-1,-1,-1,-1,-1,-1,-1,-1,-1,-1],"loss_changes":[3.2462525E5,2.7364744E5,0E0,3.4132297E4,8.924408E4,1.2117666E4,1.5046391E4,6.3982844E4,1.7955768E4,3.6310396E3,2.0049111E3,5.3384253E3,8.0531406E3,3.993733E4,1.2896657E5,1.4853425E4,1.5415467E4,1.1556157E3,1.111826E3,0E0,9.2703296E2,0E0,1.1876956E3,7.6150625E3,7.213008E3,0E0,3.585164E4,4.5750344E4,2.3116213E4,2.549461E3,6.4503184E3,1.0102641E4,2.2068143E4,0E0,0E0,0E0,0E0,0E0,0E0,0E0,0E0,0E0,0E0,0E0,0E0,0E0,0E0,0E0,0E0,0E0,0E0,0E0,0E0,0E0,0E0,0E0,0E0,0E0,0E0],"parents":[2147483647,0,0,1,1,3,3,4,4,5,5,6,6,7,7,8,8,9,9,10,10,11,11,12,12,13,13,14,14,15,15,16,16,17,17,18,18,20,20,22,22,23,23,24,24,26,26,27,27,28,28,29,29,30,30,31,31,32,32],"right_children":[2,4,-1,6,8,10,12,14,16,18,20,22,24,26,28,30,32,34,36,-1,38,-1,40,42,44,-1,46,48,50,52,54,56,58,-1,-1,-1,-1,-1,-1,-1,-1,-1,-1,-1,-1,-1,-1,-1,-1,-1,-1,-1,-1,-1,-1,-1,-1,-1,-1],"split_conditions":[5.958569E2,-5E-1,1.0758075E1,-4.3388373E-1,2.182263E2,3.4055E2,3.1670166E2,4.1239E2,-4.3388373E-1,2.4539883E2,2.3280984E3,2.5737756E2,3.3381668E2,1.7213184E3,4.49951E1,3.36285E2,4.897549E1,5.1869666E2,2.92265E2,1.477569E0,3.1943E2,1.2077097E0,3.1461835E2,2.2181372E1,3.1819168E2,-4.785003E0,1.3014278E2,8.717038E0,1.332375E2,2.44842E3,1.2417819E2,2.4689238E2,6.720098E1,-1.4829783E0,-5.1039475E-1,-5.473041E-1,2.2479244E-1,7.423689E-2,8.314481E-1,-6.547469E-1,2.503416E-1,6.1279345E-1,1.5968201E0,2.4556332E0,6.176146E-1,-1.3484992E0,-4.617841E0,-3.8133466E0,-1.1787286E0,3.6223707E-1,2.4083061E0,-1.0507324E0,2.83027E-2,2.1261272E0,-9.455875E-2,-9.03047E-1,1.9001351E-1,1.8128008E0,2.7387843E-1],"split_indices":[11,37,0,38,24,0,0,11,38,24,4,29,0,4,33,0,34,8,2,0,2,0,1,34,3,0,18,34,20,4,16,25,35,0,0,0,0,0,0,0,0,0,0,0,0,0,0,0,0,0,0,0,0,0,0,0,0,0,0],"split_type":[0,0,0,0,0,0,0,0,0,0,0,0,0,0,0,0,0,0,0,0,0,0,0,0,0,0,0,0,0,0,0,0,0,0,0,0,0,0,0,0,0,0,0,0,0,0,0,0,0,0,0,0,0,0,0,0,0,0,0],"sum_hessian":[1.049E3,1.043E3,6E0,3.03E2,7.4E2,7.1E1,2.32E2,4.14E2,3.26E2,4E1,3.1E1,2.2E1,2.1E2,2.08E2,2.06E2,7.3E1,2.53E2,1.5E1,2.5E1,1.2E1,1.9E1,8E0,1.4E1,1.6E2,5E1,9E0,1.99E2,8.6E1,1.2E2,6.1E1,1.2E1,8.4E1,1.69E2,5E0,1E1,5E0,2E1,6E0,1.3E1,9E0,5E0,2.5E1,1.35E2,4.3E1,7E0,1.91E2,8E0,2.2E1,6.4E1,1.05E2,1.5E1,5.5E1,6E0,5E0,7E0,3.7E1,4.7E1,2.7E1,1.42E2],"tree_param":{"num_deleted":"0","num_feature":"40","num_nodes":"59","size_leaf_vector":"1"}},{"base_weights":[1.2640826E0,5.5182293E-2,1.0589418E1,2.3632072E1,-9.725981E0,6.036622E0,2.8899616E1,-8.46882E1,-8.16364E0,-5.428654E0,1.3897591E1,2.49379E1,4.148203E1,-1.2816414E0,-8.449123E0,2.0337791E0,-1.5984372E1,-9.33252E-1,2.2844239E-1,1.9851384E0,1.7927336E1,9.28098E0,2.7604713E1,4.6554653E1,6.994879E-1,-6.7836514E0,6.908465E0,-1.370374E1,-9.0665054E1,-5.117395E-1,2.3990396E-1,-6.602962E-2,2.7638173E-1,5.882699E-1,1.250115E0,-6.849139E-2,8.12957E-1,1.9729623E0,1.1197752E0,1.9978478E0,3.1952894E0,-4.6928167E-1,9.093984E-1,1.05044864E-1,1.5440786E0,-1.4381917E0,1.6784469E-2,-5.679594E0,-2.9023528E0],"categories":[],"categories_nodes":[],"categories_segments":[],"categories_sizes":[],"default_left":[0,0,0,0,0,0,0,0,0,0,0,0,0,0,0,0,0,0,0,0,0,0,0,0,0,0,0,0,0,0,0,0,0,0,0,0,0,0,0,0,0,0,0,0,0,0,0,0,0],"id":13,"left_children":[1,3,-1,5,7,9,11,13,15,17,19,21,23,-1,-1,25,27,-1,29,31,33,35,37,39,-1,41,43,45,47,-1,-1,-1,-1,-1,-1,-1,-1,-1,-1,-1,-1,-1,-1,-1,-1,-1,-1,-1,-1],"loss_changes":[2.6744962E5,2.4144867E5,0E0,2.8276297E4,8.596558E4,6.5655205E3,1.0722984E4,7.0319484E4,5.7933336E4,2.252493E3,2.0265986E3,7.3393516E3,7.0128516E3,0E0,0E0,1.3629253E4,6.874825E4,0E0,1.1004534E3,1.4824693E2,1.0972178E3,2.104806E3,8.681781E3,2.7020938E3,0E0,7.5120796E3,2.34433E4,8.458655E4,2.3630938E3,0E0,0E0,0E0,0E0,0E0,0E0,0E0,0E0,0E0,0E0,0E0,0E0,0E0,0E0,0E0,0E0,0E0,0E0,0E0,0E0],"parents":[2147483647,0,0,1,1,3,3,4,4,5,5,6,6,7,7,8,8,9,9,10,10,11,11,12,12,15,15,16,16,18,18,19,19,20,20,21,21,22,22,23,23,25,25,26,26,27,27,28,28],"right_children":[2,4,-1,6,8,10,12,14,16,18,20,22,24,-1,-1,26,28,-1,30,32,34,36,38,40,-1,42,44,46,48,-1,-1,-1,-1,-1,-1,-1,-1,-1,-1,-1,-1,-1,-1,-1,-1,-1,-1,-1,-1],"split_conditions":[5.958569E2,-5E-1,1.0589418E1,-4.3388373E-1,1.524605E3,3.3653833E2,3.3378665E2,1.1593958E2,-2.5881904E-1,7.744118E1,8.284314E0,2.0142157E1,3.2508304E2,-1.2816414E0,-8.449123E0,4.897549E1,1.2750903E2,-9.33252E-1,2.865011E2,1.2759806E2,3.4342166E2,3.2464334E2,8.3135025E1,2.4164565E3,6.994879E-1,2.6483203E2,5.7233887E2,1.1266667E0,2.4934134E2,-5.117395E-1,2.3990396E-1,-6.602962E-2,2.7638173E-1,5.882699E-1,1.250115E0,-6.849139E-2,8.12957E-1,1.9729623E0,1.1197752E0,1.9978478E0,3.1952894E0,-4.6928167E-1,9.093984E-1,1.05044864E-1,1.5440786E0,-1.4381917E0,1.6784469E-2,-5.679594E0,-2.9023528E0],"split_indices":[11,37,0,38,4,1,1,18,36,35,32,32,3,0,0,33,13,0,28,16,1,1,35,5,0,26,11,8,28,0,0,0,0,0,0,0,0,0,0,0,0,0,0,0,0,0,0,0,0],"split_type":[0,0,0,0,0,0,0,0,0,0,0,0,0,0,0,0,0,0,0,0,0,0,0,0,0,0,0,0,0,0,0,0,0,0,0,0,0,0,0,0,0,0,0,0,0,0,0,0,0],"sum_hessian":[1.05E3,1.045E3,5E0,3.06E2,7.39E2,7.1E1,2.35E2,1.4E1,7.25E2,2.9E1,4.2E1,1.81E2,5.4E1,9E0,5E0,3.15E2,4.1E2,8E0,2.1E1,1.1E1,3.1E1,2.7E1,1.54E2,4.5E1,9E0,1.12E2,2.03E2,3.99E2,1.1E1,6E0,1.5E1,6E0,5E0,1.8E1,1.3E1,1.1E1,1.6E1,4.5E1,1.09E2,3.5E1,1E1,1.02E2,1E1,1.7E2,3.3E1,1.92E2,2.07E2,5E0,6E0],"tree_param":{"num_deleted":"0","num_feature":"40","num_nodes":"49","size_leaf_vector":"1"}},{"base_weights":[-7.399724E-1,-1.7526566E1,1.2966285E1,4.0683456E1,-2.0772219E1,1.1217423E1,6.742316E0,1.2457276E-3,5.648817E1,-3.2610348E1,-6.615265E0,2.0898787E1,2.2853324E0,3.6344821E0,1.8124014E0,-2.9605257E1,-7.267943E0,-2.099607E1,1.0618979E1,5.0824885E0,2.7264013E1,4.4573227E1,6.4479864E-1,-3.247277E1,3.19914E1,4.3550438E1,-2.9260803E1,1.6563025E1,-2.018145E0,-1.8144081E1,9.933844E0,-6.639686E-1,2.863642E1,5.858063E-1,3.4992394E0,-3.331246E1,2.390596E0,-1.3737897E0,-3.6690838E0,2.438584E0,4.9312773E-1,-2.0174412E-1,3.690406E0,-9.532871E-1,-4.2537713E0,1.1302758E0,-6.366404E-1,-1.4226583E0,-4.6221182E-1,2.026583E-1,8.883219E-1,1.9860541E0,1.2771101E0,-4.7073522E-1,-2.502322E0,2.0537195E0,3.7848048E-2],"categories":[],"categories_nodes":[],"categories_segments":[],"categories_sizes":[],"default_left":[0,0,0,0,0,0,0,0,0,0,0,0,0,0,0,0,0,0,0,0,0,0,0,0,0,0,0,0,0,0,0,0,0,0,0,0,0,0,0,0,0,0,0,0,0,0,0,0,0,0,0,0,0,0,0,0,0],"id":14,"left_children":[1,3,5,7,9,11,-1,-1,13,15,17,19,21,-1,-1,23,-1,25,27,29,31,33,35,37,39,41,43,45,-1,47,49,-1,51,-1,-1,53,55,-1,-1,-1,-1,-1,-1,-1,-1,-1,-1,-1,-1,-1,-1,-1,-1,-1,-1,-1,-1],"loss_changes":[2.3905217E5,8.907317E4,1.203953E5,1.6057859E4,7.402353E4,4.8808195E4,0E0,0E0,3.2568086E3,7.733459E4,5.0535984E4,2.714093E4,2.0432281E4,0E0,0E0,4.2723406E4,0E0,6.048691E4,2.8848738E4,9.081167E3,1.1120703E4,8.356332E3,1.6972055E4,4.417283E4,3.5977334E3,1.9022467E4,5.470186E4,1.5158486E4,0E0,1.0176919E3,2.965831E3,0E0,5.392703E3,0E0,0E0,5.121546E3,1.7153818E4,0E0,0E0,0E0,0E0,0E0,0E0,0E0,0E0,0E0,0E0,0E0,0E0,0E0,0E0,0E0,0E0,0E0,0E0,0E0,0E0],"parents":[2147483647,0,0,1,1,2,2,3,3,4,4,5,5,8,8,9,9,10,10,11,11,12,12,15,15,17,17,18,18,19,19,20,20,21,21,22,22,23,23,24,24,25,25,26,26,27,27,29,29,30,30,32,32,35,35,36,36],"right_children":[2,4,6,8,10,12,-1,-1,14,16,18,20,22,-1,-1,24,-1,26,28,30,32,34,36,38,40,42,44,46,-1,48,50,-1,52,-1,-1,54,56,-1,-1,-1,-1,-1,-1,-1,-1,-1,-1,-1,-1,-1,-1,-1,-1,-1,-1,-1,-1],"split_conditions":[2.2377405E2,1.021225E2,5.945317E2,6.234898E-1,2.31259E3,-5E-1,6.742316E0,1.2457276E-3,2.4734978E2,5.2135E2,6.234898E-1,-4.3388373E-1,2.4331667E2,3.6344821E0,1.8124014E0,1.4638535E2,-7.267943E0,2.4012631E2,1.26453156E2,2.4487306E2,2.018665E3,2.1774216E3,1.1660472E2,1.2406153E2,2.99575E2,1.15818054E2,5.7438666E2,2.5736606E2,-2.018145E0,2.834E2,1.2759806E2,-6.639686E-1,0E0,5.858063E-1,3.4992394E0,2.5698666E2,2.6146356E2,-1.3737897E0,-3.6690838E0,2.438584E0,4.9312773E-1,-2.0174412E-1,3.690406E0,-9.532871E-1,-4.2537713E0,1.1302758E0,-6.366404E-1,-1.4226583E0,-4.6221182E-1,2.026583E-1,8.883219E-1,1.9860541E0,1.2771101E0,-4.7073522E-1,-2.502322E0,2.0537195E0,3.7848048E-2],"split_indices":[24,19,11,39,4,37,0,0,29,3,39,38,3,0,0,22,0,1,13,24,4,5,17,18,0,20,11,27,0,10,16,0,38,0,0,3,28,0,0,0,0,0,0,0,0,0,0,0,0,0,0,0,0,0,0,0,0],"split_type":[0,0,0,0,0,0,0,0,0,0,0,0,0,0,0,0,0,0,0,0,0,0,0,0,0,0,0,0,0,0,0,0,0,0,0,0,0,0,0,0,0,0,0,0,0,0,0,0,0,0,0,0,0,0,0,0,0],"sum_hessian":[1.037E3,4.66E2,5.71E2,2.4E1,4.42E2,5.64E2,7E0,7E0,1.7E1,2.4E2,2.02E2,2.7E2,2.94E2,8E0,9E0,2.35E2,5E0,1.1E2,9.2E1,7.8E1,1.92E2,1E1,2.84E2,2.25E2,1E1,1.2E1,9.8E1,8.3E1,9E0,1.3E1,6.5E1,6E0,1.86E2,5E0,5E0,1.3E1,2.71E2,2.02E2,2.3E1,5E0,5E0,5E0,7E0,8.4E1,1.4E1,6.9E1,1.4E1,5E0,8E0,3.8E1,2.7E1,3.8E1,1.48E2,6E0,7E0,1E1,2.61E2],"tree_param":{"num_deleted":"0","num_feature":"40","num_nodes":"57","size_leaf_vector":"1"}},{"base_weights":[-1.3044775E0,-2.413155E0,9.654983E0,-1.8722536E1,9.547286E0,-3.0340607E1,-8.851013E0,2.0561823E1,1.7736813E-1,-2.7522655E1,-5.9364605E0,-3.838198E1,8.27241E0,3.6173835E0,2.5588459E1,-6.0941566E1,2.8849242E0,1.8345379E0,-3.3370377E1,-7.7602E1,-2.5887745E1,3.1181726E0,5.65748E0,-2.3321997E1,9.538775E0,8.87612E0,2.9959513E1,-4.971148E0,-9.820076E-1,1.8146468E0,2.492825E0,5.6330585E-1,-1.8069785E0,-3.1584245E-1,-2.0540087E0,-4.565995E0,-1.8553104E0,2.157594E-1,-2.270452E0,-9.909519E-2,1.1594722E0,-2.9228368E-1,-1.9903687E0,2.9189095E-1,1.6769898E0,1.0393149E-1,1.0171841E0,2.1551588E0,1.3052984E0,-3.138029E-1,4.005421E-1],"categories":[],"categories_nodes":[],"categories_segments":[],"categories_sizes":[],"default_left":[0,0,0,0,0,0,0,0,0,0,0,0,0,0,0,0,0,0,0,0,0,0,0,0,0,0,0,0,0,0,0,0,0,0,0,0,0,0,0,0,0,0,0,0,0,0,0,0,0,0,0],"id":15,"left_children":[1,3,-1,5,7,9,11,13,15,17,-1,19,21,23,25,27,29,31,33,35,37,-1,39,41,43,45,47,-1,-1,49,-1,-1,-1,-1,-1,-1,-1,-1,-1,-1,-1,-1,-1,-1,-1,-1,-1,-1,-1,-1,-1],"loss_changes":[2.2804822E5,2.051955E5,0E0,5.076372E4,6.26399E4,4.7528875E4,1.2269295E5,2.3667945E4,5.461389E4,3.4227234E4,0E0,4.1592875E4,2.1422803E4,1.0589797E4,1.5436047E4,2.028611E4,1.5790505E4,1.2581961E4,3.435958E4,8.264477E3,4.088248E4,0E0,1.9870223E4,3.2199795E3,4.5969062E3,3.5412002E3,7.4782812E3,0E0,0E0,1.5591242E4,0E0,0E0,0E0,0E0,0E0,0E0,0E0,0E0,0E0,0E0,0E0,0E0,0E0,0E0,0E0,0E0,0E0,0E0,0E0,0E0,0E0],"parents":[2147483647,0,0,1,1,3,3,4,4,5,5,6,6,7,7,8,8,9,9,11,11,12,12,13,13,14,14,15,15,16,16,17,17,18,18,19,19,20,20,22,22,23,23,24,24,25,25,26,26,29,29],"right_children":[2,4,-1,6,8,10,12,14,16,18,-1,20,22,24,26,28,30,32,34,36,38,-1,40,42,44,46,48,-1,-1,50,-1,-1,-1,-1,-1,-1,-1,-1,-1,-1,-1,-1,-1,-1,-1,-1,-1,-1,-1,-1,-1],"split_conditions":[5.958569E2,3.1125333E2,9.654983E0,1.08333334E-1,1.1953438E2,3.38725E2,4.40049E1,2.2887217E3,1.373725E2,2.0029411E1,-5.9364605E0,1.3024509E1,1.6925517E2,2.6201334E2,-4.3388373E-1,2.4046167E3,1.5008875E2,9.749279E-1,2.006415E3,2.317879E3,2.2825117E3,3.1181726E0,5.716533E2,2.0888045E2,1.2701629E2,1.2759806E2,2.4730833E2,-4.971148E0,-9.820076E-1,2.4763194E2,2.492825E0,5.6330585E-1,-1.8069785E0,-3.1584245E-1,-2.0540087E0,-4.565995E0,-1.8553104E0,2.157594E-1,-2.270452E0,-9.909519E-2,1.1594722E0,-2.9228368E-1,-1.9903687E0,2.9189095E-1,1.6769898E0,1.0393149E-1,1.0171841E0,2.1551588E0,1.3052984E0,-3.138029E-1,4.005421E-1],"split_indices":[11,0,0,10,19,3,32,4,21,34,0,32,29,2,38,4,20,38,7,6,6,0,11,31,13,16,3,0,0,25,0,0,0,0,0,0,0,0,0,0,0,0,0,0,0,0,0,0,0,0,0],"split_type":[0,0,0,0,0,0,0,0,0,0,0,0,0,0,0,0,0,0,0,0,0,0,0,0,0,0,0,0,0,0,0,0,0,0,0,0,0,0,0,0,0,0,0,0,0,0,0,0,0,0,0],"sum_hessian":[1.055E3,1.05E3,5E0,4.44E2,6.06E2,2.03E2,2.41E2,2.78E2,3.28E2,1.98E2,5E0,8.8E1,1.53E2,6.4E1,2.14E2,1.3E1,3.15E2,3.3E1,1.65E2,2E1,6.8E1,6E0,1.47E2,1.1E1,5.3E1,4.5E1,1.69E2,6E0,7E0,3.09E2,6E0,2.7E1,6E0,3.7E1,1.28E2,1.4E1,6E0,2.7E1,4.1E1,1.03E2,4.4E1,6E0,5E0,4.7E1,6E0,2.9E1,1.6E1,3.6E1,1.33E2,1.34E2,1.75E2],"tree_param":{"num_deleted":"0","num_feature":"40","num_nodes":"51","size_leaf_vector":"1"}},{"base_weights":[2.2523521E-1,-8.848546E-1,9.584743E0,1.9127443E1,-8.813197E0,3.763688E0,2.4001715E1,4.5851105E1,-9.927554E0,-7.3092327E0,1.0978484E1,1.8967064E1,3.6485477E1,3.2577684E0,3.0094102E-1,-1.5348298E1,1.2650749E-1,1.4919678E0,-1.4559706E1,5.6521263E0,2.0892633E1,4.0409093E0,2.142475E1,2.1780777E1,4.6906204E1,3.093608E0,-2.087951E1,2.641956E1,-2.2132409E0,3.478206E-1,-1.1528289E-1,-9.5578665E-1,-1.8818544E-1,1.6078754E-1,6.591841E-1,1.2401804E0,5.4377854E-1,-2.1212628E-1,1.0575297E0,1.6279659E0,8.662039E-1,1.3404256E0,2.9239392E-1,2.9295144E0,1.5980778E0,1.8386862E0,-2.871584E-1,-1.5956514E0,-5.414292E-1,1.896623E-1,4.1168237E0,-2.5152366E0,-4.7704857E-2],"categories":[],"categories_nodes":[],"categories_segments":[],"categories_sizes":[],"default_left":[0,0,0,0,0,0,0,0,0,0,0,0,0,0,0,0,0,0,0,0,0,0,0,0,0,0,0,0,0,0,0,0,0,0,0,0,0,0,0,0,0,0,0,0,0,0,0,0,0,0,0,0,0],"id":16,"left_children":[1,3,-1,5,7,9,11,13,15,17,19,21,23,-1,-1,25,27,29,31,33,35,37,39,41,43,45,47,49,51,-1,-1,-1,-1,-1,-1,-1,-1,-1,-1,-1,-1,-1,-1,-1,-1,-1,-1,-1,-1,-1,-1,-1,-1],"loss_changes":[2.2123912E5,1.6438514E5,0E0,2.192371E4,4.5650906E4,5.8326094E3,1.3318297E4,1.1134713E4,3.967982E4,1.8736027E3,2.2027349E3,5.8169688E3,8.625195E3,0E0,0E0,4.831525E4,1.5809792E4,3.0703098E2,7.127554E2,5.0645563E2,3.1432568E2,3.4928694E3,5.731926E3,2.0829395E3,4.4044375E3,3.29529E4,4.001667E4,2.624813E4,1.4237646E4,0E0,0E0,0E0,0E0,0E0,0E0,0E0,0E0,0E0,0E0,0E0,0E0,0E0,0E0,0E0,0E0,0E0,0E0,0E0,0E0,0E0,0E0,0E0,0E0],"parents":[2147483647,0,0,1,1,3,3,4,4,5,5,6,6,7,7,8,8,9,9,10,10,11,11,12,12,15,15,16,16,17,17,18,18,19,19,20,20,21,21,22,22,23,23,24,24,25,25,26,26,27,27,28,28],"right_children":[2,4,-1,6,8,10,12,14,16,18,20,22,24,-1,-1,26,28,30,32,34,36,38,40,42,44,46,48,50,52,-1,-1,-1,-1,-1,-1,-1,-1,-1,-1,-1,-1,-1,-1,-1,-1,-1,-1,-1,-1,-1,-1,-1,-1],"split_conditions":[5.958569E2,-5E-1,9.584743E0,-4.3388373E-1,2.3273334E2,2.5558109E2,3.327E2,2.48385E2,2.3476013E2,-7.0710677E-1,1.283507E2,3.1687332E2,1.1266667E0,3.2577684E0,3.0094102E-1,2.0590266E3,1.9745466E3,-7.818315E-1,3.3334E2,1.2646752E2,2.3739534E3,1.21504166E2,2.4808167E2,3.3491165E2,1.2616728E2,2.4562833E2,2.8014914E2,5.154083E2,2.0444534E3,3.478206E-1,-1.1528289E-1,-9.5578665E-1,-1.8818544E-1,1.6078754E-1,6.591841E-1,1.2401804E0,5.4377854E-1,-2.1212628E-1,1.0575297E0,1.6279659E0,8.662039E-1,1.3404256E0,2.9239392E-1,2.9295144E0,1.5980778E0,1.8386862E0,-2.871584E-1,-1.5956514E0,-5.414292E-1,1.896623E-1,4.1168237E0,-2.5152366E0,-4.7704857E-2],"split_indices":[11,37,0,38,3,25,0,2,25,37,16,0,11,0,0,7,6,38,0,13,6,16,3,2,13,1,10,8,7,0,0,0,0,0,0,0,0,0,0,0,0,0,0,0,0,0,0,0,0,0,0,0,0],"split_type":[0,0,0,0,0,0,0,0,0,0,0,0,0,0,0,0,0,0,0,0,0,0,0,0,0,0,0,0,0,0,0,0,0,0,0,0,0,0,0,0,0,0,0,0,0,0,0,0,0,0,0,0,0],"sum_hessian":[1.039E3,1.034E3,5E0,2.93E2,7.41E2,7.1E1,2.22E2,1.4E1,7.27E2,2.8E1,4.3E1,1.6E2,6.2E1,9E0,5E0,4.72E2,2.55E2,1.3E1,1.5E1,2.9E1,1.4E1,2.3E1,1.37E2,2.7E1,3.5E1,1.09E2,3.63E2,2E1,2.35E2,5E0,8E0,1E1,5E0,2.3E1,6E0,9E0,5E0,1.6E1,7E0,3.5E1,1.02E2,2E1,7E0,1.8E1,1.7E1,2.2E1,8.7E1,1.72E2,1.91E2,1.5E1,5E0,5E0,2.3E2],"tree_param":{"num_deleted":"0","num_feature":"40","num_nodes":"53","size_leaf_vector":"1"}},{"base_weights":[-1.8754984E0,1.8295565E1,-1.0246E1,4.8068166E0,2.2770573E1,-1.1448879E1,5.0768394E0,-8.263538E0,1.2293486E1,-4.8741155E0,2.4043972E1,-6.685108E1,-9.565169E0,8.752634E-1,-1.4771826E1,-1.2061568E0,1.757963E1,6.5458053E-1,-1.1022078E0,9.881402E0,2.6655308E1,-1.21508545E2,-2.0595658E0,-1.6199611E0,-1.56528845E1,-1.164431E-1,2.50911E-1,-1.1092477E0,-9.825944E0,-2.7296516E-1,1.1123762E-1,2.1435179E1,9.101718E0,-1.5003894E-1,1.3097817E1,2.316705E1,3.9206764E1,-7.982811E0,-2.5188448E0,-1.3850234E0,1.4090707E0,-1.0714579E1,1.4834646E0,-6.3934035E0,-2.6528957E1,-6.945583E-1,-1.7144297E-1,5.9899753E-1,1.1957906E0,8.959559E-2,6.716929E-1,3.4579903E-1,1.0635378E0,9.392807E-1,1.5688477E0,2.5697334E0,1.1063366E0,9.8252964E-1,-6.7404515E-1,-3.5990822E-1,3.778422E-1,-9.7650427E-1,2.7192816E-1,-2.5479805E-1,-1.9047598E0],"categories":[],"categories_nodes":[],"categories_segments":[],"categories_sizes":[],"default_left":[0,0,0,0,0,0,0,0,0,0,0,0,0,0,0,0,0,0,0,0,0,0,0,0,0,0,0,0,0,0,0,0,0,0,0,0,0,0,0,0,0,0,0,0,0,0,0,0,0,0,0,0,0,0,0,0,0,0,0,0,0,0,0,0,0],"id":17,"left_children":[1,3,5,7,9,11,-1,13,15,17,19,21,23,25,27,29,31,-1,-1,33,35,37,39,41,43,-1,-1,-1,45,-1,-1,47,49,-1,51,53,55,-1,-1,-1,-1,57,59,61,63,-1,-1,-1,-1,-1,-1,-1,-1,-1,-1,-1,-1,-1,-1,-1,-1,-1,-1,-1,-1],"loss_changes":[1.7730181E5,1.8479367E4,1.00923695E5,7.7345586E3,8.25093E3,7.605876E4,0E0,1.7391797E3,3.5908926E3,3.682683E3,7.90625E3,8.4729555E4,3.4411043E4,1.8452486E2,4.021067E2,2.3135146E2,9.7858203E2,0E0,0E0,1.5319534E3,7.2290312E3,2.7211594E4,1.0085462E4,8.766402E3,4.0411945E4,0E0,0E0,0E0,2.627041E2,0E0,0E0,2.7281934E2,3.860775E2,0E0,1.3152627E3,4.7292812E3,6.974078E3,0E0,0E0,0E0,0E0,6.900283E3,1.2287055E4,3.41474E4,4.566289E4,0E0,0E0,0E0,0E0,0E0,0E0,0E0,0E0,0E0,0E0,0E0,0E0,0E0,0E0,0E0,0E0,0E0,0E0,0E0,0E0],"parents":[2147483647,0,0,1,1,2,2,3,3,4,4,5,5,7,7,8,8,9,9,10,10,11,11,12,12,13,13,14,14,15,15,16,16,19,19,20,20,21,21,22,22,23,23,24,24,28,28,31,31,32,32,34,34,35,35,36,36,41,41,42,42,43,43,44,44],"right_children":[2,4,6,8,10,12,-1,14,16,18,20,22,24,26,28,30,32,-1,-1,34,36,38,40,42,44,-1,-1,-1,46,-1,-1,48,50,-1,52,54,56,-1,-1,-1,-1,58,60,62,64,-1,-1,-1,-1,-1,-1,-1,-1,-1,-1,-1,-1,-1,-1,-1,-1,-1,-1,-1,-1],"split_conditions":[-5E-1,-4.3388373E-1,5.9422455E2,2.906558E2,2.018665E3,1.7213184E3,5.0768394E0,-7.0710677E-1,7.5867645E1,1.9262486E2,-5E-1,6.661275E1,-2.5881904E-1,2.084485E2,7.656187E1,1.26525696E2,2.3735344E3,6.5458053E-1,-1.1022078E0,4.49951E1,5.0983447E2,2.771E2,9.111275E1,-4.3388373E-1,2.3189555E2,-1.164431E-1,2.50911E-1,-1.1092477E0,2.8378665E2,-2.7296516E-1,1.1123762E-1,2.1774216E3,2.2906567E3,-1.5003894E-1,1.4431422E2,1.2491847E2,1.2597191E2,-7.982811E0,-2.5188448E0,-1.3850234E0,1.4090707E0,3.2696036E2,1.23775E2,2.771E2,1.1272667E2,-6.945583E-1,-1.7144297E-1,5.9899753E-1,1.1957906E0,8.959559E-2,6.716929E-1,3.4579903E-1,1.0635378E0,9.392807E-1,1.5688477E0,2.5697334E0,1.1063366E0,9.8252964E-1,-6.7404515E-1,-3.5990822E-1,3.778422E-1,-9.7650427E-1,2.7192816E-1,-2.5479805E-1,-1.9047598E0],"split_indices":[37,38,8,28,4,4,0,37,35,31,36,35,36,27,35,16,4,0,0,35,11,10,32,38,28,0,0,0,28,0,0,5,6,0,22,16,14,0,0,0,0,2,18,8,19,0,0,0,0,0,0,0,0,0,0,0,0,0,0,0,0,0,0,0,0],"split_type":[0,0,0,0,0,0,0,0,0,0,0,0,0,0,0,0,0,0,0,0,0,0,0,0,0,0,0,0,0,0,0,0,0,0,0,0,0,0,0,0,0,0,0,0,0,0,0,0,0,0,0,0,0,0,0,0,0,0,0,0,0,0,0,0,0],"sum_hessian":[1.048E3,3.07E2,7.41E2,7.7E1,2.3E2,7.34E2,7E0,2.8E1,4.9E1,1E1,2.2E2,2.3E1,7.11E2,1.2E1,1.6E1,1.4E1,3.5E1,5E0,5E0,3.5E1,1.85E2,1.2E1,1.1E1,3.09E2,4.02E2,7E0,5E0,5E0,1.1E1,6E0,8E0,2.3E1,1.2E1,7E0,2.8E1,1.47E2,3.8E1,7E0,5E0,6E0,5E0,7.8E1,2.31E2,2.18E2,1.84E2,6E0,5E0,6E0,1.7E1,5E0,7E0,1.7E1,1.1E1,9.8E1,4.9E1,2.1E1,1.7E1,6E0,7.2E1,9.5E1,1.36E2,1.03E2,1.15E2,6.5E1,1.19E2],"tree_param":{"num_deleted":"0","num_feature":"40","num_nodes":"65","size_leaf_vector":"1"}},{"base_weights":[3.6277E-1,-8.327857E-1,6.29947E0,-1.4606371E1,8.993864E0,4.673906E1,-1.7043257E1,-5.276535E-1,1.7743721E1,3.3903694E0,3.4701958E-1,-1.5575231E1,-5.0918493E0,-9.060548E0,3.0844734E0,-1.691318E-1,2.2222984E1,-1.7319551E1,3.9823334E1,-5.372646E0,-2.3098354E1,9.707977E0,-5.3713355E0,-2.0536265E0,7.1362805E0,6.3091764E0,2.479793E1,2.8989913E0,-9.2043585E-1,1.0227565E0,2.6744103E0,-4.6005282E-1,4.7634125E-1,-1.8032156E0,-6.8008417E-1,1.7183867E0,3.2807276E-1,-3.747377E-1,1.8845472E-1,1.913222E0,5.7449758E-2,-8.131768E-1,6.550196E-1,1.853898E0,1.0085942E0],"categories":[],"categories_nodes":[],"categories_segments":[],"categories_sizes":[],"default_left":[0,0,0,0,0,0,0,0,0,0,0,0,0,0,0,0,0,0,0,0,0,0,0,0,0,0,0,0,0,0,0,0,0,0,0,0,0,0,0,0,0,0,0,0,0],"id":18,"left_children":[1,3,-1,5,7,9,11,13,15,-1,-1,17,-1,19,21,23,25,27,29,31,33,35,37,-1,39,41,43,-1,-1,-1,-1,-1,-1,-1,-1,-1,-1,-1,-1,-1,-1,-1,-1,-1,-1],"loss_changes":[1.5932269E5,1.4238289E5,0E0,6.627105E4,5.1164598E4,1.3776273E4,5.0932453E4,9.121004E3,2.568161E4,0E0,0E0,4.088678E4,0E0,4.428818E3,1.1702052E4,1.9719553E4,1.0330602E4,3.4196797E4,2.3391309E3,4.137556E3,1.7208994E3,8.848723E3,1.8142458E3,0E0,1.038899E4,5.8847007E3,1.1744094E4,0E0,0E0,0E0,0E0,0E0,0E0,0E0,0E0,0E0,0E0,0E0,0E0,0E0,0E0,0E0,0E0,0E0,0E0],"parents":[2147483647,0,0,1,1,3,3,4,4,5,5,6,6,7,7,8,8,11,11,13,13,14,14,15,15,16,16,17,17,18,18,19,19,20,20,21,21,22,22,24,24,25,25,26,26],"right_children":[2,4,-1,6,8,10,12,14,16,-1,-1,18,-1,20,22,24,26,28,30,32,34,36,38,-1,40,42,44,-1,-1,-1,-1,-1,-1,-1,-1,-1,-1,-1,-1,-1,-1,-1,-1,-1,-1],"split_conditions":[5.95393E2,2.6547577E2,6.29947E0,1.9470667E2,-5E-1,8.664216E1,5.1587915E2,3.2481332E2,3.1800665E2,3.3903694E0,3.4701958E-1,1.4183902E2,-5.0918493E0,5.7045166E2,2.9143555E2,2.4734978E2,1.9588236E1,2.0637167E2,1.2609258E2,5.5757666E2,1.2321125E2,1.975175E3,2.611606E2,-2.0536265E0,2.0853806E2,3.2280167E2,7.439706E1,2.8989913E0,-9.2043585E-1,1.0227565E0,2.6744103E0,-4.6005282E-1,4.7634125E-1,-1.8032156E0,-6.8008417E-1,1.7183867E0,3.2807276E-1,-3.747377E-1,1.8845472E-1,1.913222E0,5.7449758E-2,-8.131768E-1,6.550196E-1,1.853898E0,1.0085942E0],"split_indices":[10,28,0,31,36,35,2,1,0,0,0,20,0,9,31,29,34,0,13,11,18,5,25,0,25,1,35,0,0,0,0,0,0,0,0,0,0,0,0,0,0,0,0,0,0],"split_type":[0,0,0,0,0,0,0,0,0,0,0,0,0,0,0,0,0,0,0,0,0,0,0,0,0,0,0,0,0,0,0,0,0,0,0,0,0,0,0,0,0,0,0,0,0],"sum_hessian":[1.059E3,1.05E3,9E0,4.37E2,6.13E2,1.6E1,4.21E2,2.94E2,3.19E2,1E1,6E0,4.15E2,6E0,8.7E1,2.07E2,6.4E1,2.55E2,4.03E2,1.2E1,7E1,1.7E1,1.16E2,9.1E1,9E0,5.5E1,3.6E1,2.19E2,5E0,3.98E2,6E0,6E0,5.6E1,1.4E1,6E0,1.1E1,1.2E1,1.04E2,7.4E1,1.7E1,8E0,4.7E1,8E0,2.8E1,5.8E1,1.61E2],"tree_param":{"num_deleted":"0","num_feature":"40","num_nodes":"45","size_leaf_vector":"1"}},{"base_weights":[1.9311678E-1,-9.7393626E-1,8.811905E0,1.6984669E1,-8.290127E0,3.176941E0,2.1453512E1,-4.4010048E1,-6.058395E0,-6.4488697E0,1.0716491E1,1.6346243E1,2.7751469E1,-2.8465008E1,-6.8850565E0,-1.3132178E1,2.5104108E0,-1.9176476E1,-3.425143E-1,1.1852356E0,1.480386E1,1.9408989E1,4.241655E-1,4.237131E1,2.106999E1,1.9882116E0,-4.4635914E1,2.8120949E1,-1.5809009E1,-1.156465E0,1.7848755E1,-1.2818869E0,-4.751234E-1,-3.3202717E-1,1.060096E-1,2.0907156E-1,-1.7449652E-1,1.0529324E0,4.3880805E-1,7.3157084E-1,1.281597E0,5.0886196E-1,-4.2715827E-1,2.6874783E0,1.558102E0,1.1797564E0,-5.3111935E-1,-3.0479598E0,-6.171087E-1,2.31624E0,1.1934359E-1,-2.769643E-1,-1.2777156E0,8.17717E-1,-2.20752E-1,1.909292E-1,2.2527196E0],"categories":[],"categories_nodes":[],"categories_segments":[],"categories_sizes":[],"default_left":[0,0,0,0,0,0,0,0,0,0,0,0,0,0,0,0,0,0,0,0,0,0,0,0,0,0,0,0,0,0,0,0,0,0,0,0,0,0,0,0,0,0,0,0,0,0,0,0,0,0,0,0,0,0,0,0,0],"id":19,"left_children":[1,3,-1,5,7,9,11,13,15,17,19,21,23,25,-1,27,29,31,33,35,37,39,41,43,45,-1,47,49,51,53,55,-1,-1,-1,-1,-1,-1,-1,-1,-1,-1,-1,-1,-1,-1,-1,-1,-1,-1,-1,-1,-1,-1,-1,-1,-1,-1],"loss_changes":[2.1838116E5,1.388863E5,0E0,1.8810969E4,5.959606E4,5.585181E3,6.9721562E3,6.0146703E4,4.294865E4,2.6339358E3,1.6560381E3,6.3292695E3,9.064477E3,4.480521E4,0E0,4.328925E4,1.807657E4,4.404336E2,3.8677597E2,2.1077002E2,9.432617E2,2.8615781E3,2.0112079E3,2.2703672E3,6.013926E3,0E0,1.6108777E4,1.1127578E4,3.6385094E4,1.4906681E4,2.3488451E4,0E0,0E0,0E0,0E0,0E0,0E0,0E0,0E0,0E0,0E0,0E0,0E0,0E0,0E0,0E0,0E0,0E0,0E0,0E0,0E0,0E0,0E0,0E0,0E0,0E0,0E0],"parents":[2147483647,0,0,1,1,3,3,4,4,5,5,6,6,7,7,8,8,9,9,10,10,11,11,12,12,13,13,15,15,16,16,17,17,18,18,19,19,20,20,21,21,22,22,23,23,24,24,26,26,27,27,28,28,29,29,30,30],"right_children":[2,4,-1,6,8,10,12,14,16,18,20,22,24,26,-1,28,30,32,34,36,38,40,42,44,46,-1,48,50,52,54,56,-1,-1,-1,-1,-1,-1,-1,-1,-1,-1,-1,-1,-1,-1,-1,-1,-1,-1,-1,-1,-1,-1,-1,-1,-1,-1],"split_conditions":[5.958569E2,-5E-1,8.811905E0,-4.3388373E-1,1.854635E3,3.3676334E2,5.232783E2,3.33115E2,2.182263E2,2.4539883E2,2.5565367E2,1.4473337E-1,1.1813514E2,9.3525E1,-6.8850565E0,2.3468167E2,8.2382355E1,5.1869666E2,2.4089044E2,2.3722983E3,2.3575183E3,1.2491847E2,9.749279E-1,1.263016E2,8.6890755E1,1.9882116E0,1.2319181E2,2.3552961E3,2.6699E2,2.0466167E3,2.30849E3,-1.2818869E0,-4.751234E-1,-3.3202717E-1,1.060096E-1,2.0907156E-1,-1.7449652E-1,1.0529324E0,4.3880805E-1,7.3157084E-1,1.281597E0,5.0886196E-1,-4.2715827E-1,2.6874783E0,1.558102E0,1.1797564E0,-5.3111935E-1,-3.0479598E0,-6.171087E-1,2.31624E0,1.1934359E-1,-2.769643E-1,-1.2777156E0,8.17717E-1,-2.20752E-1,1.909292E-1,2.2527196E0],"split_indices":[11,37,0,38,4,1,8,2,24,24,24,13,23,16,0,2,33,8,30,4,4,16,38,13,32,0,21,7,0,6,4,0,0,0,0,0,0,0,0,0,0,0,0,0,0,0,0,0,0,0,0,0,0,0,0,0,0],"split_type":[0,0,0,0,0,0,0,0,0,0,0,0,0,0,0,0,0,0,0,0,0,0,0,0,0,0,0,0,0,0,0,0,0,0,0,0,0,0,0,0,0,0,0,0,0,0,0,0,0,0,0,0,0,0,0,0,0],"sum_hessian":[1.061E3,1.055E3,6E0,3.05E2,7.5E2,7.5E1,2.3E2,4.3E1,7.07E2,3.3E1,4.2E1,1.29E2,1.01E2,3.8E1,5E0,3.87E2,3.2E2,1E1,2.3E1,1.3E1,2.9E1,1.08E2,2.1E1,3E1,7.1E1,7E0,3.1E1,2.3E1,3.64E2,2.59E2,6.1E1,5E0,5E0,6E0,1.7E1,8E0,5E0,1.3E1,1.6E1,6.3E1,4.5E1,1E1,1.1E1,1.3E1,1.7E1,6.6E1,5E0,2E1,1.1E1,1.3E1,1E1,1.78E2,1.86E2,4E1,2.19E2,4.1E1,2E1],"tree_param":{"num_deleted":"0","num_feature":"40","num_nodes":"57","size_leaf_vector":"1"}},{"base_weights":[1.0584698E0,-2.1419588E-1,6.8568926E0,1.6997019E1,-7.2570558E0,4.339155E0,2.1071735E1,-6.3374777E0,-5.262887E0,-1.130368E1,8.307643E0,-3.0974308E-1,2.2185427E1,-2.7519447E1,-3.9571137E0,-7.77957E-1,-1.7976777E-1,-2.3899446E-1,1.0062054E1,1.6127893E1,2.7126062E1,-1.8663588E1,-5.0224404E0,-2.9705149E1,-1.9512328E0,3.0751798E-1,8.2975006E-1,4.4745585E-1,1.2000514E0,1.1595001E0,2.0457413E0,-2.76422E0,-2.8131583E-1,1.1123756E0,-2.0976593E0,1.0923089E0,-1.8644215E-1],"categories":[],"categories_nodes":[],"categories_segments":[],"categories_sizes":[],"default_left":[0,0,0,0,0,0,0,0,0,0,0,0,0,0,0,0,0,0,0,0,0,0,0,0,0,0,0,0,0,0,0,0,0,0,0,0,0],"id":20,"left_children":[1,3,-1,5,7,9,11,13,-1,15,17,-1,19,21,23,-1,-1,-1,25,27,29,31,-1,33,35,-1,-1,-1,-1,-1,-1,-1,-1,-1,-1,-1,-1],"loss_changes":[1.8690814E5,1.2982367E5,0E0,1.5946539E4,6.781242E4,4.873644E3,7.2751797E3,3.7905242E4,0E0,4.6698352E2,1.4722002E3,0E0,6.3219297E3,4.7198113E4,3.5007523E4,0E0,0E0,0E0,1.3011797E3,5.6599434E3,5.7204062E3,3.2625902E4,0E0,3.2114914E4,2.6772533E4,0E0,0E0,0E0,0E0,0E0,0E0,0E0,0E0,0E0,0E0,0E0,0E0],"parents":[2147483647,0,0,1,1,3,3,4,4,5,5,6,6,7,7,9,9,10,10,12,12,13,13,14,14,18,18,19,19,20,20,21,21,23,23,24,24],"right_children":[2,4,-1,6,8,10,12,14,-1,16,18,-1,20,22,24,-1,-1,-1,26,28,30,32,-1,34,36,-1,-1,-1,-1,-1,-1,-1,-1,-1,-1,-1,-1],"split_conditions":[5.95393E2,-5E-1,6.8568926E0,-4.3388373E-1,2.5762117E3,2.4605281E2,2.018665E3,-7.818315E-1,-5.262887E0,5.4805E2,1.9600784E3,-3.0974308E-1,2.859429E2,5.719849E2,1.8966367E3,-7.77957E-1,-1.7976777E-1,-2.3899446E-1,1.283507E2,5.232783E2,2.3879067E3,1.284825E2,-5.0224404E0,1.1099152E2,1.2478792E2,3.0751798E-1,8.2975006E-1,4.4745585E-1,1.2000514E0,1.1595001E0,2.0457413E0,-2.76422E0,-2.8131583E-1,1.1123756E0,-2.0976593E0,1.0923089E0,-1.8644215E-1],"split_indices":[10,37,0,38,6,24,4,38,0,10,6,0,28,11,4,0,0,0,16,8,7,22,0,21,23,0,0,0,0,0,0,0,0,0,0,0,0],"split_type":[0,0,0,0,0,0,0,0,0,0,0,0,0,0,0,0,0,0,0,0,0,0,0,0,0,0,0,0,0,0,0,0,0,0,0,0,0],"sum_hessian":[1.078E3,1.069E3,9E0,3.1E2,7.59E2,7.6E1,2.34E2,7.53E2,6E0,1.5E1,6.1E1,9E0,2.25E2,7.5E1,6.78E2,9E0,6E0,7E0,5.4E1,1.03E2,1.22E2,6.8E1,7E0,4.8E1,6.3E2,3.5E1,1.9E1,5.5E1,4.8E1,9.7E1,2.5E1,1.7E1,5.1E1,9E0,3.9E1,4.3E1,5.87E2],"tree_param":{"num_deleted":"0","num_feature":"40","num_nodes":"37","size_leaf_vector":"1"}},{"base_weights":[2.6350322E-1,-1.143372E1,9.108893E0,1.3771049E1,-1.6511177E1,7.726417E0,8.279975E1,2.5930488E0,7.965604E0,4.162805E1,-1.8520412E1,1.273657E1,-3.4789598E0,7.2663226E0,3.2282135E-1,-7.8043647E0,3.0776428E1,6.655432E-1,2.8824966E0,-2.6111654E1,-2.8076134E0,1.8527051E0,1.7233505E1,-3.0438113E0,-1.535035E0,2.4552195E1,-2.949865E1,-3.7816453E-1,4.3921253E1,-4.9329113E1,-1.9394274E1,3.0637054E0,-6.098844E0,-3.0793822E0,2.1919031E1,5.543526E1,1.5670817E1,1.7177595E0,-2.9789457E0,1.8571454E-1,1.7785786E0,-2.6996477E0,3.2876354E-1,1.1287245E0,2.7656767E0,-1.3021632E-1,-2.9826152E0,-2.0995097E0,-2.0818551E-1,3.2584473E-1,-9.19954E-1,1.6006863E0,-2.6557085E-1,1.6466837E0,-2.1072297E-1,1.489796E0,3.590936E0,3.3410105E-1,9.3459886E-1,5.033265E-1,-3.4894186E-1],"categories":[],"categories_nodes":[],"categories_segments":[],"categories_sizes":[],"default_left":[0,0,0,0,0,0,0,0,0,0,0,0,0,0,0,0,0,0,0,0,0,0,0,0,0,0,0,0,0,0,0,0,0,0,0,0,0,0,0,0,0,0,0,0,0,0,0,0,0,0,0,0,0,0,0,0,0,0,0,0,0],"id":21,"left_children":[1,3,5,7,9,11,13,-1,15,17,19,21,23,-1,-1,25,27,-1,-1,29,31,33,35,-1,37,39,41,-1,43,45,47,-1,49,51,53,55,57,-1,59,-1,-1,-1,-1,-1,-1,-1,-1,-1,-1,-1,-1,-1,-1,-1,-1,-1,-1,-1,-1,-1,-1],"loss_changes":[1.0957148E5,5.858476E4,6.078233E4,1.6607844E4,4.51585E4,3.3336645E4,5.1554984E4,0E0,2.4703855E4,5.1235645E3,4.381872E4,2.0033227E4,2.0430287E4,0E0,0E0,2.95048E4,1.4446951E4,0E0,0E0,3.7714625E4,2.5888018E4,1.2044615E4,1.643643E4,0E0,9.375394E3,3.7675E3,2.2449893E4,0E0,3.8504922E3,2.636761E4,6.6585375E4,0E0,1.8121578E4,7.843614E3,7.0500947E3,2.4706055E3,7.4764062E3,0E0,9.097166E3,0E0,0E0,0E0,0E0,0E0,0E0,0E0,0E0,0E0,0E0,0E0,0E0,0E0,0E0,0E0,0E0,0E0,0E0,0E0,0E0,0E0,0E0],"parents":[2147483647,0,0,1,1,2,2,3,3,4,4,5,5,6,6,8,8,9,9,10,10,11,11,12,12,15,15,16,16,19,19,20,20,21,21,22,22,24,24,25,25,26,26,28,28,29,29,30,30,32,32,33,33,34,34,35,35,36,36,38,38],"right_children":[2,4,6,8,10,12,14,-1,16,18,20,22,24,-1,-1,26,28,-1,-1,30,32,34,36,-1,38,40,42,-1,44,46,48,-1,50,52,54,56,58,-1,60,-1,-1,-1,-1,-1,-1,-1,-1,-1,-1,-1,-1,-1,-1,-1,-1,-1,-1,-1,-1,-1,-1],"split_conditions":[2.182263E2,1.9979584E3,5.941717E2,1.8800732E2,2.40955E2,1.4277861E2,1.3257742E-1,2.5930488E0,1.9600784E3,2.0654866E3,2.3658567E3,2.26275E3,1.208096E2,7.2663226E0,3.2282135E-1,5.9710785E1,4.2710785E1,6.655432E-1,2.8824966E0,1.3659288E-1,2.0637167E2,1.430129E2,1.1761542E2,-3.0438113E0,2.4594556E2,2.5890668E2,7.818315E-1,-3.7816453E-1,1.021225E2,5.85049E1,5.0848038E1,3.0637054E0,2.4140051E3,2.5452756E2,7.031863E1,2.0430367E2,-5E-1,1.7177595E0,-2.2252093E-1,1.8571454E-1,1.7785786E0,-2.6996477E0,3.2876354E-1,1.1287245E0,2.7656767E0,-1.3021632E-1,-2.9826152E0,-2.0995097E0,-2.0818551E-1,3.2584473E-1,-9.19954E-1,1.6006863E0,-2.6557085E-1,1.6466837E0,-2.1072297E-1,1.489796E0,3.590936E0,3.3410105E-1,9.3459886E-1,5.033265E-1,-3.4894186E-1],"split_indices":[24,7,9,30,3,23,12,0,7,5,4,4,17,0,0,35,35,0,0,14,0,22,22,0,28,0,38,0,16,32,32,0,5,28,32,25,36,0,39,0,0,0,0,0,0,0,0,0,0,0,0,0,0,0,0,0,0,0,0,0,0],"split_type":[0,0,0,0,0,0,0,0,0,0,0,0,0,0,0,0,0,0,0,0,0,0,0,0,0,0,0,0,0,0,0,0,0,0,0,0,0,0,0,0,0,0,0,0,0,0,0,0,0,0,0,0,0,0,0,0,0,0,0,0,0],"sum_hessian":[1.057E3,4.55E2,6.02E2,7.6E1,3.79E2,5.92E2,1E1,9E0,6.7E1,1.2E1,3.67E2,4.09E2,1.83E2,5E0,5E0,4E1,2.7E1,5E0,7E0,2.47E2,1.2E2,1.2E2,2.89E2,5E0,1.78E2,1.6E1,2.4E1,7E0,2E1,5.4E1,1.93E2,5E0,1.15E2,9.7E1,2.3E1,1E1,2.79E2,6E0,1.72E2,6E0,1E1,1.4E1,1E1,8E0,1.2E1,1E1,4.4E1,7.7E1,1.16E2,5.7E1,5.8E1,5E0,9.2E1,1.6E1,7E0,5E0,5E0,7.1E1,2.08E2,4E1,1.32E2],"tree_param":{"num_deleted":"0","num_feature":"40","num_nodes":"61","size_leaf_vector":"1"}},{"base_weights":[1.3839853E0,-8.247234E0,1.1763871E1,-1.780931E1,1.4879612E0,1.0361516E1,4.8350525E0,-3.986743E1,-1.054813E1,-1.6375046E1,1.0019245E1,2.1409435E0,1.847361E1,-4.8135666E1,2.609946E0,-8.284049E0,-3.2768066E0,1.1528792E1,-4.0370415E1,1.5142215E1,-1.8694313E1,2.3442987E1,4.811716E-2,-7.026783E0,1.9800438E1,-3.6880936E1,-9.194864E1,-5.9939275E0,-2.7976978E0,1.9242146E1,-9.0116847E-1,-6.806247E1,-2.083181E1,4.662386E1,1.1182285E1,-4.720138E1,1.3177142E1,2.962684E0,2.6342676E0,2.0671186E0,-1.0778539E0,1.3522954E-1,-6.7297333E-1,2.1790392E0,2.1332823E1,-6.590572E-1,-3.149491E0,-5.5971656E0,-3.0830266E0,-3.9763328E-1,1.9896902E0,1.6079854E0,2.5934055E-1,-1.2606169E0,-4.294618E0,4.5815262E-1,-1.5398339E0,8.4049875E-1,3.2901292E0,3.43848E-1,1.9868015E0,-3.5700722E0,-8.544325E-1,-1.0333805E0,2.499435E0,-3.7377325E-1,7.241521E-1,-2.6527333E-1,2.7224407E-1,-3.921325E-1,7.655143E-1,1.0000559E0,2.120385E0],"categories":[],"categories_nodes":[],"categories_segments":[],"categories_sizes":[],"default_left":[0,0,0,0,0,0,0,0,0,0,0,0,0,0,0,0,0,0,0,0,0,0,0,0,0,0,0,0,0,0,0,0,0,0,0,0,0,0,0,0,0,0,0,0,0,0,0,0,0,0,0,0,0,0,0,0,0,0,0,0,0,0,0,0,0,0,0,0,0,0,0,0,0],"id":22,"left_children":[1,3,5,7,9,11,-1,13,15,17,19,21,23,25,-1,27,-1,29,31,33,35,37,39,41,43,45,47,49,-1,51,-1,53,55,57,59,61,63,65,-1,-1,67,-1,-1,69,71,-1,-1,-1,-1,-1,-1,-1,-1,-1,-1,-1,-1,-1,-1,-1,-1,-1,-1,-1,-1,-1,-1,-1,-1,-1,-1,-1,-1],"loss_changes":[1.0386722E5,5.020294E4,5.8543383E4,4.3140117E4,4.1005125E4,3.2834613E4,0E0,5.3514383E4,2.5096156E4,5.872028E4,2.705468E4,1.0963566E4,8.531398E3,2.7168375E4,0E0,2.138323E4,0E0,9.692727E3,2.4003258E4,1.879595E4,2.6065107E4,1.3013979E4,1.0510219E4,8.512629E2,6.3238203E3,3.071964E4,3.473672E2,1.744335E4,0E0,5.820961E3,0E0,1.2339586E4,8.952304E3,8.606066E3,1.680979E4,9.701945E3,1.847837E4,1.7924851E3,0E0,0E0,6.0955054E3,0E0,0E0,2.7527651E3,5.2357734E3,0E0,0E0,0E0,0E0,0E0,0E0,0E0,0E0,0E0,0E0,0E0,0E0,0E0,0E0,0E0,0E0,0E0,0E0,0E0,0E0,0E0,0E0,0E0,0E0,0E0,0E0,0E0,0E0],"parents":[2147483647,0,0,1,1,2,2,3,3,4,4,5,5,7,7,8,8,9,9,10,10,11,11,12,12,13,13,15,15,17,17,18,18,19,19,20,20,21,21,22,22,23,23,24,24,25,25,26,26,27,27,29,29,31,31,32,32,33,33,34,34,35,35,36,36,37,37,40,40,43,43,44,44],"right_children":[2,4,6,8,10,12,-1,14,16,18,20,22,24,26,-1,28,-1,30,32,34,36,38,40,42,44,46,48,50,-1,52,-1,54,56,58,60,62,64,66,-1,-1,68,-1,-1,70,72,-1,-1,-1,-1,-1,-1,-1,-1,-1,-1,-1,-1,-1,-1,-1,-1,-1,-1,-1,-1,-1,-1,-1,-1,-1,-1,-1,-1],"split_conditions":[2.3285239E2,2.31259E3,5.945317E2,1.3659288E-1,4.49951E1,-5E-1,4.8350525E0,1.1266667E0,5.839232E2,1.5136731E2,2.47652E3,1.975175E3,2.0022383E3,1E0,2.609946E0,2.2963367E3,-3.2768066E0,2.4083232E3,2.3658567E3,2.3213E3,6.234898E-1,1.2566245E2,2.510471E2,1.1767348E2,1.9600784E3,1.77138E2,2.6762833E2,1.2538009E2,-2.7976978E0,2.4594556E2,-9.0116847E-1,5.20115E2,1.2867003E2,1.2434141E2,5.790867E2,2.10518E2,8.692647E1,3.308081E2,2.6342676E0,2.0671186E0,2.5980862E2,1.3522954E-1,-6.7297333E-1,1.2641197E2,2.815651E2,-6.590572E-1,-3.149491E0,-5.5971656E0,-3.0830266E0,-3.9763328E-1,1.9896902E0,1.6079854E0,2.5934055E-1,-1.2606169E0,-4.294618E0,4.5815262E-1,-1.5398339E0,8.4049875E-1,3.2901292E0,3.43848E-1,1.9868015E0,-3.5700722E0,-8.544325E-1,-1.0333805E0,2.499435E0,-3.7377325E-1,7.241521E-1,-2.6527333E-1,2.7224407E-1,-3.921325E-1,7.655143E-1,1.0000559E0,2.120385E0],"split_indices":[24,4,9,14,34,36,0,8,10,24,5,5,4,39,0,4,0,6,4,4,39,13,29,23,6,24,2,17,0,30,0,10,26,13,11,29,33,1,0,0,26,0,0,12,31,0,0,0,0,0,0,0,0,0,0,0,0,0,0,0,0,0,0,0,0,0,0,0,0,0,0,0,0],"split_type":[0,0,0,0,0,0,0,0,0,0,0,0,0,0,0,0,0,0,0,0,0,0,0,0,0,0,0,0,0,0,0,0,0,0,0,0,0,0,0,0,0,0,0,0,0,0,0,0,0,0,0,0,0,0,0,0,0,0,0,0,0,0,0,0,0,0,0,0,0,0,0,0,0],"sum_hessian":[1.037E3,5.38E2,4.99E2,2.71E2,2.67E2,4.92E2,7E0,6.6E1,2.05E2,8.6E1,1.81E2,2.45E2,2.47E2,6.1E1,5E0,1.98E2,7E0,4E1,4.6E1,1.54E2,2.7E1,2.1E1,2.24E2,1.2E1,2.35E2,5E1,1.1E1,1.9E2,8E0,3.2E1,8E0,1.8E1,2.8E1,1.6E1,1.38E2,1.4E1,1.3E1,1.3E1,8E0,5E0,2.19E2,5E0,7E0,1.9E1,2.16E2,2.7E1,2.3E1,5E0,6E0,1.83E2,7E0,1.6E1,1.6E1,6E0,1.2E1,7E0,2.1E1,7E0,9E0,1.21E2,1.7E1,7E0,7E0,7E0,6E0,7E0,6E0,1.33E2,8.6E1,1.1E1,8E0,2.05E2,1.1E1],"tree_param":{"num_deleted":"0","num_feature":"40","num_nodes":"73","size_leaf_vector":"1"}},{"base_weights":[-1.376826E0,-1.0152303E1,9.120534E0,-2.137205E1,-1.9713339E0,7.837024E0,4.2729926E0,-6.8858223E0,-1.7903656E1,-2.214539E1,1.093742E1,1.5477511E1,1.8024831E0,-2.0243301E1,2.8423178E1,2.0067703E1,-2.7281113E1,3.2310844E1,6.4259715E0,2.4507043E0,1.426817E1,-1.7729286E0,2.6365576E0,7.36727E0,-2.4264067E1,1.876509E0,6.52224E-1,2.981356E-1,1.7660795E0,-5.990273E1,-2.0084799E1,5.695594E-1,4.8153587E1,3.362812E0,4.0967365E1,5.131911E0,1.9206343E1,6.9179034E0,-4.425224E0,9.2658967E-1,-2.0181396E0,1.3535737E-1,-1.4789346E0,2.844089E-1,-4.0380826E0,4.8349142E-1,-1.5689238E0,5.274624E-1,-4.738604E-1,2.9405096E0,1.1923505E0,-4.7482695E-2,1.1439729E0,9.5669407E-1,3.3436513E0,-3.4113964E-1,4.5490575E-1,1.749432E0,8.064861E-1,-6.084917E-2,6.5814453E-1,-9.165484E-1,-1.3472912E-1],"categories":[],"categories_nodes":[],"categories_segments":[],"categories_sizes":[],"default_left":[0,0,0,0,0,0,0,0,0,0,0,0,0,0,0,0,0,0,0,0,0,0,0,0,0,0,0,0,0,0,0,0,0,0,0,0,0,0,0,0,0,0,0,0,0,0,0,0,0,0,0,0,0,0,0,0,0,0,0,0,0,0,0],"id":23,"left_children":[1,3,5,7,9,11,-1,-1,13,15,17,19,21,23,25,27,29,31,33,-1,35,-1,37,39,41,-1,-1,-1,-1,43,45,47,49,51,53,55,57,59,61,-1,-1,-1,-1,-1,-1,-1,-1,-1,-1,-1,-1,-1,-1,-1,-1,-1,-1,-1,-1,-1,-1,-1,-1],"loss_changes":[9.912099E4,5.374354E4,4.73322E4,9.719025E4,8.87868E4,2.2239975E4,0E0,0E0,2.6696148E4,2.938189E4,1.9844922E4,7.933004E3,8.5124795E3,2.5714031E4,1.1860273E3,3.012599E3,2.672475E4,1.8070992E4,1.8162203E4,0E0,9.238098E3,0E0,8.073087E3,1.6732312E4,2.8894484E4,0E0,0E0,0E0,0E0,2.9198156E4,3.3573473E4,1.4035116E3,4.8058945E3,1.3490299E4,6.63041E3,3.5709968E3,5.9370547E3,8.450391E3,2.3791548E3,0E0,0E0,0E0,0E0,0E0,0E0,0E0,0E0,0E0,0E0,0E0,0E0,0E0,0E0,0E0,0E0,0E0,0E0,0E0,0E0,0E0,0E0,0E0,0E0],"parents":[2147483647,0,0,1,1,2,2,3,3,4,4,5,5,8,8,9,9,10,10,11,11,12,12,13,13,14,14,15,15,16,16,17,17,18,18,20,20,22,22,23,23,24,24,29,29,30,30,31,31,32,32,33,33,34,34,35,35,36,36,37,37,38,38],"right_children":[2,4,6,8,10,12,-1,-1,14,16,18,20,22,24,26,28,30,32,34,-1,36,-1,38,40,42,-1,-1,-1,-1,44,46,48,50,52,54,56,58,60,62,-1,-1,-1,-1,-1,-1,-1,-1,-1,-1,-1,-1,-1,-1,-1,-1,-1,-1,-1,-1,-1,-1,-1,-1],"split_conditions":[2.3651181E2,1.08333334E-1,5.945317E2,1.7213184E3,5.2632355E1,3.1509833E2,4.2729926E0,-6.8858223E0,4.9872333E2,1.984955E3,1.2418339E2,2.5452756E2,1.35605E2,1.5504902E1,2.7298868E2,1.18628334E2,2.5209834E2,8.542647E1,5.7731665E2,2.4507043E0,2.2895332E3,-1.7729286E0,2.91952E2,9.749279E-1,1.9979584E3,1.876509E0,6.52224E-1,2.981356E-1,1.7660795E0,1.2557638E2,5.180967E2,6.529412E1,2.3443467E3,2.37477E3,1.2622331E2,2.7801868E2,1.3932916E2,2.8657892E2,4.6127453E0,9.2658967E-1,-2.0181396E0,1.3535737E-1,-1.4789346E0,2.844089E-1,-4.0380826E0,4.8349142E-1,-1.5689238E0,5.274624E-1,-4.738604E-1,2.9405096E0,1.1923505E0,-4.7482695E-2,1.1439729E0,9.5669407E-1,3.3436513E0,-3.4113964E-1,4.5490575E-1,1.749432E0,8.064861E-1,-6.084917E-2,6.5814453E-1,-9.165484E-1,-1.3472912E-1],"split_indices":[24,10,11,4,33,3,0,0,0,7,15,28,20,34,31,18,2,32,11,0,5,0,31,38,7,0,0,0,0,15,8,34,5,6,15,28,21,30,32,0,0,0,0,0,0,0,0,0,0,0,0,0,0,0,0,0,0,0,0,0,0,0,0],"split_type":[0,0,0,0,0,0,0,0,0,0,0,0,0,0,0,0,0,0,0,0,0,0,0,0,0,0,0,0,0,0,0,0,0,0,0,0,0,0,0,0,0,0,0,0,0,0,0,0,0,0,0,0,0,0,0,0,0,0,0,0,0,0,0],"sum_hessian":[1.074E3,5.85E2,4.89E2,2.46E2,3.39E2,4.82E2,7E0,6E0,2.4E2,1.32E2,2.07E2,2.12E2,2.7E2,2.29E2,1.1E1,1.4E1,1.18E2,3.5E1,1.72E2,6E0,2.06E2,5E0,2.65E2,2.9E1,2E2,6E0,5E0,8E0,6E0,2E1,9.8E1,1.2E1,2.3E1,1.59E2,1.3E1,7.3E1,1.33E2,1.65E2,1E2,2.4E1,5E0,3.3E1,1.67E2,5E0,1.5E1,2.7E1,7.1E1,6E0,6E0,1.5E1,8E0,1.31E2,2.8E1,8E0,5E0,1.8E1,5.5E1,2E1,1.13E2,7.2E1,9.3E1,1E1,9E1],"tree_param":{"num_deleted":"0","num_feature":"40","num_nodes":"63","size_leaf_vector":"1"}},{"base_weights":[-3.6126518E-1,-9.7834E0,8.280406E0,-8.373188E0,-5.4852614E0,4.925886E0,7.280762E0,5.074782E1,-9.92166E0,1.17362385E1,-2.0187793E0,2.9663756E0,1.54168E0,-1.8181488E1,-2.2055786E0,-1.4399948E0,1.282088E1,-3.517567E1,1.5071552E-1,-2.750833E1,-5.988429E0,-2.1136578E1,8.247915E0,1.4806964E1,-4.055995E0,-3.592916E-2,-3.1876743E0,-1.4549176E0,2.2014785E0,-4.9816462E-1,-1.7844127E0,-1.0786417E0,3.6192924E-1,2.2594715E-2,-1.9425081E0,-8.03772E-1,6.353455E-1,1.7851321E-1,8.774131E-1,-5.944833E-1,3.3876032E-1,-5.977218E-1,1.3075529E-1],"categories":[],"categories_nodes":[],"categories_segments":[],"categories_sizes":[],"default_left":[0,0,0,0,0,0,0,0,0,0,0,0,0,0,0,0,0,0,0,0,0,0,0,0,0,0,0,0,0,0,0,0,0,0,0,0,0,0,0,0,0,0,0],"id":24,"left_children":[1,3,5,7,-1,-1,9,11,13,15,17,-1,-1,19,21,-1,23,25,27,29,31,33,35,37,39,-1,-1,41,-1,-1,-1,-1,-1,-1,-1,-1,-1,-1,-1,-1,-1,-1,-1],"loss_changes":[8.66338E4,7.079325E4,4.9336027E4,4.6547684E4,0E0,0E0,2.28133E4,3.8285547E2,3.1251023E4,1.6723445E4,1.2884937E4,0E0,0E0,2.6784203E4,5.0638863E4,0E0,1.2228484E4,1.077953E4,1.1974931E4,1.8871156E4,2.159564E4,3.482064E4,1.8099457E4,9.94625E3,3.390141E3,0E0,0E0,7.0404556E3,0E0,0E0,0E0,0E0,0E0,0E0,0E0,0E0,0E0,0E0,0E0,0E0,0E0,0E0,0E0],"parents":[2147483647,0,0,1,1,2,2,3,3,6,6,7,7,8,8,9,9,10,10,13,13,14,14,16,16,17,17,18,18,19,19,20,20,21,21,22,22,23,23,24,24,27,27],"right_children":[2,4,6,8,-1,-1,10,12,14,16,18,-1,-1,20,22,-1,24,26,28,30,32,34,36,38,40,-1,-1,42,-1,-1,-1,-1,-1,-1,-1,-1,-1,-1,-1,-1,-1,-1,-1],"split_conditions":[2.2788701E2,5.23935E2,1.1480264E2,1.6925517E2,-5.4852614E0,4.925886E0,2.521119E2,1.1883743E2,2.8014914E2,2.0936157E2,1.3932306E2,2.9663756E0,1.54168E0,3.2321667E2,4.49951E1,-1.4399948E0,3.3025168E2,2.4289778E2,5.9207166E2,1.3165889E2,7.557302E1,1.4247061E2,1.9894517E3,-4.3388373E-1,1E0,-3.592916E-2,-3.1876743E0,2.4553606E2,2.2014785E0,-4.9816462E-1,-1.7844127E0,-1.0786417E0,3.6192924E-1,2.2594715E-2,-1.9425081E0,-8.03772E-1,6.353455E-1,1.7851321E-1,8.774131E-1,-5.944833E-1,3.3876032E-1,-5.977218E-1,1.3075529E-1],"split_indices":[24,3,16,30,0,0,27,16,10,25,22,0,0,3,32,0,3,25,10,23,33,24,4,38,39,0,0,25,0,0,0,0,0,0,0,0,0,0,0,0,0,0,0],"split_type":[0,0,0,0,0,0,0,0,0,0,0,0,0,0,0,0,0,0,0,0,0,0,0,0,0,0,0,0,0,0,0,0,0,0,0,0,0,0,0,0,0,0,0],"sum_hessian":[1.062E3,5.08E2,5.54E2,5.02E2,6E0,5E0,5.49E2,1.2E1,4.9E2,3.71E2,1.78E2,7E0,5E0,2.36E2,2.54E2,9E0,3.62E2,1E1,1.68E2,1.33E2,1.03E2,9E1,1.64E2,3.24E2,3.8E1,5E0,5E0,1.63E2,5E0,4.3E1,9E1,4.7E1,5.6E1,4.1E1,4.9E1,2.5E1,1.39E2,6.4E1,2.6E2,2.2E1,1.6E1,4.5E1,1.18E2],"tree_param":{"num_deleted":"0","num_feature":"40","num_nodes":"43","size_leaf_vector":"1"}},{"base_weights":[-3.623582E-1,-1.1668651E1,5.87766E0,-1.4430503E1,2.2539146E1,5.109116E0,4.656791E0,-6.8754654E0,-2.8275969E1,3.990199E1,-5.3750463E0,-2.984473E0,5.8618717E0,1.4248794E1,-1.2063317E1,-5.5301294E0,-2.392317E1,2.3220558E1,3.4689045E0,6.560029E-1,-1.3036746E0,-5.4102006E0,9.674238E0,2.5973919E1,-1.4399628E1,-7.2309785E0,-4.9682602E1,-1.751659E1,-5.924843E1,2.0602844E0,-2.306519E-1,-1.0419436E1,4.6998262E0,1.8068985E1,3.9259253E0,1.7577695E0,-3.5500494E-1,-2.3279016E0,4.314077E-1,-2.2915497E-1,-2.9470603E0,-3.2118077E0,-1.2880178E-1,-2.556406E-1,-1.6693922E0,-3.7899988E0,-1.453575E0,-3.3122388E-1,-1.1982055E0,-9.010894E-2,4.3630558E-1,3.6542994E-1,1.2258918E0,-1.7111742E-1,6.22286E-1],"categories":[],"categories_nodes":[],"categories_segments":[],"categories_sizes":[],"default_left":[0,0,0,0,0,0,0,0,0,0,0,0,0,0,0,0,0,0,0,0,0,0,0,0,0,0,0,0,0,0,0,0,0,0,0,0,0,0,0,0,0,0,0,0,0,0,0,0,0,0,0,0,0,0,0],"id":25,"left_children":[1,3,5,7,9,11,-1,13,15,17,19,-1,21,23,25,-1,27,29,-1,-1,-1,31,33,35,37,39,41,43,45,-1,-1,47,49,51,53,-1,-1,-1,-1,-1,-1,-1,-1,-1,-1,-1,-1,-1,-1,-1,-1,-1,-1,-1,-1],"loss_changes":[7.598255E4,3.6509086E4,4.6055164E4,3.693614E4,1.4273351E4,3.3952203E4,0E0,2.548685E4,4.213447E4,7.2304062E3,4.9372197E3,0E0,2.9360531E4,1.5826864E4,3.3447832E4,0E0,2.6112188E4,6.7014233E3,0E0,0E0,0E0,8.810868E3,2.4537234E4,1.0273459E4,1.0773016E4,2.2452637E4,1.4224766E4,2.010238E4,6.7764414E3,0E0,0E0,5.8007637E3,1.5347963E3,1.4181797E4,1.9075652E4,0E0,0E0,0E0,0E0,0E0,0E0,0E0,0E0,0E0,0E0,0E0,0E0,0E0,0E0,0E0,0E0,0E0,0E0,0E0,0E0],"parents":[2147483647,0,0,1,1,2,2,3,3,4,4,5,5,7,7,8,8,9,9,10,10,12,12,13,13,14,14,16,16,17,17,21,21,22,22,23,23,24,24,25,25,26,26,27,27,28,28,31,31,32,32,33,33,34,34],"right_children":[2,4,6,8,10,12,-1,14,16,18,20,-1,22,24,26,-1,28,30,-1,-1,-1,32,34,36,38,40,42,44,46,-1,-1,48,50,52,54,-1,-1,-1,-1,-1,-1,-1,-1,-1,-1,-1,-1,-1,-1,-1,-1,-1,-1,-1,-1],"split_conditions":[3.0293832E2,5.790867E2,5.956254E2,1.7175131E2,2.6843332E2,1.9325356E2,4.656791E0,2.0001283E3,1.0797459E2,1.1101569E2,1.2501672E2,-2.984473E0,-4.3388373E-1,2.3668232E3,1E0,-5.5301294E0,5.71685E2,5.90335E2,3.4689045E0,6.560029E-1,-1.3036746E0,3.3676334E2,1.3404562E2,1E0,1.2472417E2,5.757083E2,2.3362417E3,1.2178445E2,2.3654749E3,2.0602844E0,-2.306519E-1,2.3883433E3,6.643137E1,2.2933267E3,1.24799164E2,1.7577695E0,-3.5500494E-1,-2.3279016E0,4.314077E-1,-2.2915497E-1,-2.9470603E0,-3.2118077E0,-1.2880178E-1,-2.556406E-1,-1.6693922E0,-3.7899988E0,-1.453575E0,-3.3122388E-1,-1.1982055E0,-9.010894E-2,4.3630558E-1,3.6542994E-1,1.2258918E0,-1.7111742E-1,6.22286E-1],"split_indices":[0,11,9,24,1,28,0,7,16,16,12,0,38,5,39,0,9,11,0,0,0,1,23,39,24,11,6,19,6,0,0,6,32,5,18,0,0,0,0,0,0,0,0,0,0,0,0,0,0,0,0,0,0,0,0],"split_type":[0,0,0,0,0,0,0,0,0,0,0,0,0,0,0,0,0,0,0,0,0,0,0,0,0,0,0,0,0,0,0,0,0,0,0,0,0,0,0,0,0,0,0,0,0,0,0,0,0,0,0,0,0,0,0],"sum_hessian":[1.075E3,3.82E2,6.93E2,3.54E2,2.8E1,6.88E2,5E0,2.3E2,1.24E2,1.7E1,1.1E1,7E0,6.81E2,4.5E1,1.85E2,5E0,1.19E2,1.2E1,5E0,6E0,5E0,1.72E2,5.09E2,3.2E1,1.3E1,1.65E2,2E1,1.02E2,1.7E1,7E0,5E0,1.15E2,5.7E1,2.06E2,3.03E2,2.5E1,7E0,5E0,8E0,1.58E2,7E0,1.5E1,5E0,5.8E1,4.4E1,1E1,7E0,9.1E1,2.4E1,2.2E1,3.5E1,7.8E1,1.28E2,1.63E2,1.4E2],"tree_param":{"num_deleted":"0","num_feature":"40","num_nodes":"55","size_leaf_vector":"1"}},{"base_weights":[-6.7299414E-1,-8.667937E0,7.957606E0,6.417102E0,-1.4114844E1,6.942498E0,3.5006979E0,-1.1479889E0,2.3256147E1,-1.1760994E1,-5.6031433E1,1.1133795E1,-1.4057748E0,-1.0689038E1,2.4105068E1,3.2536057E1,3.7662876E-1,-1.0467454E1,-3.958929E0,-9.1892976E-1,-6.9860664E1,2.2356067E0,1.0163396E1,-2.3774781E0,3.1131455E-1,1.3506045E1,-2.3311142E1,2.509485E0,4.2685604E0,5.922034E-1,4.0113617E1,1.2731968E0,-1.416705E0,-5.0785095E1,-8.285986E0,-4.689561E0,-1.8592514E0,1.1707556E0,1.2691994E1,-8.119389E0,3.7253814E0,-3.1717739E-1,9.269487E-1,-3.9444757E0,-6.8595284E-1,-1.0061185E0,1.7118076E0,1.2373838E0,2.730879E0,-5.3766513E0,-4.356358E-1,8.7928927E-1,-5.5809957E-1,-4.3609095E-1,3.476995E-1,4.4450936E-1,1.1977355E0,-8.166074E-1,-1.2275944E-1,-5.2090126E-1,4.503653E-1],"categories":[],"categories_nodes":[],"categories_segments":[],"categories_sizes":[],"default_left":[0,0,0,0,0,0,0,0,0,0,0,0,0,0,0,0,0,0,0,0,0,0,0,0,0,0,0,0,0,0,0,0,0,0,0,0,0,0,0,0,0,0,0,0,0,0,0,0,0,0,0,0,0,0,0,0,0,0,0,0,0],"id":26,"left_children":[1,3,5,7,9,11,-1,13,15,17,19,21,23,25,27,29,31,33,-1,-1,35,-1,37,-1,39,41,43,-1,45,-1,47,-1,-1,49,51,-1,-1,53,55,57,59,-1,-1,-1,-1,-1,-1,-1,-1,-1,-1,-1,-1,-1,-1,-1,-1,-1,-1,-1,-1],"loss_changes":[7.231326E4,4.4790086E4,3.1255135E4,1.85003E4,3.8800406E4,1.7406701E4,0E0,2.4591326E4,9.53885E3,3.2301035E4,9.642125E3,1.0325516E4,1.32514375E4,2.2914895E4,1.42683E4,4.537129E3,1.0805058E4,3.2467207E4,0E0,0E0,8.228469E3,0E0,7.328375E3,0E0,4.692652E3,2.7162637E3,2.503096E4,0E0,1.3116262E4,0E0,3.7663438E3,0E0,0E0,4.4414367E4,2.6684668E4,0E0,0E0,4.1796724E3,1.0574059E4,2.1444019E3,8.759408E3,0E0,0E0,0E0,0E0,0E0,0E0,0E0,0E0,0E0,0E0,0E0,0E0,0E0,0E0,0E0,0E0,0E0,0E0,0E0,0E0],"parents":[2147483647,0,0,1,1,2,2,3,3,4,4,5,5,7,7,8,8,9,9,10,10,11,11,12,12,13,13,14,14,15,15,16,16,17,17,20,20,22,22,24,24,25,25,26,26,28,28,30,30,33,33,34,34,37,37,38,38,39,39,40,40],"right_children":[2,4,6,8,10,12,-1,14,16,18,20,22,24,26,28,30,32,34,-1,-1,36,-1,38,-1,40,42,44,-1,46,-1,48,-1,-1,50,52,-1,-1,54,56,58,60,-1,-1,-1,-1,-1,-1,-1,-1,-1,-1,-1,-1,-1,-1,-1,-1,-1,-1,-1,-1],"split_conditions":[2.3321783E2,2.0590266E3,5.956254E2,3.2795334E2,1.2709961E2,2.521119E2,3.5006979E0,8.644118E1,2.33044E2,1.3598846E2,1.26453156E2,2.4861137E2,1.3844514E2,1.22311584E2,1.19247986E2,2.081785E3,0E0,1.790335E3,-3.958929E0,-9.1892976E-1,1.2842328E2,2.2356067E0,-4.3388373E-1,-2.3774781E0,-4.3388373E-1,8.941176E0,2.030195E3,2.509485E0,3.06145E2,5.922034E-1,7.5666664E1,1.2731968E0,-1.416705E0,7.7617645E1,9.904583E1,-4.689561E0,-1.8592514E0,2.9162112E2,3.327E2,3.3378665E2,3.2481332E2,-3.1717739E-1,9.269487E-1,-3.9444757E0,-6.8595284E-1,-1.0061185E0,1.7118076E0,1.2373838E0,2.730879E0,-5.3766513E0,-4.356358E-1,8.7928927E-1,-5.5809957E-1,-4.3609095E-1,3.476995E-1,4.4450936E-1,1.1977355E0,-8.166074E-1,-1.2275944E-1,-5.2090126E-1,4.503653E-1],"split_indices":[24,7,9,3,14,27,0,34,28,19,13,28,21,24,21,5,38,4,0,0,14,0,38,0,38,32,4,0,0,0,32,0,0,32,17,0,0,28,1,1,1,0,0,0,0,0,0,0,0,0,0,0,0,0,0,0,0,0,0,0,0],"split_type":[0,0,0,0,0,0,0,0,0,0,0,0,0,0,0,0,0,0,0,0,0,0,0,0,0,0,0,0,0,0,0,0,0,0,0,0,0,0,0,0,0,0,0,0,0,0,0,0,0,0,0,0,0,0,0,0,0,0,0,0,0],"sum_hessian":[1.046E3,5.43E2,5.03E2,1.44E2,3.99E2,4.96E2,7E0,1E2,4.4E1,3.79E2,2E1,3.3E2,1.66E2,7.3E1,2.7E1,3.1E1,1.3E1,3.73E2,6E0,6E0,1.4E1,8E0,3.22E2,5E0,1.61E2,2.5E1,4.8E1,1.1E1,1.6E1,9E0,2.2E1,7E0,6E0,1.8E1,3.55E2,7E0,7E0,7.1E1,2.51E2,4.6E1,1.15E2,5E0,2E1,6E0,4.2E1,9E0,7E0,1.2E1,1E1,7E0,1.1E1,3.5E1,3.2E2,2.6E1,4.5E1,1.89E2,6.2E1,1.8E1,2.8E1,3.1E1,8.4E1],"tree_param":{"num_deleted":"0","num_feature":"40","num_nodes":"61","size_leaf_vector":"1"}},{"base_weights":[8.8404495E-1,-7.049168E-2,5.6610065E0,-9.698382E0,6.237909E0,-7.810488E0,-5.997705E0,1.0840772E1,-4.267267E0,2.7832422E0,-9.358742E0,2.8905919E0,1.01769E1,-2.7389743E0,-1.5427248E0,-1.7375032E1,-9.726581E-1,2.1920131E-1,1.2658368E1,2.9842522E1,-3.6744306E0,4.8439804E-1,-1.1759061E0,-8.482442E-1,4.5229155E-1,-2.4556819E-1,4.7573122E-1,2.924123E-1,8.2061166E-1,2.2050099E-1,2.3682153E0,-2.1761725E0,-7.5859755E-2],"categories":[],"categories_nodes":[],"categories_segments":[],"categories_sizes":[],"default_left":[0,0,0,0,0,0,0,0,0,0,0,0,0,0,0,0,0,0,0,0,0,0,0,0,0,0,0,0,0,0,0,0,0],"id":27,"left_children":[1,3,-1,5,7,9,-1,11,13,-1,15,-1,17,-1,19,21,23,25,27,29,31,-1,-1,-1,-1,-1,-1,-1,-1,-1,-1,-1,-1],"loss_changes":[1.14539766E5,6.4441633E4,0E0,8.647381E4,3.1041756E4,4.120256E4,0E0,1.3312355E4,2.6883906E4,0E0,2.7207504E4,0E0,1.0892926E4,0E0,1.2618107E4,3.4643043E4,3.2037621E4,4.291669E3,8.92598E3,5.133419E3,1.5059078E4,0E0,0E0,0E0,0E0,0E0,0E0,0E0,0E0,0E0,0E0,0E0,0E0],"parents":[2147483647,0,0,1,1,3,3,4,4,5,5,7,7,8,8,10,10,12,12,14,14,15,15,16,16,17,17,18,18,19,19,20,20],"right_children":[2,4,-1,6,8,10,-1,12,14,-1,16,-1,18,-1,20,22,24,26,28,30,32,-1,-1,-1,-1,-1,-1,-1,-1,-1,-1,-1,-1],"split_conditions":[5.95393E2,1.3600958E2,5.6610065E0,5.0515167E2,2.876E2,1.88388E2,-5.997705E0,2.0011555E2,3.0204166E2,2.7832422E0,2.7859167E2,2.8905919E0,-4.3388373E-1,-2.7389743E0,1.3927888E2,1.9979584E3,4.670098E1,3.3883167E2,-5E-1,2.2827932E3,2.6592755E2,4.8439804E-1,-1.1759061E0,-8.482442E-1,4.5229155E-1,-2.4556819E-1,4.7573122E-1,2.924123E-1,8.2061166E-1,2.2050099E-1,2.3682153E0,-2.1761725E0,-7.5859755E-2],"split_indices":[10,20,0,2,31,31,0,28,0,0,9,0,38,0,20,7,34,1,36,4,28,0,0,0,0,0,0,0,0,0,0,0,0],"split_type":[0,0,0,0,0,0,0,0,0,0,0,0,0,0,0,0,0,0,0,0,0,0,0,0,0,0,0,0,0,0,0,0,0],"sum_hessian":[1.067E3,1.059E3,8E0,4.19E2,6.4E2,4.13E2,6E0,4.45E2,1.95E2,9E0,4.04E2,5E0,4.4E2,9E0,1.86E2,2.06E2,1.98E2,8.8E1,3.52E2,1.1E1,1.75E2,3.8E1,1.68E2,7.6E1,1.22E2,5.7E1,3.1E1,1.26E2,2.26E2,5E0,6E0,8E0,1.67E2],"tree_param":{"num_deleted":"0","num_feature":"40","num_nodes":"33","size_leaf_vector":"1"}},{"base_weights":[1.3088802E-1,-8.143204E-1,7.0143695E0,-1.0807035E1,5.9130054E0,-1.9303295E1,-7.051714E-1,-3.284964E0,9.032544E0,-1.6451061E1,-7.380617E1,5.2664347E0,-3.7397076E1,-1.0096274E1,6.6142383E0,2.2706552E-1,1.3799873E1,-2.1914728E1,1.2583284E1,-6.4445937E-1,-6.120273E0,-1.8494327E0,3.400461E1,4.5126683E-1,-6.1115246E1,-1.5319149E1,1.9316887E-2,1.5696934E1,9.1224724E-1,-1.7750915E0,1.5745267E0,1.6912119E1,3.088956E0,-8.8046277E-1,-2.7142534E0,-2.2078598E-1,1.7774836E0,7.2987896E-1,-6.396255E-1,3.012061E0,1.0825831E0,-1.3901724E0,-3.7722929E0,-8.976943E-1,3.9664575E-1,1.5588733E0,-3.327274E-1,1.1019226E-1,9.9183273E-1,-2.300096E-1,3.4676594E-1,-2.539129E-1,4.10444E-1,9.169571E-1,-1.0315729E0,-1.1884693E0,4.5810524E-1],"categories":[],"categories_nodes":[],"categories_segments":[],"categories_sizes":[],"default_left":[0,0,0,0,0,0,0,0,0,0,0,0,0,0,0,0,0,0,0,0,0,0,0,0,0,0,0,0,0,0,0,0,0,0,0,0,0,0,0,0,0,0,0,0,0,0,0,0,0,0,0,0,0,0,0,0,0],"id":28,"left_children":[1,3,-1,5,7,9,11,13,15,17,19,21,23,25,27,29,31,33,35,-1,-1,37,39,-1,41,43,45,47,49,-1,51,53,55,-1,-1,-1,-1,-1,-1,-1,-1,-1,-1,-1,-1,-1,-1,-1,-1,-1,-1,-1,-1,-1,-1,-1,-1],"loss_changes":[1.3843427E5,6.9843164E4,0E0,3.5860523E4,1.7848861E4,3.4065055E4,4.2269203E4,1.0720521E4,1.9473547E4,3.4700273E4,3.0974508E4,3.401261E4,3.028527E4,4.968078E3,3.3503337E3,7.9480073E3,9.979602E3,2.4541516E4,1.3824289E4,0E0,0E0,2.4304002E4,9.382773E3,0E0,6.484836E3,3.9417383E3,7.0721187E3,1.3505195E3,1.3934117E3,0E0,7.0597705E3,1.2861227E4,1.14712295E4,0E0,0E0,0E0,0E0,0E0,0E0,0E0,0E0,0E0,0E0,0E0,0E0,0E0,0E0,0E0,0E0,0E0,0E0,0E0,0E0,0E0,0E0,0E0,0E0],"parents":[2147483647,0,0,1,1,3,3,4,4,5,5,6,6,7,7,8,8,9,9,10,10,11,11,12,12,13,13,14,14,15,15,16,16,17,17,18,18,21,21,22,22,24,24,25,25,26,26,27,27,28,28,30,30,31,31,32,32],"right_children":[2,4,-1,6,8,10,12,14,16,18,20,22,24,26,28,30,32,34,36,-1,-1,38,40,-1,42,44,46,48,50,-1,52,54,56,-1,-1,-1,-1,-1,-1,-1,-1,-1,-1,-1,-1,-1,-1,-1,-1,-1,-1,-1,-1,-1,-1,-1,-1],"split_conditions":[5.958569E2,3.0796832E2,7.0143695E0,2.31259E3,-4.3388373E-1,3.3518167E2,1.2558404E2,3.3668668E2,-7.0710677E-1,1.3576726E2,1.854635E3,1.2475084E2,2.39104E2,5.6001166E2,2.3280984E3,1.1526486E2,9.749279E-1,1.1589702E2,2.7989667E2,-6.4445937E-1,-6.120273E0,2.34533E3,2.3213E3,4.5126683E-1,2.0721964E2,2.44842E3,3.1786835E2,6.7754906E1,2.360305E3,-1.7750915E0,3.2743832E2,2.91952E2,1.18222084E2,-8.8046277E-1,-2.7142534E0,-2.2078598E-1,1.7774836E0,7.2987896E-1,-6.396255E-1,3.012061E0,1.0825831E0,-1.3901724E0,-3.7722929E0,-8.976943E-1,3.9664575E-1,1.5588733E0,-3.327274E-1,1.1019226E-1,9.9183273E-1,-2.300096E-1,3.4676594E-1,-2.539129E-1,4.10444E-1,9.169571E-1,-1.0315729E0,-1.1884693E0,4.5810524E-1],"split_indices":[11,0,0,4,38,3,13,0,36,21,6,13,28,9,4,19,38,16,11,0,0,5,4,0,25,4,0,33,6,0,1,31,17,0,0,0,0,0,0,0,0,0,0,0,0,0,0,0,0,0,0,0,0,0,0,0,0],"split_type":[0,0,0,0,0,0,0,0,0,0,0,0,0,0,0,0,0,0,0,0,0,0,0,0,0,0,0,0,0,0,0,0,0,0,0,0,0,0,0,0,0,0,0,0,0,0,0,0,0,0,0,0,0,0,0,0,0],"sum_hessian":[1.043E3,1.037E3,6E0,4.17E2,6.2E2,2.26E2,1.91E2,1.57E2,4.63E2,2.16E2,1E1,1.65E2,2.6E1,9.3E1,6.4E1,1.63E2,3E2,1.82E2,3.4E1,5E0,5E0,1.33E2,3.2E1,9E0,1.7E1,6.1E1,3.2E1,2.4E1,4E1,5E0,1.58E2,2.32E2,6.8E1,1.62E2,2E1,2E1,1.4E1,5.3E1,8E1,9E0,2.3E1,6E0,1.1E1,5.5E1,6E0,5E0,2.7E1,6E0,1.8E1,2.1E1,1.9E1,7.9E1,7.9E1,2.24E2,8E0,1.2E1,5.6E1],"tree_param":{"num_deleted":"0","num_feature":"40","num_nodes":"57","size_leaf_vector":"1"}},{"base_weights":[6.6272134E-1,-2.1050969E-1,5.7492824E0,1.1218024E1,-4.681739E0,2.470095E1,9.711197E0,2.8301271E1,-5.945759E0,3.372527E1,1.099215E1,-4.671985E0,1.1690063E1,7.6084816E-1,4.355368E1,-1.25768585E1,6.288419E-1,2.2384079E0,7.8467506E-1,2.8427264E-1,8.1095284E-1,-9.451158E0,5.7364645E0,8.751931E0,2.0923525E1,-6.4727634E-1,7.1785414E-1,1.2355973E0,2.5453444E0,-2.4400383E1,1.9627942E-1,1.9174469E1,-2.0304344E0,-1.7569754E-1,-1.1252819E0,-2.461528E-1,7.7282876E-1,4.2658016E-2,5.360002E-1,1.8043339E0,5.395865E-1,-1.0471781E0,-3.9055355E0,-5.193105E-1,8.501173E-1,